<?xml version="1.0"?>
<opencv_storage>
<cascade>
  <stageType>BOOST</stageType>
  <featureType>HAAR</featureType>
  <height>30</height>
  <width>50</width>
  <stageParams>
    <boostType>GAB</boostType>
    <minHitRate>9.9500000476837158e-01</minHitRate>
    <maxFalseAlarm>3.0000001192092896e-01</maxFalseAlarm>
    <weightTrimRate>9.4999999999999996e-01</weightTrimRate>
    <maxDepth>1</maxDepth>
    <maxWeakCount>100</maxWeakCount></stageParams>
  <featureParams>
    <maxCatCount>0</maxCatCount>
    <featSize>1</featSize>
    <mode>BASIC</mode></featureParams>
  <stageNum>10</stageNum>
  <stages>
    <!-- stage 0 -->
    <_>
      <maxWeakCount>9</maxWeakCount>
      <stageThreshold>-1.6319880485534668e+00</stageThreshold>
      <weakClassifiers>
        <_>
          <internalNodes>
            0 -1 47 3.9778836071491241e-02</internalNodes>
          <leafValues>
            -6.7346209287643433e-01 7.5383436679840088e-01</leafValues></_>
        <_>
          <internalNodes>
            0 -1 24 1.2894421815872192e-02</internalNodes>
          <leafValues>
            -6.1094832420349121e-01 4.6820279955863953e-01</leafValues></_>
        <_>
          <internalNodes>
            0 -1 221 -7.0644557476043701e-02</internalNodes>
          <leafValues>
            3.0596545338630676e-01 -9.0986895561218262e-01</leafValues></_>
        <_>
          <internalNodes>
            0 -1 83 -2.1198922768235207e-02</internalNodes>
          <leafValues>
            8.5348755121231079e-01 -3.1040701270103455e-01</leafValues></_>
        <_>
          <internalNodes>
            0 -1 160 1.1156834661960602e-02</internalNodes>
          <leafValues>
            -2.3140963912010193e-01 7.9399347305297852e-01</leafValues></_>
        <_>
          <internalNodes>
            0 -1 144 5.2080284804105759e-03</internalNodes>
          <leafValues>
            -4.7924709320068359e-01 4.0520322322845459e-01</leafValues></_>
        <_>
          <internalNodes>
            0 -1 103 2.8830584138631821e-02</internalNodes>
          <leafValues>
            -3.3227029442787170e-01 5.7112854719161987e-01</leafValues></_>
        <_>
          <internalNodes>
            0 -1 258 -1.2030802667140961e-02</internalNodes>
          <leafValues>
            7.5642889738082886e-01 -1.6099144518375397e-01</leafValues></_>
        <_>
          <internalNodes>
            0 -1 71 -2.5211047381162643e-02</internalNodes>
          <leafValues>
            7.4673599004745483e-01 -1.6462066769599915e-01</leafValues></_></weakClassifiers></_>
    <!-- stage 1 -->
    <_>
      <maxWeakCount>11</maxWeakCount>
      <stageThreshold>-1.2958033084869385e+00</stageThreshold>
      <weakClassifiers>
        <_>
          <internalNodes>
            0 -1 102 -4.1306503117084503e-02</internalNodes>
          <leafValues>
            7.8357571363449097e-01 -6.1958378553390503e-01</leafValues></_>
        <_>
          <internalNodes>
            0 -1 88 7.2511047124862671e-02</internalNodes>
          <leafValues>
            -4.4435146450996399e-01 6.8733835220336914e-01</leafValues></_>
        <_>
          <internalNodes>
            0 -1 279 -1.9727349281311035e-02</internalNodes>
          <leafValues>
            -9.1505157947540283e-01 2.7899518609046936e-01</leafValues></_>
        <_>
          <internalNodes>
            0 -1 59 -3.3570066094398499e-02</internalNodes>
          <leafValues>
            7.4538499116897583e-01 -3.4677952527999878e-01</leafValues></_>
        <_>
          <internalNodes>
            0 -1 15 3.7058010697364807e-02</internalNodes>
          <leafValues>
            -2.2863513231277466e-01 6.8186336755752563e-01</leafValues></_>
        <_>
          <internalNodes>
            0 -1 194 7.8626628965139389e-03</internalNodes>
          <leafValues>
            -1.9358123838901520e-01 6.6620427370071411e-01</leafValues></_>
        <_>
          <internalNodes>
            0 -1 66 4.6691009774804115e-03</internalNodes>
          <leafValues>
            -2.1649797260761261e-01 6.8724232912063599e-01</leafValues></_>
        <_>
          <internalNodes>
            0 -1 118 1.9862134009599686e-02</internalNodes>
          <leafValues>
            -1.9054518640041351e-01 6.6759246587753296e-01</leafValues></_>
        <_>
          <internalNodes>
            0 -1 178 1.3230346143245697e-02</internalNodes>
          <leafValues>
            -1.9143940508365631e-01 6.4535450935363770e-01</leafValues></_>
        <_>
          <internalNodes>
            0 -1 173 5.9534437954425812e-02</internalNodes>
          <leafValues>
            1.9556616246700287e-01 -8.2512474060058594e-01</leafValues></_>
        <_>
          <internalNodes>
            0 -1 68 1.5516165643930435e-02</internalNodes>
          <leafValues>
            -1.9708870351314545e-01 6.7126482725143433e-01</leafValues></_></weakClassifiers></_>
    <!-- stage 2 -->
    <_>
      <maxWeakCount>16</maxWeakCount>
      <stageThreshold>-1.5713453292846680e+00</stageThreshold>
      <weakClassifiers>
        <_>
          <internalNodes>
            0 -1 260 -2.5451574474573135e-02</internalNodes>
          <leafValues>
            7.3388963937759399e-01 -5.5982130765914917e-01</leafValues></_>
        <_>
          <internalNodes>
            0 -1 44 -4.1173346340656281e-02</internalNodes>
          <leafValues>
            -5.5095738172531128e-01 5.1004761457443237e-01</leafValues></_>
        <_>
          <internalNodes>
            0 -1 182 5.5620656348764896e-03</internalNodes>
          <leafValues>
            -5.4021954536437988e-01 4.1311365365982056e-01</leafValues></_>
        <_>
          <internalNodes>
            0 -1 86 -7.6245173811912537e-02</internalNodes>
          <leafValues>
            7.0917540788650513e-01 -2.5454315543174744e-01</leafValues></_>
        <_>
          <internalNodes>
            0 -1 203 3.8365546613931656e-02</internalNodes>
          <leafValues>
            -3.1483343243598938e-01 4.4956177473068237e-01</leafValues></_>
        <_>
          <internalNodes>
            0 -1 106 -3.8773410022258759e-02</internalNodes>
          <leafValues>
            7.8212618827819824e-01 -1.5680402517318726e-01</leafValues></_>
        <_>
          <internalNodes>
            0 -1 27 1.4653179794549942e-02</internalNodes>
          <leafValues>
            -3.5666736960411072e-01 3.0876845121383667e-01</leafValues></_>
        <_>
          <internalNodes>
            0 -1 108 -9.5555773004889488e-03</internalNodes>
          <leafValues>
            6.5305763483047485e-01 -1.6334086656570435e-01</leafValues></_>
        <_>
          <internalNodes>
            0 -1 99 -2.9161605983972549e-02</internalNodes>
          <leafValues>
            7.8414571285247803e-01 -1.7631570994853973e-01</leafValues></_>
        <_>
          <internalNodes>
            0 -1 175 -6.8370446562767029e-02</internalNodes>
          <leafValues>
            -7.3916828632354736e-01 1.8233957886695862e-01</leafValues></_>
        <_>
          <internalNodes>
            0 -1 78 3.0018839985132217e-02</internalNodes>
          <leafValues>
            -1.7097145318984985e-01 6.3711172342300415e-01</leafValues></_>
        <_>
          <internalNodes>
            0 -1 56 4.8170890659093857e-03</internalNodes>
          <leafValues>
            -1.6728280484676361e-01 6.1135619878768921e-01</leafValues></_>
        <_>
          <internalNodes>
            0 -1 143 7.7270846813917160e-03</internalNodes>
          <leafValues>
            -1.4921027421951294e-01 5.4875922203063965e-01</leafValues></_>
        <_>
          <internalNodes>
            0 -1 11 4.2889781296253204e-02</internalNodes>
          <leafValues>
            -1.8683023750782013e-01 5.2630972862243652e-01</leafValues></_>
        <_>
          <internalNodes>
            0 -1 35 1.9303269684314728e-02</internalNodes>
          <leafValues>
            -1.8959452211856842e-01 5.4090219736099243e-01</leafValues></_>
        <_>
          <internalNodes>
            0 -1 19 5.2233841270208359e-03</internalNodes>
          <leafValues>
            1.6224068403244019e-01 -6.6501688957214355e-01</leafValues></_></weakClassifiers></_>
    <!-- stage 3 -->
    <_>
      <maxWeakCount>22</maxWeakCount>
      <stageThreshold>-1.6912113428115845e+00</stageThreshold>
      <weakClassifiers>
        <_>
          <internalNodes>
            0 -1 39 4.1712909936904907e-02</internalNodes>
          <leafValues>
            -6.1477291584014893e-01 6.6076350212097168e-01</leafValues></_>
        <_>
          <internalNodes>
            0 -1 85 -2.9486594721674919e-02</internalNodes>
          <leafValues>
            7.6046448945999146e-01 -2.9805478453636169e-01</leafValues></_>
        <_>
          <internalNodes>
            0 -1 9 1.4826199039816856e-02</internalNodes>
          <leafValues>
            -1.9170287251472473e-01 6.2088233232498169e-01</leafValues></_>
        <_>
          <internalNodes>
            0 -1 119 9.3218293040990829e-03</internalNodes>
          <leafValues>
            -2.2781090438365936e-01 5.6604605913162231e-01</leafValues></_>
        <_>
          <internalNodes>
            0 -1 70 -1.2646885216236115e-01</internalNodes>
          <leafValues>
            -5.0848120450973511e-01 2.3619231581687927e-01</leafValues></_>
        <_>
          <internalNodes>
            0 -1 233 -1.0667406022548676e-02</internalNodes>
          <leafValues>
            6.2803268432617188e-01 -1.6160599887371063e-01</leafValues></_>
        <_>
          <internalNodes>
            0 -1 52 7.2059035301208496e-03</internalNodes>
          <leafValues>
            -9.7049690783023834e-02 7.4068731069564819e-01</leafValues></_>
        <_>
          <internalNodes>
            0 -1 125 3.2841309905052185e-02</internalNodes>
          <leafValues>
            -1.0377722233533859e-01 8.3810216188430786e-01</leafValues></_>
        <_>
          <internalNodes>
            0 -1 174 4.4111330062150955e-03</internalNodes>
          <leafValues>
            -1.4442132413387299e-01 5.6857681274414063e-01</leafValues></_>
        <_>
          <internalNodes>
            0 -1 113 1.4943104237318039e-02</internalNodes>
          <leafValues>
            -1.5590400993824005e-01 7.2238117456436157e-01</leafValues></_>
        <_>
          <internalNodes>
            0 -1 72 1.9130267202854156e-02</internalNodes>
          <leafValues>
            -1.1851058155298233e-01 6.6481417417526245e-01</leafValues></_>
        <_>
          <internalNodes>
            0 -1 110 2.3907218128442764e-02</internalNodes>
          <leafValues>
            1.4619193971157074e-01 -6.6687983274459839e-01</leafValues></_>
        <_>
          <internalNodes>
            0 -1 4 -7.4343241751194000e-02</internalNodes>
          <leafValues>
            -6.4935100078582764e-01 1.3876776397228241e-01</leafValues></_>
        <_>
          <internalNodes>
            0 -1 146 -4.3340595439076424e-03</internalNodes>
          <leafValues>
            4.8833093047142029e-01 -1.9842861592769623e-01</leafValues></_>
        <_>
          <internalNodes>
            0 -1 259 -2.8276789933443069e-02</internalNodes>
          <leafValues>
            7.8082007169723511e-01 -8.5019707679748535e-02</leafValues></_>
        <_>
          <internalNodes>
            0 -1 120 -7.7983881346881390e-03</internalNodes>
          <leafValues>
            5.8917963504791260e-01 -1.4299844205379486e-01</leafValues></_>
        <_>
          <internalNodes>
            0 -1 136 1.8094178289175034e-02</internalNodes>
          <leafValues>
            -1.0757284611463547e-01 7.1726661920547485e-01</leafValues></_>
        <_>
          <internalNodes>
            0 -1 180 -5.7592317461967468e-03</internalNodes>
          <leafValues>
            -7.5491774082183838e-01 1.1603309214115143e-01</leafValues></_>
        <_>
          <internalNodes>
            0 -1 46 3.7869051098823547e-02</internalNodes>
          <leafValues>
            -1.0966625809669495e-01 6.9901162385940552e-01</leafValues></_>
        <_>
          <internalNodes>
            0 -1 1 5.2055098116397858e-02</internalNodes>
          <leafValues>
            -2.7577376365661621e-01 2.7269574999809265e-01</leafValues></_>
        <_>
          <internalNodes>
            0 -1 132 1.7950696870684624e-02</internalNodes>
          <leafValues>
            -1.5291474759578705e-01 5.4557472467422485e-01</leafValues></_>
        <_>
          <internalNodes>
            0 -1 189 -1.7217654734849930e-02</internalNodes>
          <leafValues>
            7.4299573898315430e-01 -9.9571757018566132e-02</leafValues></_></weakClassifiers></_>
    <!-- stage 4 -->
    <_>
      <maxWeakCount>27</maxWeakCount>
      <stageThreshold>-1.4864481687545776e+00</stageThreshold>
      <weakClassifiers>
        <_>
          <internalNodes>
            0 -1 264 -1.9787155091762543e-02</internalNodes>
          <leafValues>
            6.3754886388778687e-01 -5.5382269620895386e-01</leafValues></_>
        <_>
          <internalNodes>
            0 -1 87 -7.7418938279151917e-02</internalNodes>
          <leafValues>
            7.5989866256713867e-01 -2.4316912889480591e-01</leafValues></_>
        <_>
          <internalNodes>
            0 -1 10 1.1028740555047989e-02</internalNodes>
          <leafValues>
            -3.2060858607292175e-01 4.2642578482627869e-01</leafValues></_>
        <_>
          <internalNodes>
            0 -1 222 3.3526569604873657e-02</internalNodes>
          <leafValues>
            -3.5968035459518433e-01 3.1911823153495789e-01</leafValues></_>
        <_>
          <internalNodes>
            0 -1 58 -4.5130334794521332e-02</internalNodes>
          <leafValues>
            7.0025396347045898e-01 -1.6618376970291138e-01</leafValues></_>
        <_>
          <internalNodes>
            0 -1 261 4.8173908144235611e-03</internalNodes>
          <leafValues>
            -1.7563292384147644e-01 5.4302233457565308e-01</leafValues></_>
        <_>
          <internalNodes>
            0 -1 138 1.0960403596982360e-03</internalNodes>
          <leafValues>
            -4.4561809301376343e-01 2.3423901200294495e-01</leafValues></_>
        <_>
          <internalNodes>
            0 -1 41 -1.2195400893688202e-02</internalNodes>
          <leafValues>
            6.6209077835083008e-01 -1.1955080181360245e-01</leafValues></_>
        <_>
          <internalNodes>
            0 -1 271 -5.6202840059995651e-03</internalNodes>
          <leafValues>
            -8.3530890941619873e-01 1.0151384025812149e-01</leafValues></_>
        <_>
          <internalNodes>
            0 -1 137 6.1313482001423836e-03</internalNodes>
          <leafValues>
            1.2549792230129242e-01 -5.4241490364074707e-01</leafValues></_>
        <_>
          <internalNodes>
            0 -1 172 -4.7093546018004417e-03</internalNodes>
          <leafValues>
            -7.4148774147033691e-01 1.0075233876705170e-01</leafValues></_>
        <_>
          <internalNodes>
            0 -1 12 5.1667071878910065e-02</internalNodes>
          <leafValues>
            -3.1831490993499756e-01 2.0702527463436127e-01</leafValues></_>
        <_>
          <internalNodes>
            0 -1 101 1.5158475376665592e-02</internalNodes>
          <leafValues>
            -1.6174957156181335e-01 3.9276656508445740e-01</leafValues></_>
        <_>
          <internalNodes>
            0 -1 23 2.1324418485164642e-03</internalNodes>
          <leafValues>
            1.2723635137081146e-01 -5.4231321811676025e-01</leafValues></_>
        <_>
          <internalNodes>
            0 -1 192 3.2531393226236105e-03</internalNodes>
          <leafValues>
            -1.9284267723560333e-01 3.4405252337455750e-01</leafValues></_>
        <_>
          <internalNodes>
            0 -1 93 -1.4200326986610889e-03</internalNodes>
          <leafValues>
            4.3739992380142212e-01 -1.6517475247383118e-01</leafValues></_>
        <_>
          <internalNodes>
            0 -1 218 2.3871415760368109e-03</internalNodes>
          <leafValues>
            1.0492312163114548e-01 -7.1501731872558594e-01</leafValues></_>
        <_>
          <internalNodes>
            0 -1 274 -2.8527688700705767e-03</internalNodes>
          <leafValues>
            -7.7932769060134888e-01 5.9160616248846054e-02</leafValues></_>
        <_>
          <internalNodes>
            0 -1 123 2.1439090371131897e-02</internalNodes>
          <leafValues>
            -1.1324099451303482e-01 5.8606982231140137e-01</leafValues></_>
        <_>
          <internalNodes>
            0 -1 206 -5.3027212619781494e-02</internalNodes>
          <leafValues>
            9.7491450607776642e-02 -6.9066125154495239e-01</leafValues></_>
        <_>
          <internalNodes>
            0 -1 204 -9.1451231855899096e-04</internalNodes>
          <leafValues>
            -8.0492019653320313e-01 5.9864331036806107e-02</leafValues></_>
        <_>
          <internalNodes>
            0 -1 40 6.2257558107376099e-02</internalNodes>
          <leafValues>
            -2.6672601699829102e-01 2.4247077107429504e-01</leafValues></_>
        <_>
          <internalNodes>
            0 -1 81 -9.0989092132076621e-04</internalNodes>
          <leafValues>
            3.7681511044502258e-01 -1.7881231009960175e-01</leafValues></_>
        <_>
          <internalNodes>
            0 -1 117 9.1651380062103271e-03</internalNodes>
          <leafValues>
            -1.6215606033802032e-01 3.8975626230239868e-01</leafValues></_>
        <_>
          <internalNodes>
            0 -1 105 -1.0530710220336914e-02</internalNodes>
          <leafValues>
            -8.6413878202438354e-01 6.9115824997425079e-02</leafValues></_>
        <_>
          <internalNodes>
            0 -1 183 -7.2920275852084160e-04</internalNodes>
          <leafValues>
            4.2697885632514954e-01 -1.5279270708560944e-01</leafValues></_>
        <_>
          <internalNodes>
            0 -1 208 4.0207034908235073e-03</internalNodes>
          <leafValues>
            -1.5021076798439026e-01 3.8924080133438110e-01</leafValues></_></weakClassifiers></_>
    <!-- stage 5 -->
    <_>
      <maxWeakCount>32</maxWeakCount>
      <stageThreshold>-1.5176873207092285e+00</stageThreshold>
      <weakClassifiers>
        <_>
          <internalNodes>
            0 -1 29 2.8151333332061768e-02</internalNodes>
          <leafValues>
            -6.1224085092544556e-01 4.1499203443527222e-01</leafValues></_>
        <_>
          <internalNodes>
            0 -1 257 -9.9043827503919601e-03</internalNodes>
          <leafValues>
            5.4820030927658081e-01 -3.4294679760932922e-01</leafValues></_>
        <_>
          <internalNodes>
            0 -1 156 -1.5276087448000908e-02</internalNodes>
          <leafValues>
            3.4745445847511292e-01 -3.4805041551589966e-01</leafValues></_>
        <_>
          <internalNodes>
            0 -1 20 1.5898603945970535e-02</internalNodes>
          <leafValues>
            -2.6651552319526672e-01 3.6478602886199951e-01</leafValues></_>
        <_>
          <internalNodes>
            0 -1 197 5.6336428970098495e-03</internalNodes>
          <leafValues>
            -3.5410967469215393e-01 2.2759449481964111e-01</leafValues></_>
        <_>
          <internalNodes>
            0 -1 139 -4.6054437756538391e-02</internalNodes>
          <leafValues>
            -9.8476207256317139e-01 1.0777145624160767e-01</leafValues></_>
        <_>
          <internalNodes>
            0 -1 247 -5.1374924369156361e-03</internalNodes>
          <leafValues>
            5.2222418785095215e-01 -1.6297024488449097e-01</leafValues></_>
        <_>
          <internalNodes>
            0 -1 201 1.3961059739813209e-03</internalNodes>
          <leafValues>
            1.1424397677183151e-01 -7.3036694526672363e-01</leafValues></_>
        <_>
          <internalNodes>
            0 -1 55 5.2176183089613914e-03</internalNodes>
          <leafValues>
            -1.4220656454563141e-01 5.6477367877960205e-01</leafValues></_>
        <_>
          <internalNodes>
            0 -1 57 5.3264554589986801e-03</internalNodes>
          <leafValues>
            -1.2478948384523392e-01 5.3228837251663208e-01</leafValues></_>
        <_>
          <internalNodes>
            0 -1 148 8.2232877612113953e-03</internalNodes>
          <leafValues>
            -1.4575806260108948e-01 4.4068059325218201e-01</leafValues></_>
        <_>
          <internalNodes>
            0 -1 36 3.0140376184135675e-03</internalNodes>
          <leafValues>
            1.1092070490121841e-01 -6.4794224500656128e-01</leafValues></_>
        <_>
          <internalNodes>
            0 -1 126 1.6980608925223351e-02</internalNodes>
          <leafValues>
            -1.7123766243457794e-01 3.8529351353645325e-01</leafValues></_>
        <_>
          <internalNodes>
            0 -1 244 4.8870909959077835e-03</internalNodes>
          <leafValues>
            -1.3927507400512695e-01 5.2623099088668823e-01</leafValues></_>
        <_>
          <internalNodes>
            0 -1 67 8.6886137723922729e-03</internalNodes>
          <leafValues>
            -1.4108833670616150e-01 4.2688629031181335e-01</leafValues></_>
        <_>
          <internalNodes>
            0 -1 124 -1.9863592460751534e-02</internalNodes>
          <leafValues>
            -7.6794767379760742e-01 9.4106152653694153e-02</leafValues></_>
        <_>
          <internalNodes>
            0 -1 153 3.7160788197070360e-03</internalNodes>
          <leafValues>
            -2.1641093492507935e-01 3.1095263361930847e-01</leafValues></_>
        <_>
          <internalNodes>
            0 -1 3 1.9916158635169268e-03</internalNodes>
          <leafValues>
            -4.1537317633628845e-01 1.6044186055660248e-01</leafValues></_>
        <_>
          <internalNodes>
            0 -1 75 3.8179741241037846e-03</internalNodes>
          <leafValues>
            -1.3977426290512085e-01 5.0655722618103027e-01</leafValues></_>
        <_>
          <internalNodes>
            0 -1 131 9.5161395147442818e-03</internalNodes>
          <leafValues>
            -1.5103596448898315e-01 4.2426210641860962e-01</leafValues></_>
        <_>
          <internalNodes>
            0 -1 80 -4.9282126128673553e-02</internalNodes>
          <leafValues>
            4.5024567842483521e-01 -1.9852773845195770e-01</leafValues></_>
        <_>
          <internalNodes>
            0 -1 33 -7.3683410882949829e-03</internalNodes>
          <leafValues>
            5.1731109619140625e-01 -1.2345604598522186e-01</leafValues></_>
        <_>
          <internalNodes>
            0 -1 22 1.1298356577754021e-02</internalNodes>
          <leafValues>
            -3.7990835309028625e-01 1.8469040095806122e-01</leafValues></_>
        <_>
          <internalNodes>
            0 -1 158 9.4603914767503738e-03</internalNodes>
          <leafValues>
            6.0922961682081223e-02 -7.6679533720016479e-01</leafValues></_>
        <_>
          <internalNodes>
            0 -1 111 -2.7445624582469463e-03</internalNodes>
          <leafValues>
            5.3027504682540894e-01 -1.2403269857168198e-01</leafValues></_>
        <_>
          <internalNodes>
            0 -1 152 -1.0882863774895668e-02</internalNodes>
          <leafValues>
            -7.3999112844467163e-01 8.5986725986003876e-02</leafValues></_>
        <_>
          <internalNodes>
            0 -1 157 7.5958215165883303e-04</internalNodes>
          <leafValues>
            -1.4870147407054901e-01 3.7123441696166992e-01</leafValues></_>
        <_>
          <internalNodes>
            0 -1 151 -2.2037686780095100e-02</internalNodes>
          <leafValues>
            -4.0111210942268372e-01 1.4420789480209351e-01</leafValues></_>
        <_>
          <internalNodes>
            0 -1 232 -1.5326880384236574e-03</internalNodes>
          <leafValues>
            2.2269786894321442e-01 -2.6369723677635193e-01</leafValues></_>
        <_>
          <internalNodes>
            0 -1 256 5.7670185342431068e-03</internalNodes>
          <leafValues>
            -1.3904096186161041e-01 3.9479067921638489e-01</leafValues></_>
        <_>
          <internalNodes>
            0 -1 249 1.8760277889668941e-03</internalNodes>
          <leafValues>
            -1.7211098968982697e-01 3.2904967665672302e-01</leafValues></_>
        <_>
          <internalNodes>
            0 -1 248 2.5195828638970852e-03</internalNodes>
          <leafValues>
            9.8475255072116852e-02 -5.9719759225845337e-01</leafValues></_></weakClassifiers></_>
    <!-- stage 6 -->
    <_>
      <maxWeakCount>38</maxWeakCount>
      <stageThreshold>-1.4792500734329224e+00</stageThreshold>
      <weakClassifiers>
        <_>
          <internalNodes>
            0 -1 5 1.6984706744551659e-02</internalNodes>
          <leafValues>
            -5.8449733257293701e-01 3.7568175792694092e-01</leafValues></_>
        <_>
          <internalNodes>
            0 -1 190 1.1716559529304504e-02</internalNodes>
          <leafValues>
            -3.6688295006752014e-01 5.1108652353286743e-01</leafValues></_>
        <_>
          <internalNodes>
            0 -1 195 -4.1936416178941727e-02</internalNodes>
          <leafValues>
            5.2072805166244507e-01 -1.9788853824138641e-01</leafValues></_>
        <_>
          <internalNodes>
            0 -1 196 7.8935198485851288e-02</internalNodes>
          <leafValues>
            -2.9283219575881958e-01 3.1430613994598389e-01</leafValues></_>
        <_>
          <internalNodes>
            0 -1 14 2.8249169699847698e-03</internalNodes>
          <leafValues>
            1.8008339405059814e-01 -5.2986663579940796e-01</leafValues></_>
        <_>
          <internalNodes>
            0 -1 269 6.3967606984078884e-03</internalNodes>
          <leafValues>
            1.4119501411914825e-01 -6.3352149724960327e-01</leafValues></_>
        <_>
          <internalNodes>
            0 -1 278 -2.6502166874706745e-03</internalNodes>
          <leafValues>
            -5.9201174974441528e-01 9.7995683550834656e-02</leafValues></_>
        <_>
          <internalNodes>
            0 -1 142 -7.4046789668500423e-03</internalNodes>
          <leafValues>
            5.1389986276626587e-01 -1.2596283853054047e-01</leafValues></_>
        <_>
          <internalNodes>
            0 -1 34 1.5189487021416426e-03</internalNodes>
          <leafValues>
            6.0761168599128723e-02 -7.5836032629013062e-01</leafValues></_>
        <_>
          <internalNodes>
            0 -1 0 1.4540302800014615e-03</internalNodes>
          <leafValues>
            9.8755255341529846e-02 -5.3358590602874756e-01</leafValues></_>
        <_>
          <internalNodes>
            0 -1 273 -6.4527862705290318e-03</internalNodes>
          <leafValues>
            6.0518652200698853e-01 -1.0004805773496628e-01</leafValues></_>
        <_>
          <internalNodes>
            0 -1 167 2.3636350408196449e-02</internalNodes>
          <leafValues>
            -8.5795290768146515e-02 6.1075752973556519e-01</leafValues></_>
        <_>
          <internalNodes>
            0 -1 141 2.6376736350357533e-03</internalNodes>
          <leafValues>
            -3.5542720556259155e-01 1.7642785608768463e-01</leafValues></_>
        <_>
          <internalNodes>
            0 -1 61 1.3811504468321800e-02</internalNodes>
          <leafValues>
            -1.5176776051521301e-01 3.8768148422241211e-01</leafValues></_>
        <_>
          <internalNodes>
            0 -1 169 8.8974479585886002e-03</internalNodes>
          <leafValues>
            8.2956239581108093e-02 -7.2160142660140991e-01</leafValues></_>
        <_>
          <internalNodes>
            0 -1 74 -1.5893302625045180e-03</internalNodes>
          <leafValues>
            3.9344000816345215e-01 -1.5117098391056061e-01</leafValues></_>
        <_>
          <internalNodes>
            0 -1 168 -6.6270795650780201e-03</internalNodes>
          <leafValues>
            -8.8385915756225586e-01 7.8144088387489319e-02</leafValues></_>
        <_>
          <internalNodes>
            0 -1 184 -6.4408313482999802e-04</internalNodes>
          <leafValues>
            3.8928848505020142e-01 -1.5729053318500519e-01</leafValues></_>
        <_>
          <internalNodes>
            0 -1 73 4.7536613419651985e-03</internalNodes>
          <leafValues>
            1.1725591868162155e-01 -5.2750486135482788e-01</leafValues></_>
        <_>
          <internalNodes>
            0 -1 30 -2.1345834247767925e-03</internalNodes>
          <leafValues>
            -4.7262325882911682e-01 1.1049967259168625e-01</leafValues></_>
        <_>
          <internalNodes>
            0 -1 77 3.2439792994409800e-03</internalNodes>
          <leafValues>
            -1.0243456810712814e-01 5.1254433393478394e-01</leafValues></_>
        <_>
          <internalNodes>
            0 -1 21 2.1812625229358673e-02</internalNodes>
          <leafValues>
            -2.6691263914108276e-01 1.9590187072753906e-01</leafValues></_>
        <_>
          <internalNodes>
            0 -1 48 -1.8387832678854465e-03</internalNodes>
          <leafValues>
            3.7039557099342346e-01 -1.6858947277069092e-01</leafValues></_>
        <_>
          <internalNodes>
            0 -1 270 1.1730927508324385e-03</internalNodes>
          <leafValues>
            8.5423193871974945e-02 -6.1305272579193115e-01</leafValues></_>
        <_>
          <internalNodes>
            0 -1 181 1.2923437170684338e-03</internalNodes>
          <leafValues>
            -1.3875840604305267e-01 3.6370298266410828e-01</leafValues></_>
        <_>
          <internalNodes>
            0 -1 145 1.0175754316151142e-02</internalNodes>
          <leafValues>
            6.7189633846282959e-02 -7.4115377664566040e-01</leafValues></_>
        <_>
          <internalNodes>
            0 -1 188 3.7983371876180172e-03</internalNodes>
          <leafValues>
            -1.4652347564697266e-01 3.3945327997207642e-01</leafValues></_>
        <_>
          <internalNodes>
            0 -1 199 -1.8075801432132721e-02</internalNodes>
          <leafValues>
            2.9845178127288818e-01 -1.7631000280380249e-01</leafValues></_>
        <_>
          <internalNodes>
            0 -1 107 -1.5180884860455990e-02</internalNodes>
          <leafValues>
            4.5725974440574646e-01 -1.1310088634490967e-01</leafValues></_>
        <_>
          <internalNodes>
            0 -1 127 -1.2226607650518417e-02</internalNodes>
          <leafValues>
            3.3957433700561523e-01 -1.7306089401245117e-01</leafValues></_>
        <_>
          <internalNodes>
            0 -1 37 3.8806581869721413e-04</internalNodes>
          <leafValues>
            1.2139532715082169e-01 -4.5455539226531982e-01</leafValues></_>
        <_>
          <internalNodes>
            0 -1 224 -8.8127747178077698e-02</internalNodes>
          <leafValues>
            -6.5299081802368164e-01 8.3694577217102051e-02</leafValues></_>
        <_>
          <internalNodes>
            0 -1 109 1.0296510299667716e-04</internalNodes>
          <leafValues>
            9.2103391885757446e-02 -4.7920697927474976e-01</leafValues></_>
        <_>
          <internalNodes>
            0 -1 90 -1.6797608695924282e-03</internalNodes>
          <leafValues>
            3.5960668325424194e-01 -1.4708557724952698e-01</leafValues></_>
        <_>
          <internalNodes>
            0 -1 268 1.5961905010044575e-03</internalNodes>
          <leafValues>
            1.0553460568189621e-01 -4.8100382089614868e-01</leafValues></_>
        <_>
          <internalNodes>
            0 -1 95 3.8532624021172523e-03</internalNodes>
          <leafValues>
            1.7145895957946777e-01 -2.7489027380943298e-01</leafValues></_>
        <_>
          <internalNodes>
            0 -1 277 -1.5389532782137394e-03</internalNodes>
          <leafValues>
            -8.7345445156097412e-01 4.5763455331325531e-02</leafValues></_>
        <_>
          <internalNodes>
            0 -1 163 -1.1411368614062667e-03</internalNodes>
          <leafValues>
            3.7423682212829590e-01 -1.3998076319694519e-01</leafValues></_></weakClassifiers></_>
    <!-- stage 7 -->
    <_>
      <maxWeakCount>35</maxWeakCount>
      <stageThreshold>-1.4196162223815918e+00</stageThreshold>
      <weakClassifiers>
        <_>
          <internalNodes>
            0 -1 263 -3.4636285156011581e-02</internalNodes>
          <leafValues>
            5.6125909090042114e-01 -4.8231458663940430e-01</leafValues></_>
        <_>
          <internalNodes>
            0 -1 6 3.1881965696811676e-02</internalNodes>
          <leafValues>
            -3.3257117867469788e-01 4.1745436191558838e-01</leafValues></_>
        <_>
          <internalNodes>
            0 -1 154 4.5092619955539703e-02</internalNodes>
          <leafValues>
            -2.2113120555877686e-01 4.6757170557975769e-01</leafValues></_>
        <_>
          <internalNodes>
            0 -1 230 7.5253564864397049e-03</internalNodes>
          <leafValues>
            8.5003644227981567e-02 -7.8349399566650391e-01</leafValues></_>
        <_>
          <internalNodes>
            0 -1 179 6.9425880908966064e-02</internalNodes>
          <leafValues>
            9.3829184770584106e-02 -7.6134002208709717e-01</leafValues></_>
        <_>
          <internalNodes>
            0 -1 69 1.6659772023558617e-02</internalNodes>
          <leafValues>
            -3.4681484103202820e-01 2.8015753626823425e-01</leafValues></_>
        <_>
          <internalNodes>
            0 -1 129 1.2437075376510620e-02</internalNodes>
          <leafValues>
            1.0718178004026413e-01 -5.6165194511413574e-01</leafValues></_>
        <_>
          <internalNodes>
            0 -1 250 -4.0692668408155441e-03</internalNodes>
          <leafValues>
            4.1921871900558472e-01 -1.5905103087425232e-01</leafValues></_>
        <_>
          <internalNodes>
            0 -1 128 1.4637719839811325e-02</internalNodes>
          <leafValues>
            -1.8455556035041809e-01 3.3573654294013977e-01</leafValues></_>
        <_>
          <internalNodes>
            0 -1 130 8.0232638865709305e-03</internalNodes>
          <leafValues>
            -2.4530589580535889e-01 2.6776355504989624e-01</leafValues></_>
        <_>
          <internalNodes>
            0 -1 255 -2.8867954388260841e-03</internalNodes>
          <leafValues>
            2.3728433251380920e-01 -3.1055113673210144e-01</leafValues></_>
        <_>
          <internalNodes>
            0 -1 225 -3.7101814523339272e-03</internalNodes>
          <leafValues>
            -6.9457995891571045e-01 9.9905356764793396e-02</leafValues></_>
        <_>
          <internalNodes>
            0 -1 229 9.6284598112106323e-04</internalNodes>
          <leafValues>
            -3.4303641319274902e-01 1.5073089301586151e-01</leafValues></_>
        <_>
          <internalNodes>
            0 -1 219 2.2757357510272413e-04</internalNodes>
          <leafValues>
            1.8911416828632355e-01 -3.1887802481651306e-01</leafValues></_>
        <_>
          <internalNodes>
            0 -1 25 4.5976573601365089e-03</internalNodes>
          <leafValues>
            6.9447956979274750e-02 -7.4479019641876221e-01</leafValues></_>
        <_>
          <internalNodes>
            0 -1 64 -9.5336735248565674e-03</internalNodes>
          <leafValues>
            -7.9291898012161255e-01 5.8262556791305542e-02</leafValues></_>
        <_>
          <internalNodes>
            0 -1 177 -7.3068803176283836e-03</internalNodes>
          <leafValues>
            -8.7167000770568848e-01 4.8414416611194611e-02</leafValues></_>
        <_>
          <internalNodes>
            0 -1 205 -1.3018735917285085e-03</internalNodes>
          <leafValues>
            3.8876417279243469e-01 -1.5305855870246887e-01</leafValues></_>
        <_>
          <internalNodes>
            0 -1 236 -1.7513381317257881e-03</internalNodes>
          <leafValues>
            -8.0024546384811401e-01 6.8656317889690399e-02</leafValues></_>
        <_>
          <internalNodes>
            0 -1 240 -8.2398075610399246e-03</internalNodes>
          <leafValues>
            5.8934295177459717e-01 -1.0352596640586853e-01</leafValues></_>
        <_>
          <internalNodes>
            0 -1 26 4.1095372289419174e-03</internalNodes>
          <leafValues>
            -3.9048659801483154e-01 1.3052639365196228e-01</leafValues></_>
        <_>
          <internalNodes>
            0 -1 96 1.4680415391921997e-02</internalNodes>
          <leafValues>
            -1.4854675531387329e-01 3.6979016661643982e-01</leafValues></_>
        <_>
          <internalNodes>
            0 -1 242 -1.3655659276992083e-03</internalNodes>
          <leafValues>
            2.9922407865524292e-01 -1.7996360361576080e-01</leafValues></_>
        <_>
          <internalNodes>
            0 -1 215 -2.6375590823590755e-03</internalNodes>
          <leafValues>
            -8.5983443260192871e-01 5.0036080181598663e-02</leafValues></_>
        <_>
          <internalNodes>
            0 -1 104 -6.3541153213009238e-04</internalNodes>
          <leafValues>
            3.0759477615356445e-01 -1.7603236436843872e-01</leafValues></_>
        <_>
          <internalNodes>
            0 -1 140 -6.4422879368066788e-03</internalNodes>
          <leafValues>
            -5.9351497888565063e-01 8.8160037994384766e-02</leafValues></_>
        <_>
          <internalNodes>
            0 -1 155 3.3264642115682364e-03</internalNodes>
          <leafValues>
            5.2605822682380676e-02 -7.8374534845352173e-01</leafValues></_>
        <_>
          <internalNodes>
            0 -1 187 -5.2369218319654465e-03</internalNodes>
          <leafValues>
            5.6002944707870483e-01 -9.7336381673812866e-02</leafValues></_>
        <_>
          <internalNodes>
            0 -1 241 3.7851920351386070e-03</internalNodes>
          <leafValues>
            -1.0959893465042114e-01 4.0545129776000977e-01</leafValues></_>
        <_>
          <internalNodes>
            0 -1 149 -1.4517748728394508e-02</internalNodes>
          <leafValues>
            -8.1922090053558350e-01 5.5386852473020554e-02</leafValues></_>
        <_>
          <internalNodes>
            0 -1 164 8.1021506339311600e-03</internalNodes>
          <leafValues>
            6.2220439314842224e-02 -6.6946971416473389e-01</leafValues></_>
        <_>
          <internalNodes>
            0 -1 214 -7.4631179450079799e-04</internalNodes>
          <leafValues>
            2.5516206026077271e-01 -1.8443053960800171e-01</leafValues></_>
        <_>
          <internalNodes>
            0 -1 31 -2.7588922530412674e-03</internalNodes>
          <leafValues>
            -5.5101698637008667e-01 7.9644225537776947e-02</leafValues></_>
        <_>
          <internalNodes>
            0 -1 147 6.7874253727495670e-04</internalNodes>
          <leafValues>
            -1.3241574168205261e-01 3.6643555760383606e-01</leafValues></_>
        <_>
          <internalNodes>
            0 -1 65 4.0304986760020256e-03</internalNodes>
          <leafValues>
            -1.2220340222120285e-01 3.6902111768722534e-01</leafValues></_></weakClassifiers></_>
    <!-- stage 8 -->
    <_>
      <maxWeakCount>43</maxWeakCount>
      <stageThreshold>-1.4138289690017700e+00</stageThreshold>
      <weakClassifiers>
        <_>
          <internalNodes>
            0 -1 198 4.1409609839320183e-03</internalNodes>
          <leafValues>
            -4.6850326657295227e-01 4.4014242291450500e-01</leafValues></_>
        <_>
          <internalNodes>
            0 -1 53 1.0850731283426285e-02</internalNodes>
          <leafValues>
            -3.5245060920715332e-01 3.9034095406532288e-01</leafValues></_>
        <_>
          <internalNodes>
            0 -1 262 -4.6469341032207012e-03</internalNodes>
          <leafValues>
            4.1133943200111389e-01 -2.2574806213378906e-01</leafValues></_>
        <_>
          <internalNodes>
            0 -1 186 7.5657437555491924e-03</internalNodes>
          <leafValues>
            -2.8598240017890930e-01 2.6188066601753235e-01</leafValues></_>
        <_>
          <internalNodes>
            0 -1 220 -5.2721267566084862e-03</internalNodes>
          <leafValues>
            2.3635300993919373e-01 -3.1244084239006042e-01</leafValues></_>
        <_>
          <internalNodes>
            0 -1 79 2.8585877269506454e-02</internalNodes>
          <leafValues>
            -1.7830170691013336e-01 3.7183806300163269e-01</leafValues></_>
        <_>
          <internalNodes>
            0 -1 7 2.9991362243890762e-02</internalNodes>
          <leafValues>
            -2.7304947376251221e-01 2.3763121664524078e-01</leafValues></_>
        <_>
          <internalNodes>
            0 -1 265 4.2171648237854242e-04</internalNodes>
          <leafValues>
            -1.4497819542884827e-01 3.9076370000839233e-01</leafValues></_>
        <_>
          <internalNodes>
            0 -1 42 -4.5564221218228340e-03</internalNodes>
          <leafValues>
            3.9376550912857056e-01 -1.4536163210868835e-01</leafValues></_>
        <_>
          <internalNodes>
            0 -1 114 2.2404676303267479e-02</internalNodes>
          <leafValues>
            -1.1076068133115768e-01 5.8167898654937744e-01</leafValues></_>
        <_>
          <internalNodes>
            0 -1 91 3.5011144354939461e-03</internalNodes>
          <leafValues>
            -1.9115506112575531e-01 3.0939441919326782e-01</leafValues></_>
        <_>
          <internalNodes>
            0 -1 17 3.6304723471403122e-03</internalNodes>
          <leafValues>
            8.4271959960460663e-02 -5.6566560268402100e-01</leafValues></_>
        <_>
          <internalNodes>
            0 -1 51 3.3587925136089325e-03</internalNodes>
          <leafValues>
            -1.3389381766319275e-01 3.9731550216674805e-01</leafValues></_>
        <_>
          <internalNodes>
            0 -1 115 8.3029307425022125e-03</internalNodes>
          <leafValues>
            8.4880113601684570e-02 -6.8089896440505981e-01</leafValues></_>
        <_>
          <internalNodes>
            0 -1 150 1.7386853694915771e-02</internalNodes>
          <leafValues>
            -1.2873405218124390e-01 4.1692277789115906e-01</leafValues></_>
        <_>
          <internalNodes>
            0 -1 84 2.8838634490966797e-02</internalNodes>
          <leafValues>
            -8.0525130033493042e-02 5.5726474523544312e-01</leafValues></_>
        <_>
          <internalNodes>
            0 -1 16 4.7623090445995331e-02</internalNodes>
          <leafValues>
            9.7413778305053711e-02 -6.0785031318664551e-01</leafValues></_>
        <_>
          <internalNodes>
            0 -1 45 -4.9096867442131042e-02</internalNodes>
          <leafValues>
            -6.2360340356826782e-01 6.2774404883384705e-02</leafValues></_>
        <_>
          <internalNodes>
            0 -1 267 2.8784321621060371e-03</internalNodes>
          <leafValues>
            7.0643141865730286e-02 -5.7323187589645386e-01</leafValues></_>
        <_>
          <internalNodes>
            0 -1 193 -5.6981126544997096e-04</internalNodes>
          <leafValues>
            3.6316210031509399e-01 -1.2881836295127869e-01</leafValues></_>
        <_>
          <internalNodes>
            0 -1 191 5.1014270866289735e-04</internalNodes>
          <leafValues>
            -1.6776172816753387e-01 3.5770085453987122e-01</leafValues></_>
        <_>
          <internalNodes>
            0 -1 207 -3.5695256665349007e-03</internalNodes>
          <leafValues>
            -6.2713408470153809e-01 7.8985258936882019e-02</leafValues></_>
        <_>
          <internalNodes>
            0 -1 171 1.7127005383372307e-02</internalNodes>
          <leafValues>
            -1.6140398383140564e-01 2.7609097957611084e-01</leafValues></_>
        <_>
          <internalNodes>
            0 -1 2 3.3192593604326248e-02</internalNodes>
          <leafValues>
            -3.0820754170417786e-01 1.5641419589519501e-01</leafValues></_>
        <_>
          <internalNodes>
            0 -1 170 -1.5179903246462345e-02</internalNodes>
          <leafValues>
            5.7848989963531494e-01 -8.7802499532699585e-02</leafValues></_>
        <_>
          <internalNodes>
            0 -1 32 -4.3186680413782597e-03</internalNodes>
          <leafValues>
            -7.4079138040542603e-01 6.9354869425296783e-02</leafValues></_>
        <_>
          <internalNodes>
            0 -1 62 2.9842201620340347e-02</internalNodes>
          <leafValues>
            -8.3919011056423187e-02 5.9123373031616211e-01</leafValues></_>
        <_>
          <internalNodes>
            0 -1 176 8.8344346731901169e-03</internalNodes>
          <leafValues>
            4.8980321735143661e-02 -8.7022083997726440e-01</leafValues></_>
        <_>
          <internalNodes>
            0 -1 122 1.9073574803769588e-03</internalNodes>
          <leafValues>
            -1.1155042052268982e-01 4.2372530698776245e-01</leafValues></_>
        <_>
          <internalNodes>
            0 -1 121 -1.1590900830924511e-03</internalNodes>
          <leafValues>
            3.7185284495353699e-01 -1.3806350529193878e-01</leafValues></_>
        <_>
          <internalNodes>
            0 -1 49 -1.3437847606837749e-02</internalNodes>
          <leafValues>
            2.4143172800540924e-01 -1.7854885756969452e-01</leafValues></_>
        <_>
          <internalNodes>
            0 -1 18 -3.1562675721943378e-03</internalNodes>
          <leafValues>
            -7.9712849855422974e-01 5.7707142084836960e-02</leafValues></_>
        <_>
          <internalNodes>
            0 -1 212 4.0243018884211779e-04</internalNodes>
          <leafValues>
            -2.2209776937961578e-01 1.9465714693069458e-01</leafValues></_>
        <_>
          <internalNodes>
            0 -1 94 -6.2388875521719456e-03</internalNodes>
          <leafValues>
            -7.8359407186508179e-01 5.3653433918952942e-02</leafValues></_>
        <_>
          <internalNodes>
            0 -1 54 9.7636261489242315e-04</internalNodes>
          <leafValues>
            -8.6011469364166260e-02 5.6879860162734985e-01</leafValues></_>
        <_>
          <internalNodes>
            0 -1 239 -2.5928730610758066e-03</internalNodes>
          <leafValues>
            -7.7196234464645386e-01 6.3885577023029327e-02</leafValues></_>
        <_>
          <internalNodes>
            0 -1 235 -6.0585688333958387e-04</internalNodes>
          <leafValues>
            1.5955366194248199e-01 -2.3534843325614929e-01</leafValues></_>
        <_>
          <internalNodes>
            0 -1 162 3.6652500275522470e-03</internalNodes>
          <leafValues>
            -1.0135272890329361e-01 4.5905888080596924e-01</leafValues></_>
        <_>
          <internalNodes>
            0 -1 63 5.1203422481194139e-04</internalNodes>
          <leafValues>
            1.2274224311113358e-01 -4.1830384731292725e-01</leafValues></_>
        <_>
          <internalNodes>
            0 -1 238 -1.9096933305263519e-02</internalNodes>
          <leafValues>
            -7.6615196466445923e-01 5.3644984960556030e-02</leafValues></_>
        <_>
          <internalNodes>
            0 -1 100 8.9401109144091606e-03</internalNodes>
          <leafValues>
            -8.9344054460525513e-02 5.3278475999832153e-01</leafValues></_>
        <_>
          <internalNodes>
            0 -1 133 1.5300401486456394e-02</internalNodes>
          <leafValues>
            -7.4992425739765167e-02 5.9515398740768433e-01</leafValues></_>
        <_>
          <internalNodes>
            0 -1 134 1.7702187178656459e-03</internalNodes>
          <leafValues>
            6.6910095512866974e-02 -7.3795175552368164e-01</leafValues></_></weakClassifiers></_>
    <!-- stage 9 -->
    <_>
      <maxWeakCount>47</maxWeakCount>
      <stageThreshold>-1.3721935749053955e+00</stageThreshold>
      <weakClassifiers>
        <_>
          <internalNodes>
            0 -1 185 -1.7512448132038116e-02</internalNodes>
          <leafValues>
            3.8240706920623779e-01 -5.1778221130371094e-01</leafValues></_>
        <_>
          <internalNodes>
            0 -1 8 3.7476919591426849e-02</internalNodes>
          <leafValues>
            -2.5638687610626221e-01 5.2291053533554077e-01</leafValues></_>
        <_>
          <internalNodes>
            0 -1 254 4.7645298764109612e-03</internalNodes>
          <leafValues>
            -1.3968007266521454e-01 5.9026467800140381e-01</leafValues></_>
        <_>
          <internalNodes>
            0 -1 202 2.3624915629625320e-02</internalNodes>
          <leafValues>
            -2.6437765359878540e-01 2.8308966755867004e-01</leafValues></_>
        <_>
          <internalNodes>
            0 -1 243 3.9105843752622604e-03</internalNodes>
          <leafValues>
            -1.3993887603282928e-01 5.0921201705932617e-01</leafValues></_>
        <_>
          <internalNodes>
            0 -1 246 3.9744460955262184e-03</internalNodes>
          <leafValues>
            -1.2274000048637390e-01 4.8021027445793152e-01</leafValues></_>
        <_>
          <internalNodes>
            0 -1 234 -1.2342352420091629e-03</internalNodes>
          <leafValues>
            2.0615965127944946e-01 -3.3427450060844421e-01</leafValues></_>
        <_>
          <internalNodes>
            0 -1 223 3.0268359114415944e-04</internalNodes>
          <leafValues>
            1.8053121864795685e-01 -2.9306900501251221e-01</leafValues></_>
        <_>
          <internalNodes>
            0 -1 43 1.6304705291986465e-02</internalNodes>
          <leafValues>
            -3.0269360542297363e-01 1.7927043139934540e-01</leafValues></_>
        <_>
          <internalNodes>
            0 -1 159 3.6289710551500320e-03</internalNodes>
          <leafValues>
            -1.8382363021373749e-01 2.9511275887489319e-01</leafValues></_>
        <_>
          <internalNodes>
            0 -1 166 7.7321007847785950e-03</internalNodes>
          <leafValues>
            -9.0200021862983704e-02 4.7430446743965149e-01</leafValues></_>
        <_>
          <internalNodes>
            0 -1 92 -5.7646781206130981e-03</internalNodes>
          <leafValues>
            5.9783476591110229e-01 -7.9946920275688171e-02</leafValues></_>
        <_>
          <internalNodes>
            0 -1 50 1.3471819460391998e-01</internalNodes>
          <leafValues>
            -2.3076102137565613e-01 2.4820517003536224e-01</leafValues></_>
        <_>
          <internalNodes>
            0 -1 228 2.5866698706522584e-04</internalNodes>
          <leafValues>
            1.5221764147281647e-01 -3.2761165499687195e-01</leafValues></_>
        <_>
          <internalNodes>
            0 -1 82 6.6323317587375641e-03</internalNodes>
          <leafValues>
            -1.1690855771303177e-01 4.3309554457664490e-01</leafValues></_>
        <_>
          <internalNodes>
            0 -1 76 1.2887528166174889e-02</internalNodes>
          <leafValues>
            -1.3580818474292755e-01 3.4749180078506470e-01</leafValues></_>
        <_>
          <internalNodes>
            0 -1 98 6.2088868580758572e-03</internalNodes>
          <leafValues>
            1.2202548980712891e-01 -4.2062518000602722e-01</leafValues></_>
        <_>
          <internalNodes>
            0 -1 116 1.3156628236174583e-02</internalNodes>
          <leafValues>
            8.0824367702007294e-02 -6.1975872516632080e-01</leafValues></_>
        <_>
          <internalNodes>
            0 -1 60 -1.0450622066855431e-03</internalNodes>
          <leafValues>
            3.6585593223571777e-01 -1.4129802584648132e-01</leafValues></_>
        <_>
          <internalNodes>
            0 -1 216 -1.2349006719887257e-02</internalNodes>
          <leafValues>
            3.1392136216163635e-01 -1.3317178189754486e-01</leafValues></_>
        <_>
          <internalNodes>
            0 -1 231 1.2904880568385124e-02</internalNodes>
          <leafValues>
            4.7106754034757614e-02 -8.2259327173233032e-01</leafValues></_>
        <_>
          <internalNodes>
            0 -1 253 -1.9242405891418457e-02</internalNodes>
          <leafValues>
            6.6173568367958069e-02 -5.7829689979553223e-01</leafValues></_>
        <_>
          <internalNodes>
            0 -1 28 -4.6405531466007233e-02</internalNodes>
          <leafValues>
            -2.7701303362846375e-01 1.9204273819923401e-01</leafValues></_>
        <_>
          <internalNodes>
            0 -1 227 -1.3930060049460735e-05</internalNodes>
          <leafValues>
            2.3283728957176208e-01 -1.9452674686908722e-01</leafValues></_>
        <_>
          <internalNodes>
            0 -1 89 -3.2395508140325546e-02</internalNodes>
          <leafValues>
            2.8816944360733032e-01 -1.7021295428276062e-01</leafValues></_>
        <_>
          <internalNodes>
            0 -1 209 4.9622179940342903e-03</internalNodes>
          <leafValues>
            -1.2771086394786835e-01 3.4221372008323669e-01</leafValues></_>
        <_>
          <internalNodes>
            0 -1 272 -4.3524317443370819e-03</internalNodes>
          <leafValues>
            -8.0434268712997437e-01 5.8666169643402100e-02</leafValues></_>
        <_>
          <internalNodes>
            0 -1 237 1.9598666112869978e-03</internalNodes>
          <leafValues>
            -1.0707406699657440e-01 4.4974529743194580e-01</leafValues></_>
        <_>
          <internalNodes>
            0 -1 210 5.2561983466148376e-03</internalNodes>
          <leafValues>
            7.4790224432945251e-02 -5.5599147081375122e-01</leafValues></_>
        <_>
          <internalNodes>
            0 -1 275 2.9424256645143032e-03</internalNodes>
          <leafValues>
            -9.7349040210247040e-02 4.4955137372016907e-01</leafValues></_>
        <_>
          <internalNodes>
            0 -1 97 7.9268245026469231e-03</internalNodes>
          <leafValues>
            -2.6149192452430725e-01 1.6301980614662170e-01</leafValues></_>
        <_>
          <internalNodes>
            0 -1 276 2.6443381793797016e-03</internalNodes>
          <leafValues>
            9.0419948101043701e-02 -4.3923193216323853e-01</leafValues></_>
        <_>
          <internalNodes>
            0 -1 252 -4.2063575237989426e-03</internalNodes>
          <leafValues>
            2.2717285156250000e-01 -1.8777309358119965e-01</leafValues></_>
        <_>
          <internalNodes>
            0 -1 161 -3.1081843189895153e-03</internalNodes>
          <leafValues>
            3.9799249172210693e-01 -1.0370405018329620e-01</leafValues></_>
        <_>
          <internalNodes>
            0 -1 200 -4.3186191469430923e-03</internalNodes>
          <leafValues>
            -6.3314127922058105e-01 7.2191275656223297e-02</leafValues></_>
        <_>
          <internalNodes>
            0 -1 266 1.4831594889983535e-03</internalNodes>
          <leafValues>
            -1.2042055279016495e-01 3.3619788289070129e-01</leafValues></_>
        <_>
          <internalNodes>
            0 -1 135 3.9330702275037766e-03</internalNodes>
          <leafValues>
            5.8273445814847946e-02 -6.7414540052413940e-01</leafValues></_>
        <_>
          <internalNodes>
            0 -1 211 -5.7723955251276493e-04</internalNodes>
          <leafValues>
            3.1809055805206299e-01 -1.1912258714437485e-01</leafValues></_>
        <_>
          <internalNodes>
            0 -1 165 -4.6391516923904419e-02</internalNodes>
          <leafValues>
            5.7702947407960892e-02 -6.7110651731491089e-01</leafValues></_>
        <_>
          <internalNodes>
            0 -1 38 -1.0006366210291162e-05</internalNodes>
          <leafValues>
            2.1242457628250122e-01 -1.7213752865791321e-01</leafValues></_>
        <_>
          <internalNodes>
            0 -1 13 7.7770574716851115e-04</internalNodes>
          <leafValues>
            7.7243559062480927e-02 -4.7350731492042542e-01</leafValues></_>
        <_>
          <internalNodes>
            0 -1 217 1.4227649662643671e-03</internalNodes>
          <leafValues>
            -3.6776524782180786e-01 9.8138034343719482e-02</leafValues></_>
        <_>
          <internalNodes>
            0 -1 213 2.2518327750731260e-04</internalNodes>
          <leafValues>
            1.7413356900215149e-01 -2.7012693881988525e-01</leafValues></_>
        <_>
          <internalNodes>
            0 -1 112 2.7254491578787565e-04</internalNodes>
          <leafValues>
            -1.1979617923498154e-01 3.1456422805786133e-01</leafValues></_>
        <_>
          <internalNodes>
            0 -1 226 -2.8918548487126827e-03</internalNodes>
          <leafValues>
            -9.0012234449386597e-01 4.3867710977792740e-02</leafValues></_>
        <_>
          <internalNodes>
            0 -1 245 -4.7199800610542297e-04</internalNodes>
          <leafValues>
            5.0863337516784668e-01 -8.1976801156997681e-02</leafValues></_>
        <_>
          <internalNodes>
            0 -1 251 2.8205054695717990e-04</internalNodes>
          <leafValues>
            -1.4959557354450226e-01 2.4614478647708893e-01</leafValues></_></weakClassifiers></_></stages>
  <features>
    <_>
      <rects>
        <_>
          0 0 8 1 -1.</_>
        <_>
          4 0 4 1 2.</_></rects>
      <tilted>0</tilted></_>
    <_>
      <rects>
        <_>
          0 0 22 26 -1.</_>
        <_>
          11 0 11 26 2.</_></rects>
      <tilted>0</tilted></_>
    <_>
      <rects>
        <_>
          0 0 24 27 -1.</_>
        <_>
          12 0 12 27 2.</_></rects>
      <tilted>0</tilted></_>
    <_>
      <rects>
        <_>
          0 0 30 14 -1.</_>
        <_>
          15 0 15 14 2.</_></rects>
      <tilted>0</tilted></_>
    <_>
      <rects>
        <_>
          0 0 42 28 -1.</_>
        <_>
          0 0 21 14 2.</_>
        <_>
          21 14 21 14 2.</_></rects>
      <tilted>0</tilted></_>
    <_>
      <rects>
        <_>
          0 1 8 12 -1.</_>
        <_>
          4 1 4 12 2.</_></rects>
      <tilted>0</tilted></_>
    <_>
      <rects>
        <_>
          0 1 8 22 -1.</_>
        <_>
          4 1 4 22 2.</_></rects>
      <tilted>0</tilted></_>
    <_>
      <rects>
        <_>
          0 3 12 20 -1.</_>
        <_>
          6 3 6 20 2.</_></rects>
      <tilted>0</tilted></_>
    <_>
      <rects>
        <_>
          0 4 6 19 -1.</_>
        <_>
          3 4 3 19 2.</_></rects>
      <tilted>0</tilted></_>
    <_>
      <rects>
        <_>
          0 6 6 10 -1.</_>
        <_>
          3 6 3 10 2.</_></rects>
      <tilted>0</tilted></_>
    <_>
      <rects>
        <_>
          0 6 10 8 -1.</_>
        <_>
          5 6 5 8 2.</_></rects>
      <tilted>0</tilted></_>
    <_>
      <rects>
        <_>
          0 7 10 20 -1.</_>
        <_>
          5 7 5 20 2.</_></rects>
      <tilted>0</tilted></_>
    <_>
      <rects>
        <_>
          0 7 24 20 -1.</_>
        <_>
          12 7 12 20 2.</_></rects>
      <tilted>0</tilted></_>
    <_>
      <rects>
        <_>
          0 8 2 4 -1.</_>
        <_>
          0 10 2 2 2.</_></rects>
      <tilted>0</tilted></_>
    <_>
      <rects>
        <_>
          0 8 4 8 -1.</_>
        <_>
          0 12 4 4 2.</_></rects>
      <tilted>0</tilted></_>
    <_>
      <rects>
        <_>
          0 8 8 22 -1.</_>
        <_>
          4 8 4 22 2.</_></rects>
      <tilted>0</tilted></_>
    <_>
      <rects>
        <_>
          0 9 42 14 -1.</_>
        <_>
          0 9 21 7 2.</_>
        <_>
          21 16 21 7 2.</_></rects>
      <tilted>0</tilted></_>
    <_>
      <rects>
        <_>
          0 13 4 8 -1.</_>
        <_>
          0 17 4 4 2.</_></rects>
      <tilted>0</tilted></_>
    <_>
      <rects>
        <_>
          0 14 4 4 -1.</_>
        <_>
          0 16 4 2 2.</_></rects>
      <tilted>0</tilted></_>
    <_>
      <rects>
        <_>
          0 16 3 14 -1.</_>
        <_>
          0 23 3 7 2.</_></rects>
      <tilted>0</tilted></_>
    <_>
      <rects>
        <_>
          0 16 10 11 -1.</_>
        <_>
          5 16 5 11 2.</_></rects>
      <tilted>0</tilted></_>
    <_>
      <rects>
        <_>
          0 17 20 10 -1.</_>
        <_>
          10 17 10 10 2.</_></rects>
      <tilted>0</tilted></_>
    <_>
      <rects>
        <_>
          0 18 26 12 -1.</_>
        <_>
          13 18 13 12 2.</_></rects>
      <tilted>0</tilted></_>
    <_>
      <rects>
        <_>
          0 19 4 8 -1.</_>
        <_>
          0 23 4 4 2.</_></rects>
      <tilted>0</tilted></_>
    <_>
      <rects>
        <_>
          0 19 24 8 -1.</_>
        <_>
          12 19 12 8 2.</_></rects>
      <tilted>0</tilted></_>
    <_>
      <rects>
        <_>
          0 20 5 6 -1.</_>
        <_>
          0 23 5 3 2.</_></rects>
      <tilted>0</tilted></_>
    <_>
      <rects>
        <_>
          0 20 28 10 -1.</_>
        <_>
          14 20 14 10 2.</_></rects>
      <tilted>0</tilted></_>
    <_>
      <rects>
        <_>
          0 22 26 7 -1.</_>
        <_>
          13 22 13 7 2.</_></rects>
      <tilted>0</tilted></_>
    <_>
      <rects>
        <_>
          0 29 48 1 -1.</_>
        <_>
          16 29 16 1 2.</_></rects>
      <tilted>0</tilted></_>
    <_>
      <rects>
        <_>
          1 0 26 6 -1.</_>
        <_>
          1 3 26 3 2.</_></rects>
      <tilted>0</tilted></_>
    <_>
      <rects>
        <_>
          1 9 3 6 -1.</_>
        <_>
          1 12 3 3 2.</_></rects>
      <tilted>0</tilted></_>
    <_>
      <rects>
        <_>
          1 16 6 4 -1.</_>
        <_>
          1 18 6 2 2.</_></rects>
      <tilted>0</tilted></_>
    <_>
      <rects>
        <_>
          2 3 2 8 -1.</_>
        <_>
          2 7 2 4 2.</_></rects>
      <tilted>0</tilted></_>
    <_>
      <rects>
        <_>
          2 4 6 16 -1.</_>
        <_>
          5 4 3 16 2.</_></rects>
      <tilted>0</tilted></_>
    <_>
      <rects>
        <_>
          2 17 2 4 -1.</_>
        <_>
          2 19 2 2 2.</_></rects>
      <tilted>0</tilted></_>
    <_>
      <rects>
        <_>
          2 20 39 4 -1.</_>
        <_>
          2 22 39 2 2.</_></rects>
      <tilted>0</tilted></_>
    <_>
      <rects>
        <_>
          2 22 3 8 -1.</_>
        <_>
          2 26 3 4 2.</_></rects>
      <tilted>0</tilted></_>
    <_>
      <rects>
        <_>
          2 26 2 4 -1.</_>
        <_>
          2 28 2 2 2.</_></rects>
      <tilted>0</tilted></_>
    <_>
      <rects>
        <_>
          2 29 4 1 -1.</_>
        <_>
          4 29 2 1 2.</_></rects>
      <tilted>0</tilted></_>
    <_>
      <rects>
        <_>
          3 0 31 6 -1.</_>
        <_>
          3 3 31 3 2.</_></rects>
      <tilted>0</tilted></_>
    <_>
      <rects>
        <_>
          3 0 36 12 -1.</_>
        <_>
          3 6 36 6 2.</_></rects>
      <tilted>0</tilted></_>
    <_>
      <rects>
        <_>
          3 9 6 14 -1.</_>
        <_>
          6 9 3 14 2.</_></rects>
      <tilted>0</tilted></_>
    <_>
      <rects>
        <_>
          3 13 6 8 -1.</_>
        <_>
          6 13 3 8 2.</_></rects>
      <tilted>0</tilted></_>
    <_>
      <rects>
        <_>
          3 16 40 9 -1.</_>
        <_>
          23 16 20 9 2.</_></rects>
      <tilted>0</tilted></_>
    <_>
      <rects>
        <_>
          3 29 33 1 -1.</_>
        <_>
          14 29 11 1 2.</_></rects>
      <tilted>0</tilted></_>
    <_>
      <rects>
        <_>
          4 0 26 30 -1.</_>
        <_>
          4 0 13 15 2.</_>
        <_>
          17 15 13 15 2.</_></rects>
      <tilted>0</tilted></_>
    <_>
      <rects>
        <_>
          4 0 33 4 -1.</_>
        <_>
          4 2 33 2 2.</_></rects>
      <tilted>0</tilted></_>
    <_>
      <rects>
        <_>
          4 0 44 6 -1.</_>
        <_>
          4 3 44 3 2.</_></rects>
      <tilted>0</tilted></_>
    <_>
      <rects>
        <_>
          4 10 6 20 -1.</_>
        <_>
          7 10 3 20 2.</_></rects>
      <tilted>0</tilted></_>
    <_>
      <rects>
        <_>
          4 14 8 16 -1.</_>
        <_>
          4 22 8 8 2.</_></rects>
      <tilted>0</tilted></_>
    <_>
      <rects>
        <_>
          5 0 44 14 -1.</_>
        <_>
          5 7 44 7 2.</_></rects>
      <tilted>0</tilted></_>
    <_>
      <rects>
        <_>
          5 6 18 2 -1.</_>
        <_>
          5 7 18 1 2.</_></rects>
      <tilted>0</tilted></_>
    <_>
      <rects>
        <_>
          5 8 35 2 -1.</_>
        <_>
          5 9 35 1 2.</_></rects>
      <tilted>0</tilted></_>
    <_>
      <rects>
        <_>
          6 0 9 6 -1.</_>
        <_>
          6 3 9 3 2.</_></rects>
      <tilted>0</tilted></_>
    <_>
      <rects>
        <_>
          6 7 2 2 -1.</_>
        <_>
          7 7 1 2 2.</_></rects>
      <tilted>0</tilted></_>
    <_>
      <rects>
        <_>
          6 7 17 2 -1.</_>
        <_>
          6 8 17 1 2.</_></rects>
      <tilted>0</tilted></_>
    <_>
      <rects>
        <_>
          6 23 40 2 -1.</_>
        <_>
          6 23 20 1 2.</_>
        <_>
          26 24 20 1 2.</_></rects>
      <tilted>0</tilted></_>
    <_>
      <rects>
        <_>
          7 9 31 2 -1.</_>
        <_>
          7 10 31 1 2.</_></rects>
      <tilted>0</tilted></_>
    <_>
      <rects>
        <_>
          7 11 22 6 -1.</_>
        <_>
          7 14 22 3 2.</_></rects>
      <tilted>0</tilted></_>
    <_>
      <rects>
        <_>
          7 11 33 6 -1.</_>
        <_>
          7 14 33 3 2.</_></rects>
      <tilted>0</tilted></_>
    <_>
      <rects>
        <_>
          7 13 2 11 -1.</_>
        <_>
          8 13 1 11 2.</_></rects>
      <tilted>0</tilted></_>
    <_>
      <rects>
        <_>
          7 13 40 6 -1.</_>
        <_>
          7 13 20 3 2.</_>
        <_>
          27 16 20 3 2.</_></rects>
      <tilted>0</tilted></_>
    <_>
      <rects>
        <_>
          7 17 24 4 -1.</_>
        <_>
          7 19 24 2 2.</_></rects>
      <tilted>0</tilted></_>
    <_>
      <rects>
        <_>
          7 26 3 4 -1.</_>
        <_>
          7 28 3 2 2.</_></rects>
      <tilted>0</tilted></_>
    <_>
      <rects>
        <_>
          8 4 12 5 -1.</_>
        <_>
          14 4 6 5 2.</_></rects>
      <tilted>0</tilted></_>
    <_>
      <rects>
        <_>
          8 6 32 2 -1.</_>
        <_>
          8 6 16 1 2.</_>
        <_>
          24 7 16 1 2.</_></rects>
      <tilted>0</tilted></_>
    <_>
      <rects>
        <_>
          8 9 40 2 -1.</_>
        <_>
          8 10 40 1 2.</_></rects>
      <tilted>0</tilted></_>
    <_>
      <rects>
        <_>
          8 10 24 4 -1.</_>
        <_>
          8 12 24 2 2.</_></rects>
      <tilted>0</tilted></_>
    <_>
      <rects>
        <_>
          8 10 29 4 -1.</_>
        <_>
          8 12 29 2 2.</_></rects>
      <tilted>0</tilted></_>
    <_>
      <rects>
        <_>
          8 14 32 12 -1.</_>
        <_>
          24 14 16 12 2.</_></rects>
      <tilted>0</tilted></_>
    <_>
      <rects>
        <_>
          8 15 21 4 -1.</_>
        <_>
          15 15 7 4 2.</_></rects>
      <tilted>0</tilted></_>
    <_>
      <rects>
        <_>
          8 17 31 6 -1.</_>
        <_>
          8 20 31 3 2.</_></rects>
      <tilted>0</tilted></_>
    <_>
      <rects>
        <_>
          8 21 29 4 -1.</_>
        <_>
          8 23 29 2 2.</_></rects>
      <tilted>0</tilted></_>
    <_>
      <rects>
        <_>
          9 0 8 7 -1.</_>
        <_>
          13 0 4 7 2.</_></rects>
      <tilted>0</tilted></_>
    <_>
      <rects>
        <_>
          9 5 2 25 -1.</_>
        <_>
          10 5 1 25 2.</_></rects>
      <tilted>0</tilted></_>
    <_>
      <rects>
        <_>
          9 5 16 2 -1.</_>
        <_>
          9 6 16 1 2.</_></rects>
      <tilted>0</tilted></_>
    <_>
      <rects>
        <_>
          9 9 21 6 -1.</_>
        <_>
          9 12 21 3 2.</_></rects>
      <tilted>0</tilted></_>
    <_>
      <rects>
        <_>
          9 12 20 2 -1.</_>
        <_>
          9 12 10 1 2.</_>
        <_>
          19 13 10 1 2.</_></rects>
      <tilted>0</tilted></_>
    <_>
      <rects>
        <_>
          9 13 23 6 -1.</_>
        <_>
          9 16 23 3 2.</_></rects>
      <tilted>0</tilted></_>
    <_>
      <rects>
        <_>
          9 14 31 8 -1.</_>
        <_>
          9 18 31 4 2.</_></rects>
      <tilted>0</tilted></_>
    <_>
      <rects>
        <_>
          9 20 30 10 -1.</_>
        <_>
          9 25 30 5 2.</_></rects>
      <tilted>0</tilted></_>
    <_>
      <rects>
        <_>
          10 3 37 2 -1.</_>
        <_>
          10 4 37 1 2.</_></rects>
      <tilted>0</tilted></_>
    <_>
      <rects>
        <_>
          10 7 32 2 -1.</_>
        <_>
          10 8 32 1 2.</_></rects>
      <tilted>0</tilted></_>
    <_>
      <rects>
        <_>
          10 11 19 6 -1.</_>
        <_>
          10 14 19 3 2.</_></rects>
      <tilted>0</tilted></_>
    <_>
      <rects>
        <_>
          10 14 40 6 -1.</_>
        <_>
          10 14 20 3 2.</_>
        <_>
          30 17 20 3 2.</_></rects>
      <tilted>0</tilted></_>
    <_>
      <rects>
        <_>
          10 15 40 6 -1.</_>
        <_>
          10 15 20 3 2.</_>
        <_>
          30 18 20 3 2.</_></rects>
      <tilted>0</tilted></_>
    <_>
      <rects>
        <_>
          10 22 34 8 -1.</_>
        <_>
          10 26 34 4 2.</_></rects>
      <tilted>0</tilted></_>
    <_>
      <rects>
        <_>
          10 24 34 6 -1.</_>
        <_>
          10 27 34 3 2.</_></rects>
      <tilted>0</tilted></_>
    <_>
      <rects>
        <_>
          11 0 36 10 -1.</_>
        <_>
          11 5 36 5 2.</_></rects>
      <tilted>0</tilted></_>
    <_>
      <rects>
        <_>
          11 5 38 14 -1.</_>
        <_>
          11 12 38 7 2.</_></rects>
      <tilted>0</tilted></_>
    <_>
      <rects>
        <_>
          11 6 2 24 -1.</_>
        <_>
          11 6 1 12 2.</_>
        <_>
          12 18 1 12 2.</_></rects>
      <tilted>0</tilted></_>
    <_>
      <rects>
        <_>
          11 7 15 6 -1.</_>
        <_>
          11 10 15 3 2.</_></rects>
      <tilted>0</tilted></_>
    <_>
      <rects>
        <_>
          11 7 16 2 -1.</_>
        <_>
          11 8 16 1 2.</_></rects>
      <tilted>0</tilted></_>
    <_>
      <rects>
        <_>
          11 8 2 20 -1.</_>
        <_>
          11 8 1 10 2.</_>
        <_>
          12 18 1 10 2.</_></rects>
      <tilted>0</tilted></_>
    <_>
      <rects>
        <_>
          11 10 8 5 -1.</_>
        <_>
          15 10 4 5 2.</_></rects>
      <tilted>0</tilted></_>
    <_>
      <rects>
        <_>
          11 13 8 15 -1.</_>
        <_>
          15 13 4 15 2.</_></rects>
      <tilted>0</tilted></_>
    <_>
      <rects>
        <_>
          11 23 33 6 -1.</_>
        <_>
          11 26 33 3 2.</_></rects>
      <tilted>0</tilted></_>
    <_>
      <rects>
        <_>
          12 3 24 13 -1.</_>
        <_>
          24 3 12 13 2.</_></rects>
      <tilted>0</tilted></_>
    <_>
      <rects>
        <_>
          12 11 12 7 -1.</_>
        <_>
          18 11 6 7 2.</_></rects>
      <tilted>0</tilted></_>
    <_>
      <rects>
        <_>
          12 14 20 6 -1.</_>
        <_>
          12 17 20 3 2.</_></rects>
      <tilted>0</tilted></_>
    <_>
      <rects>
        <_>
          12 20 24 2 -1.</_>
        <_>
          12 21 24 1 2.</_></rects>
      <tilted>0</tilted></_>
    <_>
      <rects>
        <_>
          12 20 32 4 -1.</_>
        <_>
          12 22 32 2 2.</_></rects>
      <tilted>0</tilted></_>
    <_>
      <rects>
        <_>
          12 24 33 6 -1.</_>
        <_>
          12 27 33 3 2.</_></rects>
      <tilted>0</tilted></_>
    <_>
      <rects>
        <_>
          13 4 33 6 -1.</_>
        <_>
          13 7 33 3 2.</_></rects>
      <tilted>0</tilted></_>
    <_>
      <rects>
        <_>
          13 6 2 17 -1.</_>
        <_>
          14 6 1 17 2.</_></rects>
      <tilted>0</tilted></_>
    <_>
      <rects>
        <_>
          13 10 10 7 -1.</_>
        <_>
          18 10 5 7 2.</_></rects>
      <tilted>0</tilted></_>
    <_>
      <rects>
        <_>
          13 11 17 6 -1.</_>
        <_>
          13 14 17 3 2.</_></rects>
      <tilted>0</tilted></_>
    <_>
      <rects>
        <_>
          13 15 12 6 -1.</_>
        <_>
          13 18 12 3 2.</_></rects>
      <tilted>0</tilted></_>
    <_>
      <rects>
        <_>
          13 19 20 4 -1.</_>
        <_>
          13 21 20 2 2.</_></rects>
      <tilted>0</tilted></_>
    <_>
      <rects>
        <_>
          14 2 2 1 -1.</_>
        <_>
          15 2 1 1 2.</_></rects>
      <tilted>0</tilted></_>
    <_>
      <rects>
        <_>
          14 3 16 24 -1.</_>
        <_>
          14 3 8 12 2.</_>
        <_>
          22 15 8 12 2.</_></rects>
      <tilted>0</tilted></_>
    <_>
      <rects>
        <_>
          14 6 2 24 -1.</_>
        <_>
          14 6 1 12 2.</_>
        <_>
          15 18 1 12 2.</_></rects>
      <tilted>0</tilted></_>
    <_>
      <rects>
        <_>
          14 9 2 4 -1.</_>
        <_>
          14 9 1 2 2.</_>
        <_>
          15 11 1 2 2.</_></rects>
      <tilted>0</tilted></_>
    <_>
      <rects>
        <_>
          14 9 18 4 -1.</_>
        <_>
          14 11 18 2 2.</_></rects>
      <tilted>0</tilted></_>
    <_>
      <rects>
        <_>
          14 11 17 6 -1.</_>
        <_>
          14 14 17 3 2.</_></rects>
      <tilted>0</tilted></_>
    <_>
      <rects>
        <_>
          14 12 8 12 -1.</_>
        <_>
          14 12 4 6 2.</_>
        <_>
          18 18 4 6 2.</_></rects>
      <tilted>0</tilted></_>
    <_>
      <rects>
        <_>
          14 12 12 14 -1.</_>
        <_>
          14 12 6 7 2.</_>
        <_>
          20 19 6 7 2.</_></rects>
      <tilted>0</tilted></_>
    <_>
      <rects>
        <_>
          14 12 13 6 -1.</_>
        <_>
          14 15 13 3 2.</_></rects>
      <tilted>0</tilted></_>
    <_>
      <rects>
        <_>
          14 13 23 6 -1.</_>
        <_>
          14 16 23 3 2.</_></rects>
      <tilted>0</tilted></_>
    <_>
      <rects>
        <_>
          14 19 16 4 -1.</_>
        <_>
          14 21 16 2 2.</_></rects>
      <tilted>0</tilted></_>
    <_>
      <rects>
        <_>
          14 20 15 4 -1.</_>
        <_>
          14 22 15 2 2.</_></rects>
      <tilted>0</tilted></_>
    <_>
      <rects>
        <_>
          15 3 2 26 -1.</_>
        <_>
          15 3 1 13 2.</_>
        <_>
          16 16 1 13 2.</_></rects>
      <tilted>0</tilted></_>
    <_>
      <rects>
        <_>
          15 8 2 16 -1.</_>
        <_>
          15 8 1 8 2.</_>
        <_>
          16 16 1 8 2.</_></rects>
      <tilted>0</tilted></_>
    <_>
      <rects>
        <_>
          15 18 27 4 -1.</_>
        <_>
          15 20 27 2 2.</_></rects>
      <tilted>0</tilted></_>
    <_>
      <rects>
        <_>
          16 2 10 28 -1.</_>
        <_>
          16 2 5 14 2.</_>
        <_>
          21 16 5 14 2.</_></rects>
      <tilted>0</tilted></_>
    <_>
      <rects>
        <_>
          16 4 26 4 -1.</_>
        <_>
          16 6 26 2 2.</_></rects>
      <tilted>0</tilted></_>
    <_>
      <rects>
        <_>
          16 14 11 8 -1.</_>
        <_>
          16 18 11 4 2.</_></rects>
      <tilted>0</tilted></_>
    <_>
      <rects>
        <_>
          16 14 22 8 -1.</_>
        <_>
          16 14 11 4 2.</_>
        <_>
          27 18 11 4 2.</_></rects>
      <tilted>0</tilted></_>
    <_>
      <rects>
        <_>
          16 15 20 6 -1.</_>
        <_>
          16 18 20 3 2.</_></rects>
      <tilted>0</tilted></_>
    <_>
      <rects>
        <_>
          16 16 14 12 -1.</_>
        <_>
          23 16 7 12 2.</_></rects>
      <tilted>0</tilted></_>
    <_>
      <rects>
        <_>
          16 20 25 6 -1.</_>
        <_>
          16 23 25 3 2.</_></rects>
      <tilted>0</tilted></_>
    <_>
      <rects>
        <_>
          16 23 20 6 -1.</_>
        <_>
          16 26 20 3 2.</_></rects>
      <tilted>0</tilted></_>
    <_>
      <rects>
        <_>
          16 24 27 6 -1.</_>
        <_>
          16 27 27 3 2.</_></rects>
      <tilted>0</tilted></_>
    <_>
      <rects>
        <_>
          16 26 24 4 -1.</_>
        <_>
          16 28 24 2 2.</_></rects>
      <tilted>0</tilted></_>
    <_>
      <rects>
        <_>
          17 21 4 4 -1.</_>
        <_>
          17 21 2 2 2.</_>
        <_>
          19 23 2 2 2.</_></rects>
      <tilted>0</tilted></_>
    <_>
      <rects>
        <_>
          18 0 6 6 -1.</_>
        <_>
          21 0 3 6 2.</_></rects>
      <tilted>0</tilted></_>
    <_>
      <rects>
        <_>
          18 6 16 4 -1.</_>
        <_>
          18 8 16 2 2.</_></rects>
      <tilted>0</tilted></_>
    <_>
      <rects>
        <_>
          18 11 8 14 -1.</_>
        <_>
          22 11 4 14 2.</_></rects>
      <tilted>0</tilted></_>
    <_>
      <rects>
        <_>
          18 11 24 14 -1.</_>
        <_>
          30 11 12 14 2.</_></rects>
      <tilted>0</tilted></_>
    <_>
      <rects>
        <_>
          18 16 12 1 -1.</_>
        <_>
          22 16 4 1 2.</_></rects>
      <tilted>0</tilted></_>
    <_>
      <rects>
        <_>
          19 2 10 10 -1.</_>
        <_>
          24 2 5 10 2.</_></rects>
      <tilted>0</tilted></_>
    <_>
      <rects>
        <_>
          19 2 16 17 -1.</_>
        <_>
          27 2 8 17 2.</_></rects>
      <tilted>0</tilted></_>
    <_>
      <rects>
        <_>
          19 4 9 6 -1.</_>
        <_>
          19 7 9 3 2.</_></rects>
      <tilted>0</tilted></_>
    <_>
      <rects>
        <_>
          19 7 8 6 -1.</_>
        <_>
          19 10 8 3 2.</_></rects>
      <tilted>0</tilted></_>
    <_>
      <rects>
        <_>
          19 7 22 19 -1.</_>
        <_>
          30 7 11 19 2.</_></rects>
      <tilted>0</tilted></_>
    <_>
      <rects>
        <_>
          19 8 10 6 -1.</_>
        <_>
          24 8 5 6 2.</_></rects>
      <tilted>0</tilted></_>
    <_>
      <rects>
        <_>
          19 8 16 4 -1.</_>
        <_>
          19 10 16 2 2.</_></rects>
      <tilted>0</tilted></_>
    <_>
      <rects>
        <_>
          19 10 2 8 -1.</_>
        <_>
          19 10 1 4 2.</_>
        <_>
          20 14 1 4 2.</_></rects>
      <tilted>0</tilted></_>
    <_>
      <rects>
        <_>
          19 11 12 6 -1.</_>
        <_>
          19 14 12 3 2.</_></rects>
      <tilted>0</tilted></_>
    <_>
      <rects>
        <_>
          19 12 10 14 -1.</_>
        <_>
          19 12 5 7 2.</_>
        <_>
          24 19 5 7 2.</_></rects>
      <tilted>0</tilted></_>
    <_>
      <rects>
        <_>
          19 13 11 6 -1.</_>
        <_>
          19 16 11 3 2.</_></rects>
      <tilted>0</tilted></_>
    <_>
      <rects>
        <_>
          19 14 3 5 -1.</_>
        <_>
          20 14 1 5 2.</_></rects>
      <tilted>0</tilted></_>
    <_>
      <rects>
        <_>
          19 16 10 14 -1.</_>
        <_>
          19 16 5 7 2.</_>
        <_>
          24 23 5 7 2.</_></rects>
      <tilted>0</tilted></_>
    <_>
      <rects>
        <_>
          19 20 7 6 -1.</_>
        <_>
          19 23 7 3 2.</_></rects>
      <tilted>0</tilted></_>
    <_>
      <rects>
        <_>
          20 0 29 6 -1.</_>
        <_>
          20 3 29 3 2.</_></rects>
      <tilted>0</tilted></_>
    <_>
      <rects>
        <_>
          20 1 6 4 -1.</_>
        <_>
          23 1 3 4 2.</_></rects>
      <tilted>0</tilted></_>
    <_>
      <rects>
        <_>
          20 7 28 14 -1.</_>
        <_>
          20 14 28 7 2.</_></rects>
      <tilted>0</tilted></_>
    <_>
      <rects>
        <_>
          20 13 2 8 -1.</_>
        <_>
          21 13 1 8 2.</_></rects>
      <tilted>0</tilted></_>
    <_>
      <rects>
        <_>
          20 16 8 12 -1.</_>
        <_>
          20 16 4 6 2.</_>
        <_>
          24 22 4 6 2.</_></rects>
      <tilted>0</tilted></_>
    <_>
      <rects>
        <_>
          20 20 6 4 -1.</_>
        <_>
          20 22 6 2 2.</_></rects>
      <tilted>0</tilted></_>
    <_>
      <rects>
        <_>
          20 20 25 4 -1.</_>
        <_>
          20 22 25 2 2.</_></rects>
      <tilted>0</tilted></_>
    <_>
      <rects>
        <_>
          20 23 24 2 -1.</_>
        <_>
          20 23 12 1 2.</_>
        <_>
          32 24 12 1 2.</_></rects>
      <tilted>0</tilted></_>
    <_>
      <rects>
        <_>
          20 24 5 4 -1.</_>
        <_>
          20 26 5 2 2.</_></rects>
      <tilted>0</tilted></_>
    <_>
      <rects>
        <_>
          21 5 2 16 -1.</_>
        <_>
          21 5 1 8 2.</_>
        <_>
          22 13 1 8 2.</_></rects>
      <tilted>0</tilted></_>
    <_>
      <rects>
        <_>
          21 12 8 14 -1.</_>
        <_>
          21 12 4 7 2.</_>
        <_>
          25 19 4 7 2.</_></rects>
      <tilted>0</tilted></_>
    <_>
      <rects>
        <_>
          21 13 25 3 -1.</_>
        <_>
          21 14 25 1 2.</_></rects>
      <tilted>0</tilted></_>
    <_>
      <rects>
        <_>
          21 14 8 4 -1.</_>
        <_>
          21 16 8 2 2.</_></rects>
      <tilted>0</tilted></_>
    <_>
      <rects>
        <_>
          21 15 24 8 -1.</_>
        <_>
          21 15 12 4 2.</_>
        <_>
          33 19 12 4 2.</_></rects>
      <tilted>0</tilted></_>
    <_>
      <rects>
        <_>
          21 17 6 8 -1.</_>
        <_>
          24 17 3 8 2.</_></rects>
      <tilted>0</tilted></_>
    <_>
      <rects>
        <_>
          21 18 10 7 -1.</_>
        <_>
          26 18 5 7 2.</_></rects>
      <tilted>0</tilted></_>
    <_>
      <rects>
        <_>
          21 21 17 4 -1.</_>
        <_>
          21 23 17 2 2.</_></rects>
      <tilted>0</tilted></_>
    <_>
      <rects>
        <_>
          21 21 24 6 -1.</_>
        <_>
          21 24 24 3 2.</_></rects>
      <tilted>0</tilted></_>
    <_>
      <rects>
        <_>
          21 23 8 6 -1.</_>
        <_>
          25 23 4 6 2.</_></rects>
      <tilted>0</tilted></_>
    <_>
      <rects>
        <_>
          22 0 28 12 -1.</_>
        <_>
          36 0 14 12 2.</_></rects>
      <tilted>0</tilted></_>
    <_>
      <rects>
        <_>
          22 14 7 4 -1.</_>
        <_>
          22 16 7 2 2.</_></rects>
      <tilted>0</tilted></_>
    <_>
      <rects>
        <_>
          22 15 24 1 -1.</_>
        <_>
          30 15 8 1 2.</_></rects>
      <tilted>0</tilted></_>
    <_>
      <rects>
        <_>
          22 18 6 12 -1.</_>
        <_>
          25 18 3 12 2.</_></rects>
      <tilted>0</tilted></_>
    <_>
      <rects>
        <_>
          22 18 8 5 -1.</_>
        <_>
          26 18 4 5 2.</_></rects>
      <tilted>0</tilted></_>
    <_>
      <rects>
        <_>
          22 23 20 6 -1.</_>
        <_>
          22 26 20 3 2.</_></rects>
      <tilted>0</tilted></_>
    <_>
      <rects>
        <_>
          23 2 16 27 -1.</_>
        <_>
          31 2 8 27 2.</_></rects>
      <tilted>0</tilted></_>
    <_>
      <rects>
        <_>
          23 3 10 6 -1.</_>
        <_>
          28 3 5 6 2.</_></rects>
      <tilted>0</tilted></_>
    <_>
      <rects>
        <_>
          23 6 2 17 -1.</_>
        <_>
          24 6 1 17 2.</_></rects>
      <tilted>0</tilted></_>
    <_>
      <rects>
        <_>
          23 10 14 9 -1.</_>
        <_>
          30 10 7 9 2.</_></rects>
      <tilted>0</tilted></_>
    <_>
      <rects>
        <_>
          23 13 2 8 -1.</_>
        <_>
          23 13 1 4 2.</_>
        <_>
          24 17 1 4 2.</_></rects>
      <tilted>0</tilted></_>
    <_>
      <rects>
        <_>
          23 14 2 6 -1.</_>
        <_>
          24 14 1 6 2.</_></rects>
      <tilted>0</tilted></_>
    <_>
      <rects>
        <_>
          23 14 16 10 -1.</_>
        <_>
          23 14 8 5 2.</_>
        <_>
          31 19 8 5 2.</_></rects>
      <tilted>0</tilted></_>
    <_>
      <rects>
        <_>
          23 19 16 6 -1.</_>
        <_>
          23 22 16 3 2.</_></rects>
      <tilted>0</tilted></_>
    <_>
      <rects>
        <_>
          23 21 24 2 -1.</_>
        <_>
          23 21 12 1 2.</_>
        <_>
          35 22 12 1 2.</_></rects>
      <tilted>0</tilted></_>
    <_>
      <rects>
        <_>
          23 23 7 6 -1.</_>
        <_>
          23 26 7 3 2.</_></rects>
      <tilted>0</tilted></_>
    <_>
      <rects>
        <_>
          23 24 13 4 -1.</_>
        <_>
          23 26 13 2 2.</_></rects>
      <tilted>0</tilted></_>
    <_>
      <rects>
        <_>
          24 13 12 6 -1.</_>
        <_>
          30 13 6 6 2.</_></rects>
      <tilted>0</tilted></_>
    <_>
      <rects>
        <_>
          24 15 2 8 -1.</_>
        <_>
          25 15 1 8 2.</_></rects>
      <tilted>0</tilted></_>
    <_>
      <rects>
        <_>
          24 15 6 6 -1.</_>
        <_>
          24 18 6 3 2.</_></rects>
      <tilted>0</tilted></_>
    <_>
      <rects>
        <_>
          24 16 2 6 -1.</_>
        <_>
          25 16 1 6 2.</_></rects>
      <tilted>0</tilted></_>
    <_>
      <rects>
        <_>
          24 20 16 4 -1.</_>
        <_>
          24 22 16 2 2.</_></rects>
      <tilted>0</tilted></_>
    <_>
      <rects>
        <_>
          24 24 21 6 -1.</_>
        <_>
          24 27 21 3 2.</_></rects>
      <tilted>0</tilted></_>
    <_>
      <rects>
        <_>
          25 0 23 12 -1.</_>
        <_>
          25 6 23 6 2.</_></rects>
      <tilted>0</tilted></_>
    <_>
      <rects>
        <_>
          25 5 12 14 -1.</_>
        <_>
          31 5 6 14 2.</_></rects>
      <tilted>0</tilted></_>
    <_>
      <rects>
        <_>
          25 16 12 1 -1.</_>
        <_>
          31 16 6 1 2.</_></rects>
      <tilted>0</tilted></_>
    <_>
      <rects>
        <_>
          25 18 13 12 -1.</_>
        <_>
          25 24 13 6 2.</_></rects>
      <tilted>0</tilted></_>
    <_>
      <rects>
        <_>
          25 20 6 10 -1.</_>
        <_>
          25 20 3 5 2.</_>
        <_>
          28 25 3 5 2.</_></rects>
      <tilted>0</tilted></_>
    <_>
      <rects>
        <_>
          26 0 4 4 -1.</_>
        <_>
          28 0 2 4 2.</_></rects>
      <tilted>0</tilted></_>
    <_>
      <rects>
        <_>
          26 0 12 8 -1.</_>
        <_>
          26 4 12 4 2.</_></rects>
      <tilted>0</tilted></_>
    <_>
      <rects>
        <_>
          26 0 23 10 -1.</_>
        <_>
          26 5 23 5 2.</_></rects>
      <tilted>0</tilted></_>
    <_>
      <rects>
        <_>
          26 1 4 2 -1.</_>
        <_>
          28 1 2 2 2.</_></rects>
      <tilted>0</tilted></_>
    <_>
      <rects>
        <_>
          26 7 2 19 -1.</_>
        <_>
          27 7 1 19 2.</_></rects>
      <tilted>0</tilted></_>
    <_>
      <rects>
        <_>
          26 12 15 6 -1.</_>
        <_>
          31 12 5 6 2.</_></rects>
      <tilted>0</tilted></_>
    <_>
      <rects>
        <_>
          26 19 4 11 -1.</_>
        <_>
          28 19 2 11 2.</_></rects>
      <tilted>0</tilted></_>
    <_>
      <rects>
        <_>
          26 21 6 4 -1.</_>
        <_>
          26 23 6 2 2.</_></rects>
      <tilted>0</tilted></_>
    <_>
      <rects>
        <_>
          26 24 11 6 -1.</_>
        <_>
          26 27 11 3 2.</_></rects>
      <tilted>0</tilted></_>
    <_>
      <rects>
        <_>
          27 0 12 4 -1.</_>
        <_>
          33 0 6 4 2.</_></rects>
      <tilted>0</tilted></_>
    <_>
      <rects>
        <_>
          27 13 2 7 -1.</_>
        <_>
          28 13 1 7 2.</_></rects>
      <tilted>0</tilted></_>
    <_>
      <rects>
        <_>
          27 20 1 6 -1.</_>
        <_>
          27 23 1 3 2.</_></rects>
      <tilted>0</tilted></_>
    <_>
      <rects>
        <_>
          28 5 6 2 -1.</_>
        <_>
          28 6 6 1 2.</_></rects>
      <tilted>0</tilted></_>
    <_>
      <rects>
        <_>
          28 6 10 4 -1.</_>
        <_>
          33 6 5 4 2.</_></rects>
      <tilted>0</tilted></_>
    <_>
      <rects>
        <_>
          28 25 4 5 -1.</_>
        <_>
          30 25 2 5 2.</_></rects>
      <tilted>0</tilted></_>
    <_>
      <rects>
        <_>
          28 26 15 4 -1.</_>
        <_>
          28 28 15 2 2.</_></rects>
      <tilted>0</tilted></_>
    <_>
      <rects>
        <_>
          29 0 12 10 -1.</_>
        <_>
          29 5 12 5 2.</_></rects>
      <tilted>0</tilted></_>
    <_>
      <rects>
        <_>
          29 2 6 4 -1.</_>
        <_>
          32 2 3 4 2.</_></rects>
      <tilted>0</tilted></_>
    <_>
      <rects>
        <_>
          29 3 5 2 -1.</_>
        <_>
          29 4 5 1 2.</_></rects>
      <tilted>0</tilted></_>
    <_>
      <rects>
        <_>
          29 8 8 22 -1.</_>
        <_>
          29 19 8 11 2.</_></rects>
      <tilted>0</tilted></_>
    <_>
      <rects>
        <_>
          29 16 19 6 -1.</_>
        <_>
          29 18 19 2 2.</_></rects>
      <tilted>0</tilted></_>
    <_>
      <rects>
        <_>
          30 0 18 12 -1.</_>
        <_>
          30 6 18 6 2.</_></rects>
      <tilted>0</tilted></_>
    <_>
      <rects>
        <_>
          30 4 5 2 -1.</_>
        <_>
          30 5 5 1 2.</_></rects>
      <tilted>0</tilted></_>
    <_>
      <rects>
        <_>
          30 8 20 18 -1.</_>
        <_>
          30 17 20 9 2.</_></rects>
      <tilted>0</tilted></_>
    <_>
      <rects>
        <_>
          30 23 6 7 -1.</_>
        <_>
          33 23 3 7 2.</_></rects>
      <tilted>0</tilted></_>
    <_>
      <rects>
        <_>
          30 25 4 4 -1.</_>
        <_>
          32 25 2 4 2.</_></rects>
      <tilted>0</tilted></_>
    <_>
      <rects>
        <_>
          31 2 7 2 -1.</_>
        <_>
          31 3 7 1 2.</_></rects>
      <tilted>0</tilted></_>
    <_>
      <rects>
        <_>
          31 7 6 2 -1.</_>
        <_>
          31 8 6 1 2.</_></rects>
      <tilted>0</tilted></_>
    <_>
      <rects>
        <_>
          32 0 1 12 -1.</_>
        <_>
          32 6 1 6 2.</_></rects>
      <tilted>0</tilted></_>
    <_>
      <rects>
        <_>
          32 0 14 3 -1.</_>
        <_>
          39 0 7 3 2.</_></rects>
      <tilted>0</tilted></_>
    <_>
      <rects>
        <_>
          32 1 10 12 -1.</_>
        <_>
          32 1 5 6 2.</_>
        <_>
          37 7 5 6 2.</_></rects>
      <tilted>0</tilted></_>
    <_>
      <rects>
        <_>
          32 8 18 3 -1.</_>
        <_>
          41 8 9 3 2.</_></rects>
      <tilted>0</tilted></_>
    <_>
      <rects>
        <_>
          32 26 16 4 -1.</_>
        <_>
          32 28 16 2 2.</_></rects>
      <tilted>0</tilted></_>
    <_>
      <rects>
        <_>
          34 9 16 3 -1.</_>
        <_>
          42 9 8 3 2.</_></rects>
      <tilted>0</tilted></_>
    <_>
      <rects>
        <_>
          34 12 16 1 -1.</_>
        <_>
          42 12 8 1 2.</_></rects>
      <tilted>0</tilted></_>
    <_>
      <rects>
        <_>
          34 27 4 3 -1.</_>
        <_>
          36 27 2 3 2.</_></rects>
      <tilted>0</tilted></_>
    <_>
      <rects>
        <_>
          35 10 4 4 -1.</_>
        <_>
          37 10 2 4 2.</_></rects>
      <tilted>0</tilted></_>
    <_>
      <rects>
        <_>
          35 11 3 16 -1.</_>
        <_>
          35 19 3 8 2.</_></rects>
      <tilted>0</tilted></_>
    <_>
      <rects>
        <_>
          36 0 6 2 -1.</_>
        <_>
          39 0 3 2 2.</_></rects>
      <tilted>0</tilted></_>
    <_>
      <rects>
        <_>
          36 5 4 13 -1.</_>
        <_>
          38 5 2 13 2.</_></rects>
      <tilted>0</tilted></_>
    <_>
      <rects>
        <_>
          36 6 4 20 -1.</_>
        <_>
          38 6 2 20 2.</_></rects>
      <tilted>0</tilted></_>
    <_>
      <rects>
        <_>
          36 20 1 10 -1.</_>
        <_>
          36 25 1 5 2.</_></rects>
      <tilted>0</tilted></_>
    <_>
      <rects>
        <_>
          37 7 4 10 -1.</_>
        <_>
          39 7 2 10 2.</_></rects>
      <tilted>0</tilted></_>
    <_>
      <rects>
        <_>
          38 7 4 16 -1.</_>
        <_>
          40 7 2 16 2.</_></rects>
      <tilted>0</tilted></_>
    <_>
      <rects>
        <_>
          38 19 2 1 -1.</_>
        <_>
          39 19 1 1 2.</_></rects>
      <tilted>0</tilted></_>
    <_>
      <rects>
        <_>
          39 2 4 13 -1.</_>
        <_>
          41 2 2 13 2.</_></rects>
      <tilted>0</tilted></_>
    <_>
      <rects>
        <_>
          39 5 4 12 -1.</_>
        <_>
          41 5 2 12 2.</_></rects>
      <tilted>0</tilted></_>
    <_>
      <rects>
        <_>
          39 25 8 3 -1.</_>
        <_>
          43 25 4 3 2.</_></rects>
      <tilted>0</tilted></_>
    <_>
      <rects>
        <_>
          40 6 4 17 -1.</_>
        <_>
          42 6 2 17 2.</_></rects>
      <tilted>0</tilted></_>
    <_>
      <rects>
        <_>
          40 7 4 9 -1.</_>
        <_>
          42 7 2 9 2.</_></rects>
      <tilted>0</tilted></_>
    <_>
      <rects>
        <_>
          40 10 4 5 -1.</_>
        <_>
          42 10 2 5 2.</_></rects>
      <tilted>0</tilted></_>
    <_>
      <rects>
        <_>
          40 16 10 5 -1.</_>
        <_>
          45 16 5 5 2.</_></rects>
      <tilted>0</tilted></_>
    <_>
      <rects>
        <_>
          40 16 10 3 -1.</_>
        <_>
          40 17 10 1 2.</_></rects>
      <tilted>0</tilted></_>
    <_>
      <rects>
        <_>
          41 5 4 12 -1.</_>
        <_>
          43 5 2 12 2.</_></rects>
      <tilted>0</tilted></_>
    <_>
      <rects>
        <_>
          41 12 9 18 -1.</_>
        <_>
          41 21 9 9 2.</_></rects>
      <tilted>0</tilted></_>
    <_>
      <rects>
        <_>
          42 9 6 17 -1.</_>
        <_>
          45 9 3 17 2.</_></rects>
      <tilted>0</tilted></_>
    <_>
      <rects>
        <_>
          42 19 8 8 -1.</_>
        <_>
          46 19 4 8 2.</_></rects>
      <tilted>0</tilted></_>
    <_>
      <rects>
        <_>
          44 0 6 21 -1.</_>
        <_>
          47 0 3 21 2.</_></rects>
      <tilted>0</tilted></_>
    <_>
      <rects>
        <_>
          44 2 6 15 -1.</_>
        <_>
          47 2 3 15 2.</_></rects>
      <tilted>0</tilted></_>
    <_>
      <rects>
        <_>
          44 2 6 24 -1.</_>
        <_>
          47 2 3 24 2.</_></rects>
      <tilted>0</tilted></_>
    <_>
      <rects>
        <_>
          44 5 4 23 -1.</_>
        <_>
          46 5 2 23 2.</_></rects>
      <tilted>0</tilted></_>
    <_>
      <rects>
        <_>
          44 5 6 5 -1.</_>
        <_>
          47 5 3 5 2.</_></rects>
      <tilted>0</tilted></_>
    <_>
      <rects>
        <_>
          44 6 6 20 -1.</_>
        <_>
          47 6 3 20 2.</_></rects>
      <tilted>0</tilted></_>
    <_>
      <rects>
        <_>
          44 10 6 18 -1.</_>
        <_>
          47 10 3 18 2.</_></rects>
      <tilted>0</tilted></_>
    <_>
      <rects>
        <_>
          45 5 4 5 -1.</_>
        <_>
          47 5 2 5 2.</_></rects>
      <tilted>0</tilted></_>
    <_>
      <rects>
        <_>
          45 7 2 16 -1.</_>
        <_>
          46 7 1 16 2.</_></rects>
      <tilted>0</tilted></_>
    <_>
      <rects>
        <_>
          45 10 5 4 -1.</_>
        <_>
          45 12 5 2 2.</_></rects>
      <tilted>0</tilted></_>
    <_>
      <rects>
        <_>
          45 15 5 4 -1.</_>
        <_>
          45 17 5 2 2.</_></rects>
      <tilted>0</tilted></_>
    <_>
      <rects>
        <_>
          45 16 5 8 -1.</_>
        <_>
          45 20 5 4 2.</_></rects>
      <tilted>0</tilted></_>
    <_>
      <rects>
        <_>
          46 1 4 3 -1.</_>
        <_>
          48 1 2 3 2.</_></rects>
      <tilted>0</tilted></_>
    <_>
      <rects>
        <_>
          47 8 3 8 -1.</_>
        <_>
          47 12 3 4 2.</_></rects>
      <tilted>0</tilted></_>
    <_>
      <rects>
        <_>
          47 9 3 6 -1.</_>
        <_>
