<?xml version="1.0"?>
<opencv_storage>
<cascade>
  <stageType>BOOST</stageType>
  <featureType>HAAR</featureType>
  <height>30</height>
  <width>50</width>
  <stageParams>
    <boostType>GAB</boostType>
    <minHitRate>9.9500000476837158e-01</minHitRate>
    <maxFalseAlarm>3.0000001192092896e-01</maxFalseAlarm>
    <weightTrimRate>9.4999999999999996e-01</weightTrimRate>
    <maxDepth>1</maxDepth>
    <maxWeakCount>100</maxWeakCount></stageParams>
  <featureParams>
    <maxCatCount>0</maxCatCount>
    <featSize>1</featSize>
    <mode>BASIC</mode></featureParams>
  <stageNum>15</stageNum>
  <stages>
    <!-- stage 0 -->
    <_>
      <maxWeakCount>13</maxWeakCount>
      <stageThreshold>-1.6279392242431641e+00</stageThreshold>
      <weakClassifiers>
        <_>
          <internalNodes>
            0 -1 38 2.9509812593460083e-03</internalNodes>
          <leafValues>
            -5.2241027355194092e-01 7.7532434463500977e-01</leafValues></_>
        <_>
          <internalNodes>
            0 -1 257 -1.7982376739382744e-02</internalNodes>
          <leafValues>
            7.9009419679641724e-01 -3.2435163855552673e-01</leafValues></_>
        <_>
          <internalNodes>
            0 -1 183 4.3229736387729645e-02</internalNodes>
          <leafValues>
            -2.8433513641357422e-01 7.4311399459838867e-01</leafValues></_>
        <_>
          <internalNodes>
            0 -1 371 -2.3717988282442093e-02</internalNodes>
          <leafValues>
            -8.2013273239135742e-01 2.6943615078926086e-01</leafValues></_>
        <_>
          <internalNodes>
            0 -1 706 -8.1320535391569138e-03</internalNodes>
          <leafValues>
            7.4349194765090942e-01 -2.7212977409362793e-01</leafValues></_>
        <_>
          <internalNodes>
            0 -1 476 3.6243465729057789e-03</internalNodes>
          <leafValues>
            -1.9870655238628387e-01 7.5920569896697998e-01</leafValues></_>
        <_>
          <internalNodes>
            0 -1 43 8.8679818436503410e-03</internalNodes>
          <leafValues>
            2.6395970582962036e-01 -6.7523622512817383e-01</leafValues></_>
        <_>
          <internalNodes>
            0 -1 387 6.1921454034745693e-03</internalNodes>
          <leafValues>
            -2.7816942334175110e-01 6.3403171300888062e-01</leafValues></_>
        <_>
          <internalNodes>
            0 -1 27 -3.1684741377830505e-02</internalNodes>
          <leafValues>
            -6.6710573434829712e-01 2.2112964093685150e-01</leafValues></_>
        <_>
          <internalNodes>
            0 -1 214 3.1915863510221243e-03</internalNodes>
          <leafValues>
            -2.1008951961994171e-01 5.9778892993927002e-01</leafValues></_>
        <_>
          <internalNodes>
            0 -1 455 -8.8328984566032887e-04</internalNodes>
          <leafValues>
            6.4327949285507202e-01 -1.5067614614963531e-01</leafValues></_>
        <_>
          <internalNodes>
            0 -1 450 -9.6200425177812576e-03</internalNodes>
          <leafValues>
            5.2551645040512085e-01 -1.7029002308845520e-01</leafValues></_>
        <_>
          <internalNodes>
            0 -1 305 -1.8902085721492767e-03</internalNodes>
          <leafValues>
            6.4041614532470703e-01 -1.4655615389347076e-01</leafValues></_></weakClassifiers></_>
    <!-- stage 1 -->
    <_>
      <maxWeakCount>16</maxWeakCount>
      <stageThreshold>-1.4249986410140991e+00</stageThreshold>
      <weakClassifiers>
        <_>
          <internalNodes>
            0 -1 13 3.5694956779479980e-02</internalNodes>
          <leafValues>
            -5.5127686262130737e-01 6.6896212100982666e-01</leafValues></_>
        <_>
          <internalNodes>
            0 -1 550 -3.0256615951657295e-02</internalNodes>
          <leafValues>
            5.7352834939956665e-01 -4.3943557143211365e-01</leafValues></_>
        <_>
          <internalNodes>
            0 -1 65 1.5125842764973640e-02</internalNodes>
          <leafValues>
            -4.6812039613723755e-01 4.9673110246658325e-01</leafValues></_>
        <_>
          <internalNodes>
            0 -1 284 1.7314705997705460e-02</internalNodes>
          <leafValues>
            -2.4995695054531097e-01 7.0525139570236206e-01</leafValues></_>
        <_>
          <internalNodes>
            0 -1 200 -2.1852092444896698e-01</internalNodes>
          <leafValues>
            -5.1484084129333496e-01 2.7058413624763489e-01</leafValues></_>
        <_>
          <internalNodes>
            0 -1 227 1.3445500284433365e-02</internalNodes>
          <leafValues>
            -1.7998114228248596e-01 7.0591413974761963e-01</leafValues></_>
        <_>
          <internalNodes>
            0 -1 487 -4.4869505800306797e-03</internalNodes>
          <leafValues>
            3.8090205192565918e-01 -3.5857775807380676e-01</leafValues></_>
        <_>
          <internalNodes>
            0 -1 34 4.1592091321945190e-02</internalNodes>
          <leafValues>
            -1.8496939539909363e-01 6.2399977445602417e-01</leafValues></_>
        <_>
          <internalNodes>
            0 -1 381 -1.4644525945186615e-02</internalNodes>
          <leafValues>
            -5.8946418762207031e-01 2.1568825840950012e-01</leafValues></_>
        <_>
          <internalNodes>
            0 -1 438 5.6108492426574230e-03</internalNodes>
          <leafValues>
            -1.5058028697967529e-01 7.7237075567245483e-01</leafValues></_>
        <_>
          <internalNodes>
            0 -1 709 -8.2681346684694290e-03</internalNodes>
          <leafValues>
            6.4001435041427612e-01 -1.5208962559700012e-01</leafValues></_>
        <_>
          <internalNodes>
            0 -1 603 2.5371782481670380e-02</internalNodes>
          <leafValues>
            -2.8472009301185608e-01 3.4816116094589233e-01</leafValues></_>
        <_>
          <internalNodes>
            0 -1 64 1.2913722312077880e-03</internalNodes>
          <leafValues>
            2.2238411009311676e-01 -4.4831752777099609e-01</leafValues></_>
        <_>
          <internalNodes>
            0 -1 394 7.7111972495913506e-04</internalNodes>
          <leafValues>
            2.1896995604038239e-01 -4.3884715437889099e-01</leafValues></_>
        <_>
          <internalNodes>
            0 -1 397 -7.9104946926236153e-03</internalNodes>
          <leafValues>
            6.6766655445098877e-01 -1.3253517448902130e-01</leafValues></_>
        <_>
          <internalNodes>
            0 -1 420 9.9308164790272713e-03</internalNodes>
          <leafValues>
            -1.2741294503211975e-01 6.4245045185089111e-01</leafValues></_></weakClassifiers></_>
    <!-- stage 2 -->
    <_>
      <maxWeakCount>17</maxWeakCount>
      <stageThreshold>-1.2938127517700195e+00</stageThreshold>
      <weakClassifiers>
        <_>
          <internalNodes>
            0 -1 288 -4.0060818195343018e-02</internalNodes>
          <leafValues>
            8.0388587713241577e-01 -4.6407291293144226e-01</leafValues></_>
        <_>
          <internalNodes>
            0 -1 112 1.2041479349136353e-02</internalNodes>
          <leafValues>
            -4.6074628829956055e-01 5.1314425468444824e-01</leafValues></_>
        <_>
          <internalNodes>
            0 -1 448 -4.3766960501670837e-02</internalNodes>
          <leafValues>
            -9.8122501373291016e-01 2.0594340562820435e-01</leafValues></_>
        <_>
          <internalNodes>
            0 -1 432 1.1476552113890648e-02</internalNodes>
          <leafValues>
            -4.7389358282089233e-01 3.4863016009330750e-01</leafValues></_>
        <_>
          <internalNodes>
            0 -1 216 -3.2126851379871368e-02</internalNodes>
          <leafValues>
            7.1426951885223389e-01 -2.0134472846984863e-01</leafValues></_>
        <_>
          <internalNodes>
            0 -1 29 5.3292244672775269e-02</internalNodes>
          <leafValues>
            -3.0038660764694214e-01 3.8029673695564270e-01</leafValues></_>
        <_>
          <internalNodes>
            0 -1 557 -1.0773258982226253e-03</internalNodes>
          <leafValues>
            2.7434763312339783e-01 -3.5510286688804626e-01</leafValues></_>
        <_>
          <internalNodes>
            0 -1 426 6.3537335954606533e-03</internalNodes>
          <leafValues>
            -2.2621351480484009e-01 4.6749702095985413e-01</leafValues></_>
        <_>
          <internalNodes>
            0 -1 113 1.3146447017788887e-02</internalNodes>
          <leafValues>
            -1.1945643275976181e-01 6.0560673475265503e-01</leafValues></_>
        <_>
          <internalNodes>
            0 -1 416 7.2470121085643768e-03</internalNodes>
          <leafValues>
            -1.8399469554424286e-01 5.0024586915969849e-01</leafValues></_>
        <_>
          <internalNodes>
            0 -1 374 1.1654220521450043e-01</internalNodes>
          <leafValues>
            -2.0073767006397247e-01 4.4682791829109192e-01</leafValues></_>
        <_>
          <internalNodes>
            0 -1 454 -1.1247752809140366e-05</internalNodes>
          <leafValues>
            2.8361931443214417e-01 -3.3351966738700867e-01</leafValues></_>
        <_>
          <internalNodes>
            0 -1 514 -1.2818304821848869e-02</internalNodes>
          <leafValues>
            -9.5043027400970459e-01 8.8680528104305267e-02</leafValues></_>
        <_>
          <internalNodes>
            0 -1 421 -3.6677138414233923e-03</internalNodes>
          <leafValues>
            3.4843108057975769e-01 -2.3880480229854584e-01</leafValues></_>
        <_>
          <internalNodes>
            0 -1 259 -7.1531599387526512e-03</internalNodes>
          <leafValues>
            5.3405040502548218e-01 -1.5485745668411255e-01</leafValues></_>
        <_>
          <internalNodes>
            0 -1 334 -1.2667369097471237e-02</internalNodes>
          <leafValues>
            6.2808090448379517e-01 -1.1548976600170135e-01</leafValues></_>
        <_>
          <internalNodes>
            0 -1 365 5.8624055236577988e-03</internalNodes>
          <leafValues>
            -2.6223593950271606e-01 2.9479646682739258e-01</leafValues></_></weakClassifiers></_>
    <!-- stage 3 -->
    <_>
      <maxWeakCount>24</maxWeakCount>
      <stageThreshold>-1.4200071096420288e+00</stageThreshold>
      <weakClassifiers>
        <_>
          <internalNodes>
            0 -1 169 -6.0321245342493057e-02</internalNodes>
          <leafValues>
            8.3666664361953735e-01 -4.1833332180976868e-01</leafValues></_>
        <_>
          <internalNodes>
            0 -1 22 3.3955574035644531e-02</internalNodes>
          <leafValues>
            -2.8086152672767639e-01 6.7241650819778442e-01</leafValues></_>
        <_>
          <internalNodes>
            0 -1 177 -4.0253259241580963e-02</internalNodes>
          <leafValues>
            7.4790376424789429e-01 -1.8548764288425446e-01</leafValues></_>
        <_>
          <internalNodes>
            0 -1 75 9.8694086074829102e-02</internalNodes>
          <leafValues>
            -3.2816305756568909e-01 4.7343063354492188e-01</leafValues></_>
        <_>
          <internalNodes>
            0 -1 218 -6.4188435673713684e-02</internalNodes>
          <leafValues>
            -4.2844241857528687e-01 2.4715869128704071e-01</leafValues></_>
        <_>
          <internalNodes>
            0 -1 128 3.0425386503338814e-02</internalNodes>
          <leafValues>
            -1.7147384583950043e-01 6.8107432126998901e-01</leafValues></_>
        <_>
          <internalNodes>
            0 -1 410 -8.0702118575572968e-03</internalNodes>
          <leafValues>
            -6.0728770494461060e-01 1.6954042017459869e-01</leafValues></_>
        <_>
          <internalNodes>
            0 -1 121 6.1242161318659782e-03</internalNodes>
          <leafValues>
            -1.5969842672348022e-01 5.7736051082611084e-01</leafValues></_>
        <_>
          <internalNodes>
            0 -1 702 -2.5819245725870132e-02</internalNodes>
          <leafValues>
            6.3413655757904053e-01 -1.1099255830049515e-01</leafValues></_>
        <_>
          <internalNodes>
            0 -1 287 6.2126265838742256e-03</internalNodes>
          <leafValues>
            -1.1700481176376343e-01 6.7182528972625732e-01</leafValues></_>
        <_>
          <internalNodes>
            0 -1 277 1.3933109119534492e-02</internalNodes>
          <leafValues>
            -9.5444679260253906e-02 7.3500829935073853e-01</leafValues></_>
        <_>
          <internalNodes>
            0 -1 406 1.1787249706685543e-02</internalNodes>
          <leafValues>
            1.2452108412981033e-01 -6.7056256532669067e-01</leafValues></_>
        <_>
          <internalNodes>
            0 -1 546 -4.5530218631029129e-03</internalNodes>
          <leafValues>
            5.6432807445526123e-01 -1.3719555735588074e-01</leafValues></_>
        <_>
          <internalNodes>
            0 -1 291 9.2091541737318039e-03</internalNodes>
          <leafValues>
            1.1939653754234314e-01 -6.7059940099716187e-01</leafValues></_>
        <_>
          <internalNodes>
            0 -1 703 5.2038151770830154e-03</internalNodes>
          <leafValues>
            -1.4156150817871094e-01 5.3977102041244507e-01</leafValues></_>
        <_>
          <internalNodes>
            0 -1 61 1.4959217980504036e-02</internalNodes>
          <leafValues>
            -3.1789270043373108e-01 2.1565003693103790e-01</leafValues></_>
        <_>
          <internalNodes>
            0 -1 332 5.3732739761471748e-03</internalNodes>
          <leafValues>
            1.4685483276844025e-01 -5.7858586311340332e-01</leafValues></_>
        <_>
          <internalNodes>
            0 -1 620 -8.4707103669643402e-03</internalNodes>
          <leafValues>
            6.4885288476943970e-01 -1.1673314124345779e-01</leafValues></_>
        <_>
          <internalNodes>
            0 -1 184 -6.0801794752478600e-03</internalNodes>
          <leafValues>
            7.9795473814010620e-01 -6.8813413381576538e-02</leafValues></_>
        <_>
          <internalNodes>
            0 -1 508 -1.1507828021422029e-03</internalNodes>
          <leafValues>
            -6.3707154989242554e-01 1.1544719338417053e-01</leafValues></_>
        <_>
          <internalNodes>
            0 -1 350 3.6666756495833397e-03</internalNodes>
          <leafValues>
            -1.0944669693708420e-01 6.5447145700454712e-01</leafValues></_>
        <_>
          <internalNodes>
            0 -1 232 1.5687266364693642e-02</internalNodes>
          <leafValues>
            -7.1580648422241211e-02 7.0261371135711670e-01</leafValues></_>
        <_>
          <internalNodes>
            0 -1 664 -9.1276085004210472e-04</internalNodes>
          <leafValues>
            3.1235691905021667e-01 -2.0234490931034088e-01</leafValues></_>
        <_>
          <internalNodes>
            0 -1 168 1.7810838297009468e-02</internalNodes>
          <leafValues>
            -1.4894331991672516e-01 4.4043257832527161e-01</leafValues></_></weakClassifiers></_>
    <!-- stage 4 -->
    <_>
      <maxWeakCount>29</maxWeakCount>
      <stageThreshold>-1.3952388763427734e+00</stageThreshold>
      <weakClassifiers>
        <_>
          <internalNodes>
            0 -1 192 2.4563424289226532e-02</internalNodes>
          <leafValues>
            -4.8260694742202759e-01 6.0380190610885620e-01</leafValues></_>
        <_>
          <internalNodes>
            0 -1 151 -7.8341290354728699e-02</internalNodes>
          <leafValues>
            7.4247658252716064e-01 -2.5057810544967651e-01</leafValues></_>
        <_>
          <internalNodes>
            0 -1 23 3.4271344542503357e-02</internalNodes>
          <leafValues>
            -2.9624688625335693e-01 4.8873439431190491e-01</leafValues></_>
        <_>
          <internalNodes>
            0 -1 194 -3.7526078522205353e-02</internalNodes>
          <leafValues>
            4.8931798338890076e-01 -2.4867969751358032e-01</leafValues></_>
        <_>
          <internalNodes>
            0 -1 715 -1.0487441718578339e-01</internalNodes>
          <leafValues>
            -3.6806201934814453e-01 3.3146551251411438e-01</leafValues></_>
        <_>
          <internalNodes>
            0 -1 160 2.3298837244510651e-02</internalNodes>
          <leafValues>
            -1.4397536218166351e-01 5.4181826114654541e-01</leafValues></_>
        <_>
          <internalNodes>
            0 -1 697 -2.5727307423949242e-02</internalNodes>
          <leafValues>
            6.1224877834320068e-01 -1.2299302965402603e-01</leafValues></_>
        <_>
          <internalNodes>
            0 -1 483 2.6725486386567354e-03</internalNodes>
          <leafValues>
            1.5692684054374695e-01 -5.4329109191894531e-01</leafValues></_>
        <_>
          <internalNodes>
            0 -1 203 3.7953387945890427e-03</internalNodes>
          <leafValues>
            8.9161902666091919e-02 -6.6043162345886230e-01</leafValues></_>
        <_>
          <internalNodes>
            0 -1 54 3.5482514649629593e-03</internalNodes>
          <leafValues>
            1.1205706745386124e-01 -6.2668883800506592e-01</leafValues></_>
        <_>
          <internalNodes>
            0 -1 515 5.1384759135544300e-03</internalNodes>
          <leafValues>
            -1.8475481867790222e-01 4.0220504999160767e-01</leafValues></_>
        <_>
          <internalNodes>
            0 -1 21 2.4067854508757591e-02</internalNodes>
          <leafValues>
            -9.5921464264392853e-02 6.5250772237777710e-01</leafValues></_>
        <_>
          <internalNodes>
            0 -1 46 -4.4259130954742432e-03</internalNodes>
          <leafValues>
            -6.0132461786270142e-01 1.2006356567144394e-01</leafValues></_>
        <_>
          <internalNodes>
            0 -1 708 1.2451615184545517e-02</internalNodes>
          <leafValues>
            1.0024254024028778e-01 -5.7408130168914795e-01</leafValues></_>
        <_>
          <internalNodes>
            0 -1 269 8.4168128669261932e-03</internalNodes>
          <leafValues>
            -1.0616608709096909e-01 6.3388508558273315e-01</leafValues></_>
        <_>
          <internalNodes>
            0 -1 311 -1.2505905702710152e-02</internalNodes>
          <leafValues>
            5.4599279165267944e-01 -1.1234776675701141e-01</leafValues></_>
        <_>
          <internalNodes>
            0 -1 418 -1.4279723167419434e-02</internalNodes>
          <leafValues>
            7.6663607358932495e-01 -8.5708871483802795e-02</leafValues></_>
        <_>
          <internalNodes>
            0 -1 329 1.0172721929848194e-02</internalNodes>
          <leafValues>
            -1.7746220529079437e-01 3.2294332981109619e-01</leafValues></_>
        <_>
          <internalNodes>
            0 -1 429 -5.5551603436470032e-02</internalNodes>
          <leafValues>
            -9.3251681327819824e-01 6.5789237618446350e-02</leafValues></_>
        <_>
          <internalNodes>
            0 -1 78 3.7841804325580597e-02</internalNodes>
          <leafValues>
            -2.1099483966827393e-01 3.1193664669990540e-01</leafValues></_>
        <_>
          <internalNodes>
            0 -1 303 1.1228662915527821e-03</internalNodes>
          <leafValues>
            -1.2560607492923737e-01 4.6791332960128784e-01</leafValues></_>
        <_>
          <internalNodes>
            0 -1 521 -5.5052246898412704e-03</internalNodes>
          <leafValues>
            -8.5755473375320435e-01 7.0825211703777313e-02</leafValues></_>
        <_>
          <internalNodes>
            0 -1 85 -3.5084215924143791e-03</internalNodes>
          <leafValues>
            4.6427771449089050e-01 -1.3489693403244019e-01</leafValues></_>
        <_>
          <internalNodes>
            0 -1 36 -3.3268602564930916e-03</internalNodes>
          <leafValues>
            -5.8628624677658081e-01 9.2889800667762756e-02</leafValues></_>
        <_>
          <internalNodes>
            0 -1 12 1.0076551698148251e-02</internalNodes>
          <leafValues>
            -1.1122292280197144e-01 4.8441007733345032e-01</leafValues></_>
        <_>
          <internalNodes>
            0 -1 294 1.9790470600128174e-02</internalNodes>
          <leafValues>
            -2.8281247615814209e-01 1.8568773567676544e-01</leafValues></_>
        <_>
          <internalNodes>
            0 -1 465 5.5210981518030167e-03</internalNodes>
          <leafValues>
            7.6722800731658936e-02 -6.7295110225677490e-01</leafValues></_>
        <_>
          <internalNodes>
            0 -1 98 -1.5236470103263855e-01</internalNodes>
          <leafValues>
            -6.5584450960159302e-01 7.2335660457611084e-02</leafValues></_>
        <_>
          <internalNodes>
            0 -1 344 1.2003912124782801e-03</internalNodes>
          <leafValues>
            8.3802819252014160e-02 -5.5969434976577759e-01</leafValues></_></weakClassifiers></_>
    <!-- stage 5 -->
    <_>
      <maxWeakCount>34</maxWeakCount>
      <stageThreshold>-1.2713818550109863e+00</stageThreshold>
      <weakClassifiers>
        <_>
          <internalNodes>
            0 -1 17 1.6332078725099564e-02</internalNodes>
          <leafValues>
            -4.4489139318466187e-01 5.4915589094161987e-01</leafValues></_>
        <_>
          <internalNodes>
            0 -1 681 -2.8658522292971611e-02</internalNodes>
          <leafValues>
            6.0131567716598511e-01 -2.9743164777755737e-01</leafValues></_>
        <_>
          <internalNodes>
            0 -1 363 -1.8404440954327583e-02</internalNodes>
          <leafValues>
            5.6091982126235962e-01 -2.3416014015674591e-01</leafValues></_>
        <_>
          <internalNodes>
            0 -1 646 2.3248859215527773e-03</internalNodes>
          <leafValues>
            -4.2817619442939758e-01 2.3872557282447815e-01</leafValues></_>
        <_>
          <internalNodes>
            0 -1 540 -1.6019001603126526e-02</internalNodes>
          <leafValues>
            4.8979601263999939e-01 -1.6695451736450195e-01</leafValues></_>
        <_>
          <internalNodes>
            0 -1 691 4.7889128327369690e-03</internalNodes>
          <leafValues>
            -1.7476609349250793e-01 5.0308305025100708e-01</leafValues></_>
        <_>
          <internalNodes>
            0 -1 372 -8.5770891746506095e-04</internalNodes>
          <leafValues>
            -5.8750915527343750e-01 1.7250011861324310e-01</leafValues></_>
        <_>
          <internalNodes>
            0 -1 195 -2.4443180300295353e-03</internalNodes>
          <leafValues>
            3.5477888584136963e-01 -2.0314475893974304e-01</leafValues></_>
        <_>
          <internalNodes>
            0 -1 57 1.9881948828697205e-02</internalNodes>
          <leafValues>
            -2.8102830052375793e-01 2.4258209764957428e-01</leafValues></_>
        <_>
          <internalNodes>
            0 -1 146 -3.5018395632505417e-02</internalNodes>
          <leafValues>
            5.9931856393814087e-01 -1.3207601010799408e-01</leafValues></_>
        <_>
          <internalNodes>
            0 -1 114 3.0058071017265320e-02</internalNodes>
          <leafValues>
            -1.1218546330928802e-01 5.1189231872558594e-01</leafValues></_>
        <_>
          <internalNodes>
            0 -1 301 4.1124643757939339e-03</internalNodes>
          <leafValues>
            -1.4339254796504974e-01 4.4559237360954285e-01</leafValues></_>
        <_>
          <internalNodes>
            0 -1 250 1.3389291241765022e-02</internalNodes>
          <leafValues>
            -9.0220585465431213e-02 5.9612917900085449e-01</leafValues></_>
        <_>
          <internalNodes>
            0 -1 512 -6.3285799114964902e-05</internalNodes>
          <leafValues>
            2.1552973985671997e-01 -3.0935096740722656e-01</leafValues></_>
        <_>
          <internalNodes>
            0 -1 66 2.0689996890723705e-03</internalNodes>
          <leafValues>
            7.5765199959278107e-02 -6.7302143573760986e-01</leafValues></_>
        <_>
          <internalNodes>
            0 -1 466 4.2671514675021172e-03</internalNodes>
          <leafValues>
            -1.6512900590896606e-01 3.6506292223930359e-01</leafValues></_>
        <_>
          <internalNodes>
            0 -1 39 1.7997168470174074e-03</internalNodes>
          <leafValues>
            8.8634014129638672e-02 -6.4757382869720459e-01</leafValues></_>
        <_>
          <internalNodes>
            0 -1 440 -2.3401148617267609e-02</internalNodes>
          <leafValues>
            -6.6314923763275146e-01 7.2511926293373108e-02</leafValues></_>
        <_>
          <internalNodes>
            0 -1 41 -2.2884651552885771e-03</internalNodes>
          <leafValues>
            -7.1767735481262207e-01 6.4190223813056946e-02</leafValues></_>
        <_>
          <internalNodes>
            0 -1 187 2.1959068253636360e-03</internalNodes>
          <leafValues>
            -1.2674079835414886e-01 4.4118434190750122e-01</leafValues></_>
        <_>
          <internalNodes>
            0 -1 189 -1.1451952159404755e-03</internalNodes>
          <leafValues>
            4.1887387633323669e-01 -1.3034990429878235e-01</leafValues></_>
        <_>
          <internalNodes>
            0 -1 369 -2.1892718970775604e-02</internalNodes>
          <leafValues>
            5.1869750022888184e-01 -9.8681643605232239e-02</leafValues></_>
        <_>
          <internalNodes>
            0 -1 68 -6.9676444400101900e-04</internalNodes>
          <leafValues>
            -5.1598006486892700e-01 9.8048761487007141e-02</leafValues></_>
        <_>
          <internalNodes>
            0 -1 153 -3.8269222714006901e-03</internalNodes>
          <leafValues>
            -6.6494059562683105e-01 7.5587227940559387e-02</leafValues></_>
        <_>
          <internalNodes>
            0 -1 577 -2.6625811588019133e-03</internalNodes>
          <leafValues>
            4.0942475199699402e-01 -1.2120792269706726e-01</leafValues></_>
        <_>
          <internalNodes>
            0 -1 581 -3.1331907957792282e-03</internalNodes>
          <leafValues>
            -6.6058117151260376e-01 7.5516365468502045e-02</leafValues></_>
        <_>
          <internalNodes>
            0 -1 428 -1.7998346593230963e-03</internalNodes>
          <leafValues>
            -6.7594480514526367e-01 5.8777421712875366e-02</leafValues></_>
        <_>
          <internalNodes>
            0 -1 436 -1.1244638590142131e-03</internalNodes>
          <leafValues>
            4.3443746864795685e-02 -8.9203137159347534e-01</leafValues></_>
        <_>
          <internalNodes>
            0 -1 628 2.6589038316160440e-03</internalNodes>
          <leafValues>
            -1.3076947629451752e-01 3.8793802261352539e-01</leafValues></_>
        <_>
          <internalNodes>
            0 -1 518 -2.0642378367483616e-03</internalNodes>
          <leafValues>
            4.1047805547714233e-01 -1.1031134426593781e-01</leafValues></_>
        <_>
          <internalNodes>
            0 -1 87 -2.5802077725529671e-03</internalNodes>
          <leafValues>
            -6.9406849145889282e-01 7.3993027210235596e-02</leafValues></_>
        <_>
          <internalNodes>
            0 -1 279 1.3353711925446987e-02</internalNodes>
          <leafValues>
            -8.2643799483776093e-02 6.2178903818130493e-01</leafValues></_>
        <_>
          <internalNodes>
            0 -1 162 -5.3660705685615540e-02</internalNodes>
          <leafValues>
            6.4826118946075439e-01 -6.8242661654949188e-02</leafValues></_>
        <_>
          <internalNodes>
            0 -1 109 -2.2850077599287033e-02</internalNodes>
          <leafValues>
            -1.8013492226600647e-01 2.8811699151992798e-01</leafValues></_></weakClassifiers></_>
    <!-- stage 6 -->
    <_>
      <maxWeakCount>41</maxWeakCount>
      <stageThreshold>-1.3125605583190918e+00</stageThreshold>
      <weakClassifiers>
        <_>
          <internalNodes>
            0 -1 182 -5.4689090698957443e-02</internalNodes>
          <leafValues>
            5.9273368120193481e-01 -3.6209055781364441e-01</leafValues></_>
        <_>
          <internalNodes>
            0 -1 430 5.0170421600341797e-03</internalNodes>
          <leafValues>
            -5.5409884452819824e-01 2.9225629568099976e-01</leafValues></_>
        <_>
          <internalNodes>
            0 -1 47 2.0943947136402130e-02</internalNodes>
          <leafValues>
            -2.6196399331092834e-01 4.8500823974609375e-01</leafValues></_>
        <_>
          <internalNodes>
            0 -1 263 -2.1146420389413834e-02</internalNodes>
          <leafValues>
            3.5238167643547058e-01 -3.4462046623229980e-01</leafValues></_>
        <_>
          <internalNodes>
            0 -1 669 4.1770022362470627e-03</internalNodes>
          <leafValues>
            -1.8471558392047882e-01 4.8930600285530090e-01</leafValues></_>
        <_>
          <internalNodes>
            0 -1 611 -3.2615580130368471e-04</internalNodes>
          <leafValues>
            2.4281224608421326e-01 -3.3344748616218567e-01</leafValues></_>
        <_>
          <internalNodes>
            0 -1 658 3.4960890188813210e-03</internalNodes>
          <leafValues>
            -4.1642397642135620e-01 1.1137205362319946e-01</leafValues></_>
        <_>
          <internalNodes>
            0 -1 249 -4.3238475918769836e-03</internalNodes>
          <leafValues>
            3.4825238585472107e-01 -1.8013975024223328e-01</leafValues></_>
        <_>
          <internalNodes>
            0 -1 437 -3.9682518690824509e-03</internalNodes>
          <leafValues>
            5.8838164806365967e-01 -9.5655061304569244e-02</leafValues></_>
        <_>
          <internalNodes>
            0 -1 191 -1.8316309899091721e-02</internalNodes>
          <leafValues>
            5.8261573314666748e-01 -7.8386411070823669e-02</leafValues></_>
        <_>
          <internalNodes>
            0 -1 120 -5.5705659091472626e-02</internalNodes>
          <leafValues>
            -7.1939051151275635e-01 9.0565010905265808e-02</leafValues></_>
        <_>
          <internalNodes>
            0 -1 33 3.0767709016799927e-02</internalNodes>
          <leafValues>
            -3.1459659337997437e-01 1.8052060902118683e-01</leafValues></_>
        <_>
          <internalNodes>
            0 -1 498 -4.4442515354603529e-04</internalNodes>
          <leafValues>
            3.0776101350784302e-01 -1.7561867833137512e-01</leafValues></_>
        <_>
          <internalNodes>
            0 -1 219 -8.0810002982616425e-03</internalNodes>
          <leafValues>
            6.5085822343826294e-01 -8.9491493999958038e-02</leafValues></_>
        <_>
          <internalNodes>
            0 -1 226 -4.3510021641850471e-03</internalNodes>
          <leafValues>
            4.6243259310722351e-01 -1.0306508094072342e-01</leafValues></_>
        <_>
          <internalNodes>
            0 -1 274 -1.5639595221728086e-03</internalNodes>
          <leafValues>
            4.7635224461555481e-01 -1.1199717223644257e-01</leafValues></_>
        <_>
          <internalNodes>
            0 -1 516 3.5290648229420185e-03</internalNodes>
          <leafValues>
            1.1301928758621216e-01 -4.6898719668388367e-01</leafValues></_>
        <_>
          <internalNodes>
            0 -1 721 -3.8378895260393620e-03</internalNodes>
          <leafValues>
            -7.2114020586013794e-01 5.4862581193447113e-02</leafValues></_>
        <_>
          <internalNodes>
            0 -1 223 6.9242296740412712e-03</internalNodes>
          <leafValues>
            -1.1934361606836319e-01 4.2618402838706970e-01</leafValues></_>
        <_>
          <internalNodes>
            0 -1 308 -7.2597026824951172e-02</internalNodes>
          <leafValues>
            7.5221925973892212e-02 -6.2311476469039917e-01</leafValues></_>
        <_>
          <internalNodes>
            0 -1 255 -1.3124951720237732e-01</internalNodes>
          <leafValues>
            -4.1634544730186462e-01 1.3265746831893921e-01</leafValues></_>
        <_>
          <internalNodes>
            0 -1 345 -9.4582047313451767e-04</internalNodes>
          <leafValues>
            3.0851182341575623e-01 -1.6240219771862030e-01</leafValues></_>
        <_>
          <internalNodes>
            0 -1 563 -9.7295977175235748e-03</internalNodes>
          <leafValues>
            2.3129609227180481e-01 -2.1349078416824341e-01</leafValues></_>
        <_>
          <internalNodes>
            0 -1 699 4.8096654936671257e-03</internalNodes>
          <leafValues>
            -1.1368201673030853e-01 4.2022055387496948e-01</leafValues></_>
        <_>
          <internalNodes>
            0 -1 680 2.8973245061933994e-03</internalNodes>
          <leafValues>
            7.7373974025249481e-02 -6.9629323482513428e-01</leafValues></_>
        <_>
          <internalNodes>
            0 -1 423 1.0881568305194378e-02</internalNodes>
          <leafValues>
            4.7740444540977478e-02 -7.3357474803924561e-01</leafValues></_>
        <_>
          <internalNodes>
            0 -1 236 2.3544603027403355e-03</internalNodes>
          <leafValues>
            -1.2468148767948151e-01 4.0199342370033264e-01</leafValues></_>
        <_>
          <internalNodes>
            0 -1 289 3.1077922321856022e-03</internalNodes>
          <leafValues>
            -9.5588698983192444e-02 4.5687371492385864e-01</leafValues></_>
        <_>
          <internalNodes>
            0 -1 494 -7.5416133040562272e-04</internalNodes>
          <leafValues>
            -5.2749830484390259e-01 9.2117100954055786e-02</leafValues></_>
        <_>
          <internalNodes>
            0 -1 675 1.5477071283385158e-03</internalNodes>
          <leafValues>
            -1.5090440213680267e-01 2.8789681196212769e-01</leafValues></_>
        <_>
          <internalNodes>
            0 -1 101 -5.2036732435226440e-02</internalNodes>
          <leafValues>
            -8.7875038385391235e-01 5.2991557866334915e-02</leafValues></_>
        <_>
          <internalNodes>
            0 -1 170 -1.8562651239335537e-03</internalNodes>
          <leafValues>
            -6.9632881879806519e-01 4.7101054340600967e-02</leafValues></_>
        <_>
          <internalNodes>
            0 -1 606 4.2903749272227287e-03</internalNodes>
          <leafValues>
            -9.1629765927791595e-02 4.8597463965415955e-01</leafValues></_>
        <_>
          <internalNodes>
            0 -1 154 3.6566487979143858e-03</internalNodes>
          <leafValues>
            6.8483583629131317e-02 -6.3264042139053345e-01</leafValues></_>
        <_>
          <internalNodes>
            0 -1 11 3.6433801054954529e-02</internalNodes>
          <leafValues>
            -2.8379705548286438e-01 1.5656641125679016e-01</leafValues></_>
        <_>
          <internalNodes>
            0 -1 304 -9.0316298883408308e-04</internalNodes>
          <leafValues>
            4.0099009871482849e-01 -1.2280508130788803e-01</leafValues></_>
        <_>
          <internalNodes>
            0 -1 100 -3.8725608028471470e-03</internalNodes>
          <leafValues>
            3.7939357757568359e-01 -1.1440239846706390e-01</leafValues></_>
        <_>
          <internalNodes>
            0 -1 722 -4.6125953085720539e-03</internalNodes>
          <leafValues>
            -7.0622164011001587e-01 6.2475509941577911e-02</leafValues></_>
        <_>
          <internalNodes>
            0 -1 529 -2.7801485266536474e-03</internalNodes>
          <leafValues>
            4.8488286137580872e-01 -9.4697646796703339e-02</leafValues></_>
        <_>
          <internalNodes>
            0 -1 532 -4.3167095631361008e-02</internalNodes>
          <leafValues>
            -6.8476033210754395e-01 6.9201357662677765e-02</leafValues></_>
        <_>
          <internalNodes>
            0 -1 499 -2.0730022806674242e-03</internalNodes>
          <leafValues>
            3.0273437500000000e-01 -1.4444018900394440e-01</leafValues></_></weakClassifiers></_>
    <!-- stage 7 -->
    <_>
      <maxWeakCount>48</maxWeakCount>
      <stageThreshold>-1.2939538955688477e+00</stageThreshold>
      <weakClassifiers>
        <_>
          <internalNodes>
            0 -1 696 -3.5515278577804565e-02</internalNodes>
          <leafValues>
            5.8330637216567993e-01 -3.0512776970863342e-01</leafValues></_>
        <_>
          <internalNodes>
            0 -1 111 1.3421291485428810e-02</internalNodes>
          <leafValues>
            -3.3562532067298889e-01 4.1685765981674194e-01</leafValues></_>
        <_>
          <internalNodes>
            0 -1 235 8.7056271731853485e-03</internalNodes>
          <leafValues>
            -2.0605605840682983e-01 5.5557554960250854e-01</leafValues></_>
        <_>
          <internalNodes>
            0 -1 62 1.4270980842411518e-02</internalNodes>
          <leafValues>
            -2.6269516348838806e-01 3.5619446635246277e-01</leafValues></_>
        <_>
          <internalNodes>
            0 -1 524 -3.4555373713374138e-03</internalNodes>
          <leafValues>
            2.1756885945796967e-01 -3.3031624555587769e-01</leafValues></_>
        <_>
          <internalNodes>
            0 -1 273 2.3561578243970871e-02</internalNodes>
          <leafValues>
            -7.2454750537872314e-02 6.7909330129623413e-01</leafValues></_>
        <_>
          <internalNodes>
            0 -1 643 -1.0791225358843803e-02</internalNodes>
          <leafValues>
            4.6591171622276306e-01 -9.8309740424156189e-02</leafValues></_>
        <_>
          <internalNodes>
            0 -1 30 -2.9443078674376011e-03</internalNodes>
          <leafValues>
            -6.2462633848190308e-01 7.9562574625015259e-02</leafValues></_>
        <_>
          <internalNodes>
            0 -1 621 5.0765424966812134e-03</internalNodes>
          <leafValues>
            -1.1625330150127411e-01 5.1965516805648804e-01</leafValues></_>
        <_>
          <internalNodes>
            0 -1 661 -4.5877553522586823e-02</internalNodes>
          <leafValues>
            -5.9192782640457153e-01 8.8373646140098572e-02</leafValues></_>
        <_>
          <internalNodes>
            0 -1 391 8.4618007531389594e-04</internalNodes>
          <leafValues>
            1.1520449817180634e-01 -4.1176554560661316e-01</leafValues></_>
        <_>
          <internalNodes>
            0 -1 207 3.9644995704293251e-03</internalNodes>
          <leafValues>
            -7.7518954873085022e-02 6.3576149940490723e-01</leafValues></_>
        <_>
          <internalNodes>
            0 -1 335 8.2377903163433075e-03</internalNodes>
          <leafValues>
            7.2195567190647125e-02 -7.5650864839553833e-01</leafValues></_>
        <_>
          <internalNodes>
            0 -1 566 1.0340230539441109e-02</internalNodes>
          <leafValues>
            5.9201866388320923e-02 -6.5771800279617310e-01</leafValues></_>
        <_>
          <internalNodes>
            0 -1 651 3.7911215331405401e-03</internalNodes>
          <leafValues>
            -1.2139505892992020e-01 4.3112671375274658e-01</leafValues></_>
        <_>
          <internalNodes>
            0 -1 632 -4.2120832949876785e-03</internalNodes>
          <leafValues>
            3.5200670361518860e-01 -1.2929655611515045e-01</leafValues></_>
        <_>
          <internalNodes>
            0 -1 378 -1.0638177394866943e-02</internalNodes>
          <leafValues>
            -4.4363158941268921e-01 1.1423975974321365e-01</leafValues></_>
        <_>
          <internalNodes>
            0 -1 549 1.4735362492501736e-02</internalNodes>
          <leafValues>
            4.4474359601736069e-02 -8.6222833395004272e-01</leafValues></_>
        <_>
          <internalNodes>
            0 -1 220 -5.1245829090476036e-03</internalNodes>
          <leafValues>
            -7.7620178461074829e-01 4.3703578412532806e-02</leafValues></_>
        <_>
          <internalNodes>
            0 -1 262 -1.6825434286147356e-03</internalNodes>
          <leafValues>
            3.9542764425277710e-01 -1.1271888017654419e-01</leafValues></_>
        <_>
          <internalNodes>
            0 -1 166 -4.5381076633930206e-03</internalNodes>
          <leafValues>
            1.9336590170860291e-01 -2.3898239433765411e-01</leafValues></_>
        <_>
          <internalNodes>
            0 -1 150 9.1781849041581154e-03</internalNodes>
          <leafValues>
            -1.2897741794586182e-01 3.4667876362800598e-01</leafValues></_>
        <_>
          <internalNodes>
            0 -1 307 9.6813566051423550e-04</internalNodes>
          <leafValues>
            -1.6172273457050323e-01 3.0651518702507019e-01</leafValues></_>
        <_>
          <internalNodes>
            0 -1 422 7.9217776656150818e-03</internalNodes>
          <leafValues>
            8.3581052720546722e-02 -5.5134427547454834e-01</leafValues></_>
        <_>
          <internalNodes>
            0 -1 353 7.5586820021271706e-03</internalNodes>
          <leafValues>
            -1.3202598690986633e-01 3.5416620969772339e-01</leafValues></_>
        <_>
          <internalNodes>
            0 -1 337 3.1716064549982548e-03</internalNodes>
          <leafValues>
            -7.6067745685577393e-02 5.5337321758270264e-01</leafValues></_>
        <_>
          <internalNodes>
            0 -1 490 -3.5195102100260556e-04</internalNodes>
          <leafValues>
            2.2415061295032501e-01 -1.8830302357673645e-01</leafValues></_>
        <_>
          <internalNodes>
            0 -1 59 3.5209249705076218e-02</internalNodes>
          <leafValues>
            -2.3082219064235687e-01 1.9524733722209930e-01</leafValues></_>
        <_>
          <internalNodes>
            0 -1 123 -1.3571727322414517e-03</internalNodes>
          <leafValues>
            3.0462563037872314e-01 -1.5231345593929291e-01</leafValues></_>
        <_>
          <internalNodes>
            0 -1 42 8.0391950905323029e-03</internalNodes>
          <leafValues>
            -1.8267092108726501e-01 2.2802294790744781e-01</leafValues></_>
        <_>
          <internalNodes>
            0 -1 6 9.5592290163040161e-03</internalNodes>
          <leafValues>
            1.0035797953605652e-01 -4.6397158503532410e-01</leafValues></_>
        <_>
          <internalNodes>
            0 -1 244 -1.9251070916652679e-03</internalNodes>
          <leafValues>
            5.3447610139846802e-01 -8.4610164165496826e-02</leafValues></_>
        <_>
          <internalNodes>
            0 -1 510 1.4046528667677194e-04</internalNodes>
          <leafValues>
            9.1945245862007141e-02 -4.9432533979415894e-01</leafValues></_>
        <_>
          <internalNodes>
            0 -1 384 -8.2111312076449394e-04</internalNodes>
          <leafValues>
            3.5373952984809875e-01 -1.2802907824516296e-01</leafValues></_>
        <_>
          <internalNodes>
            0 -1 10 -1.4866851270198822e-02</internalNodes>
          <leafValues>
            -4.0319195389747620e-01 1.0553386062383652e-01</leafValues></_>
        <_>
          <internalNodes>
            0 -1 480 5.3167324513196945e-03</internalNodes>
          <leafValues>
            -1.1124511808156967e-01 3.7850594520568848e-01</leafValues></_>
        <_>
          <internalNodes>
            0 -1 167 -7.1964284870773554e-04</internalNodes>
          <leafValues>
            2.6399832963943481e-01 -1.5357165038585663e-01</leafValues></_>
        <_>
          <internalNodes>
            0 -1 224 -9.0789897367358208e-03</internalNodes>
          <leafValues>
            -7.6695597171783447e-01 5.2674129605293274e-02</leafValues></_>
        <_>
          <internalNodes>
            0 -1 60 -4.8512551002204418e-03</internalNodes>
          <leafValues>
            -5.4498684406280518e-01 5.9230767190456390e-02</leafValues></_>
        <_>
          <internalNodes>
            0 -1 52 7.1559532079845667e-04</internalNodes>
          <leafValues>
            7.4844650924205780e-02 -5.2253735065460205e-01</leafValues></_>
        <_>
          <internalNodes>
            0 -1 140 -1.3859696686267853e-02</internalNodes>
          <leafValues>
            -9.3538802862167358e-01 3.4571476280689240e-02</leafValues></_>
        <_>
          <internalNodes>
            0 -1 208 9.5135369338095188e-04</internalNodes>
          <leafValues>
            -1.2979176640510559e-01 3.5706543922424316e-01</leafValues></_>
        <_>
          <internalNodes>
            0 -1 403 8.6753638461232185e-03</internalNodes>
          <leafValues>
            -1.1221949011087418e-01 3.1157076358795166e-01</leafValues></_>
        <_>
          <internalNodes>
            0 -1 585 2.0968932658433914e-02</internalNodes>
          <leafValues>
            5.4891865700483322e-02 -6.7373555898666382e-01</leafValues></_>
        <_>
          <internalNodes>
            0 -1 108 2.7835887158289552e-04</internalNodes>
          <leafValues>
            1.0143239051103592e-01 -3.3060187101364136e-01</leafValues></_>
        <_>
          <internalNodes>
            0 -1 376 1.1377993971109390e-02</internalNodes>
          <leafValues>
            4.4905442744493484e-02 -7.4615377187728882e-01</leafValues></_>
        <_>
          <internalNodes>
            0 -1 233 -1.5303033869713545e-03</internalNodes>
          <leafValues>
            5.2646511793136597e-01 -8.0579742789268494e-02</leafValues></_>
        <_>
          <internalNodes>
            0 -1 729 2.2851345129311085e-03</internalNodes>
          <leafValues>
            8.2738712430000305e-02 -4.9299260973930359e-01</leafValues></_></weakClassifiers></_>
    <!-- stage 8 -->
    <_>
      <maxWeakCount>56</maxWeakCount>
      <stageThreshold>-1.2390986680984497e+00</stageThreshold>
      <weakClassifiers>
        <_>
          <internalNodes>
            0 -1 701 -1.1962164193391800e-02</internalNodes>
          <leafValues>
            5.7713907957077026e-01 -2.9248285293579102e-01</leafValues></_>
        <_>
          <internalNodes>
            0 -1 380 1.6823805868625641e-02</internalNodes>
          <leafValues>
            -2.3396676778793335e-01 5.3855967521667480e-01</leafValues></_>
        <_>
          <internalNodes>
            0 -1 37 8.5478555411100388e-03</internalNodes>
          <leafValues>
            -2.3156291246414185e-01 4.6362060308456421e-01</leafValues></_>
        <_>
          <internalNodes>
            0 -1 530 1.6417808365076780e-03</internalNodes>
          <leafValues>
            -4.8447704315185547e-01 1.5529437363147736e-01</leafValues></_>
        <_>
          <internalNodes>
            0 -1 449 -1.3808418996632099e-02</internalNodes>
          <leafValues>
            2.5500985980033875e-01 -2.5410163402557373e-01</leafValues></_>
        <_>
          <internalNodes>
            0 -1 660 -3.2323892228305340e-03</internalNodes>
          <leafValues>
            4.4159343838691711e-01 -1.3511745631694794e-01</leafValues></_>
        <_>
          <internalNodes>
            0 -1 419 -1.8964283168315887e-02</internalNodes>
          <leafValues>
            -8.4507858753204346e-01 5.8882143348455429e-02</leafValues></_>
        <_>
          <internalNodes>
            0 -1 217 -1.2341207265853882e-01</internalNodes>
          <leafValues>
            1.0688231885433197e-01 -6.0505485534667969e-01</leafValues></_>
        <_>
          <internalNodes>
            0 -1 579 -4.1883047670125961e-03</internalNodes>
          <leafValues>
            4.5508879423141479e-01 -1.1645075678825378e-01</leafValues></_>
        <_>
          <internalNodes>
            0 -1 362 -2.1698225289583206e-02</internalNodes>
          <leafValues>
            5.5801200866699219e-01 -1.0015156120061874e-01</leafValues></_>
        <_>
          <internalNodes>
            0 -1 80 -3.8912408053874969e-02</internalNodes>
          <leafValues>
            -5.1658058166503906e-01 1.2441918998956680e-01</leafValues></_>
        <_>
          <internalNodes>
            0 -1 650 3.4437193535268307e-03</internalNodes>
          <leafValues>
            -1.4545020461082458e-01 3.8953596353530884e-01</leafValues></_>
        <_>
          <internalNodes>
            0 -1 469 -6.5704400185495615e-04</internalNodes>
          <leafValues>
            -5.7039511203765869e-01 1.0504057258367538e-01</leafValues></_>
        <_>
          <internalNodes>
            0 -1 724 9.8005272448062897e-03</internalNodes>
          <leafValues>
            4.4422224164009094e-02 -6.2227016687393188e-01</leafValues></_>
        <_>
          <internalNodes>
            0 -1 520 -2.6235731784254313e-03</internalNodes>
          <leafValues>
            -8.5820943117141724e-01 4.2580727487802505e-02</leafValues></_>
        <_>
          <internalNodes>
            0 -1 389 -4.1329581290483475e-03</internalNodes>
          <leafValues>
            4.8878103494644165e-01 -9.1304048895835876e-02</leafValues></_>
        <_>
          <internalNodes>
            0 -1 602 2.2192651405930519e-02</internalNodes>
          <leafValues>
            6.6826313734054565e-02 -7.2747886180877686e-01</leafValues></_>
        <_>
          <internalNodes>
            0 -1 618 -2.9529300518333912e-03</internalNodes>
          <leafValues>
            5.1995211839675903e-01 -9.7197547554969788e-02</leafValues></_>
        <_>
          <internalNodes>
            0 -1 51 1.1186785995960236e-02</internalNodes>
          <leafValues>
            -2.2548572719097137e-01 1.7750890552997589e-01</leafValues></_>
        <_>
          <internalNodes>
            0 -1 105 -9.1231223195791245e-03</internalNodes>
          <leafValues>
            4.0758395195007324e-01 -1.1640571802854538e-01</leafValues></_>
        <_>
          <internalNodes>
            0 -1 88 -5.0087673589587212e-03</internalNodes>
          <leafValues>
            -5.2936387062072754e-01 7.3989950120449066e-02</leafValues></_>
        <_>
          <internalNodes>
            0 -1 0 6.1083759646862745e-04</internalNodes>
          <leafValues>
            9.9834881722927094e-02 -3.7315902113914490e-01</leafValues></_>
        <_>
          <internalNodes>
            0 -1 502 2.0954695064574480e-03</internalNodes>
          <leafValues>
            -1.5487915277481079e-01 2.4411016702651978e-01</leafValues></_>
        <_>
          <internalNodes>
            0 -1 559 -7.3109585791826248e-03</internalNodes>
          <leafValues>
            -6.0378867387771606e-01 6.0993395745754242e-02</leafValues></_>
        <_>
          <internalNodes>
            0 -1 441 1.2024855241179466e-02</internalNodes>
          <leafValues>
            -1.6279138624668121e-01 2.3491726815700531e-01</leafValues></_>
        <_>
          <internalNodes>
            0 -1 56 2.0942959934473038e-02</internalNodes>
          <leafValues>
            5.1077708601951599e-02 -7.1802985668182373e-01</leafValues></_>
        <_>
          <internalNodes>
            0 -1 517 1.5524266054853797e-03</internalNodes>
          <leafValues>
            -1.4464595913887024e-01 2.6162368059158325e-01</leafValues></_>
        <_>
          <internalNodes>
            0 -1 360 -1.1021116748452187e-02</internalNodes>
          <leafValues>
            -7.2532188892364502e-01 5.3634520620107651e-02</leafValues></_>
        <_>
          <internalNodes>
            0 -1 20 1.9163589924573898e-02</internalNodes>
          <leafValues>
            -8.5318319499492645e-02 4.1078546643257141e-01</leafValues></_>
        <_>
          <internalNodes>
            0 -1 144 3.1227800995111465e-02</internalNodes>
          <leafValues>
            -6.1948712915182114e-02 5.5278348922729492e-01</leafValues></_>
        <_>
          <internalNodes>
            0 -1 1 -4.1153188794851303e-03</internalNodes>
          <leafValues>
            -4.9447080492973328e-01 7.3502726852893829e-02</leafValues></_>
        <_>
          <internalNodes>
            0 -1 239 -1.7646502237766981e-03</internalNodes>
          <leafValues>
            2.9247823357582092e-01 -1.3576826453208923e-01</leafValues></_>
        <_>
          <internalNodes>
            0 -1 172 3.8084357976913452e-02</internalNodes>
          <leafValues>
            -1.6329391300678253e-01 2.2062654793262482e-01</leafValues></_>
        <_>
          <internalNodes>
            0 -1 76 5.4459657985717058e-04</internalNodes>
          <leafValues>
            1.2536542117595673e-01 -3.2445666193962097e-01</leafValues></_>
        <_>
          <internalNodes>
            0 -1 9 8.6126416921615601e-02</internalNodes>
          <leafValues>
            -6.2742657959461212e-02 5.7989287376403809e-01</leafValues></_>
        <_>
          <internalNodes>
            0 -1 728 2.2306749597191811e-03</internalNodes>
          <leafValues>
            5.5476035922765732e-02 -7.2362309694290161e-01</leafValues></_>
        <_>
          <internalNodes>
            0 -1 598 -8.2456035306677222e-04</internalNodes>
          <leafValues>
            3.0502673983573914e-01 -1.2109586596488953e-01</leafValues></_>
        <_>
          <internalNodes>
            0 -1 462 -2.9652868397533894e-03</internalNodes>
          <leafValues>
            -4.4844111800193787e-01 7.6253920793533325e-02</leafValues></_>
        <_>
          <internalNodes>
            0 -1 351 8.6440047016367316e-04</internalNodes>
          <leafValues>
            -1.0203392803668976e-01 3.4945684671401978e-01</leafValues></_>
        <_>
          <internalNodes>
            0 -1 266 -7.3415860533714294e-03</internalNodes>
          <leafValues>
            -6.7912769317626953e-01 5.2625481039285660e-02</leafValues></_>
        <_>
          <internalNodes>
            0 -1 414 7.2684756014496088e-04</internalNodes>
          <leafValues>
            -1.2444311380386353e-01 2.9122868180274963e-01</leafValues></_>
        <_>
          <internalNodes>
            0 -1 268 2.0483884960412979e-02</internalNodes>
          <leafValues>
            -6.4376495778560638e-02 5.1007777452468872e-01</leafValues></_>
        <_>
          <internalNodes>
            0 -1 541 -3.4504919312894344e-03</internalNodes>
          <leafValues>
            4.4278836250305176e-01 -7.0961788296699524e-02</leafValues></_>
        <_>
          <internalNodes>
            0 -1 685 -4.7720246948301792e-03</internalNodes>
          <leafValues>
            2.2594781219959259e-01 -1.5441313385963440e-01</leafValues></_>
        <_>
          <internalNodes>
            0 -1 671 3.9916895329952240e-03</internalNodes>
          <leafValues>
            -1.2833656370639801e-01 2.8750076889991760e-01</leafValues></_>
        <_>
          <internalNodes>
            0 -1 682 -5.9377681463956833e-03</internalNodes>
          <leafValues>
            4.1379156708717346e-01 -8.3068624138832092e-02</leafValues></_>
        <_>
          <internalNodes>
            0 -1 567 1.3859992846846581e-02</internalNodes>
          <leafValues>
            5.1323033869266510e-02 -7.9244893789291382e-01</leafValues></_>
        <_>
          <internalNodes>
            0 -1 543 3.9777923375368118e-03</internalNodes>
          <leafValues>
            3.1594514846801758e-02 -7.7827900648117065e-01</leafValues></_>
        <_>
          <internalNodes>
            0 -1 190 -1.3066315092146397e-02</internalNodes>
          <leafValues>
            2.2778217494487762e-01 -1.4988276362419128e-01</leafValues></_>
        <_>
          <internalNodes>
            0 -1 402 -1.6775771509855986e-03</internalNodes>
          <leafValues>
            3.0791383981704712e-01 -1.1057290434837341e-01</leafValues></_>
        <_>
          <internalNodes>
            0 -1 348 3.5929712466895580e-03</internalNodes>
          <leafValues>
            -2.8884348273277283e-01 1.2436603754758835e-01</leafValues></_>
        <_>
          <internalNodes>
            0 -1 176 -8.9326677843928337e-03</internalNodes>
          <leafValues>
            -7.9694765806198120e-01 4.0019374340772629e-02</leafValues></_>
        <_>
          <internalNodes>
            0 -1 53 2.0750118419528008e-03</internalNodes>
          <leafValues>
            3.5093966871500015e-02 -7.3143416643142700e-01</leafValues></_>
        <_>
          <internalNodes>
            0 -1 333 -5.2873082458972931e-03</internalNodes>
          <leafValues>
            4.2233961820602417e-01 -8.1312336027622223e-02</leafValues></_>
        <_>
          <internalNodes>
            0 -1 679 -2.1715327166020870e-03</internalNodes>
          <leafValues>
            -6.7278099060058594e-01 5.5495589971542358e-02</leafValues></_>
        <_>
          <internalNodes>
            0 -1 659 -3.6107827909290791e-03</internalNodes>
          <leafValues>
            2.8053894639015198e-01 -1.2597775459289551e-01</leafValues></_></weakClassifiers></_>
    <!-- stage 9 -->
    <_>
      <maxWeakCount>60</maxWeakCount>
      <stageThreshold>-1.2047373056411743e+00</stageThreshold>
      <weakClassifiers>
        <_>
          <internalNodes>
            0 -1 137 -7.1852304041385651e-02</internalNodes>
          <leafValues>
            4.9214267730712891e-01 -3.9531156420707703e-01</leafValues></_>
        <_>
          <internalNodes>
            0 -1 507 9.3746744096279144e-03</internalNodes>
          <leafValues>
            -2.8555789589881897e-01 3.9832288026809692e-01</leafValues></_>
        <_>
          <internalNodes>
            0 -1 164 -5.5896524339914322e-02</internalNodes>
          <leafValues>
            6.3621741533279419e-01 -1.4437019824981689e-01</leafValues></_>
        <_>
          <internalNodes>
            0 -1 442 -7.4364151805639267e-03</internalNodes>
          <leafValues>
            3.4149026870727539e-01 -2.2379940748214722e-01</leafValues></_>
        <_>
          <internalNodes>
            0 -1 237 1.4323599636554718e-02</internalNodes>
          <leafValues>
            -1.7535558342933655e-01 3.6949956417083740e-01</leafValues></_>
        <_>
          <internalNodes>
            0 -1 553 -3.7008239887654781e-03</internalNodes>
          <leafValues>
            2.0305670797824860e-01 -3.5350492596626282e-01</leafValues></_>
        <_>
          <internalNodes>
            0 -1 412 2.9121898114681244e-03</internalNodes>
          <leafValues>
            -2.8053492307662964e-01 1.7017959058284760e-01</leafValues></_>
        <_>
          <internalNodes>
            0 -1 4 3.2700739800930023e-02</internalNodes>
          <leafValues>
            -2.3219794034957886e-01 1.9867958128452301e-01</leafValues></_>
        <_>
          <internalNodes>
            0 -1 558 -1.0886779054999352e-02</internalNodes>
          <leafValues>
            -4.9730935692787170e-01 9.6990413963794708e-02</leafValues></_>
        <_>
          <internalNodes>
            0 -1 605 -8.2878498360514641e-03</internalNodes>
          <leafValues>
            4.3180543184280396e-01 -1.3159498572349548e-01</leafValues></_>
        <_>
          <internalNodes>
            0 -1 609 3.4485999494791031e-03</internalNodes>
          <leafValues>
            -1.1939255893230438e-01 4.2048141360282898e-01</leafValues></_>
        <_>
          <internalNodes>
            0 -1 122 1.4403884299099445e-02</internalNodes>
          <leafValues>
            -1.4214600622653961e-01 3.4919726848602295e-01</leafValues></_>
        <_>
          <internalNodes>
            0 -1 542 1.1454962659627199e-03</internalNodes>
          <leafValues>
            6.1415359377861023e-02 -6.2080478668212891e-01</leafValues></_>
        <_>
          <internalNodes>
            0 -1 94 8.0362323205918074e-04</internalNodes>
          <leafValues>
            8.6770102381706238e-02 -4.4594910740852356e-01</leafValues></_>
        <_>
          <internalNodes>
            0 -1 84 1.2223753146827221e-03</internalNodes>
          <leafValues>
            9.5524504780769348e-02 -4.1974309086799622e-01</leafValues></_>
        <_>
          <internalNodes>
            0 -1 205 -1.2252919841557741e-03</internalNodes>
          <leafValues>
            2.6192909479141235e-01 -1.4783635735511780e-01</leafValues></_>
        <_>
          <internalNodes>
            0 -1 72 1.0455225128680468e-03</internalNodes>
          <leafValues>
            -3.4305939078330994e-01 1.4561493694782257e-01</leafValues></_>
        <_>
          <internalNodes>
            0 -1 188 -1.6142757376655936e-03</internalNodes>
          <leafValues>
            3.9924639463424683e-01 -1.1005160212516785e-01</leafValues></_>
        <_>
          <internalNodes>
            0 -1 444 5.8862417936325073e-03</internalNodes>
          <leafValues>
            -7.7329583466053009e-02 5.1712453365325928e-01</leafValues></_>
        <_>
          <internalNodes>
            0 -1 48 5.8003589510917664e-03</internalNodes>
          <leafValues>
            -1.8836206197738647e-01 2.6335769891738892e-01</leafValues></_>
        <_>
          <internalNodes>
            0 -1 400 -1.0839815251529217e-02</internalNodes>
          <leafValues>
            4.8340439796447754e-01 -1.0057875514030457e-01</leafValues></_>
        <_>
          <internalNodes>
            0 -1 694 7.5812255963683128e-03</internalNodes>
          <leafValues>
            8.4978014230728149e-02 -5.1273524761199951e-01</leafValues></_>
        <_>
          <internalNodes>
            0 -1 174 -2.9559689573943615e-03</internalNodes>
          <leafValues>
            4.8013430833816528e-01 -8.6295299232006073e-02</leafValues></_>
        <_>
          <internalNodes>
            0 -1 627 2.7336325496435165e-02</internalNodes>
          <leafValues>
            -1.4798207581043243e-01 2.6019608974456787e-01</leafValues></_>
        <_>
          <internalNodes>
            0 -1 368 2.1934555843472481e-03</internalNodes>
          <leafValues>
            9.9090166389942169e-02 -3.8993591070175171e-01</leafValues></_>
        <_>
          <internalNodes>
            0 -1 635 2.2368303034454584e-03</internalNodes>
          <leafValues>
            -1.0962899029254913e-01 3.2808035612106323e-01</leafValues></_>
        <_>
          <internalNodes>
            0 -1 393 6.8095745518803596e-03</internalNodes>
          <leafValues>
            7.9271227121353149e-02 -4.8991701006889343e-01</leafValues></_>
        <_>
          <internalNodes>
            0 -1 496 -9.7292446298524737e-05</internalNodes>
          <leafValues>
            2.1490824222564697e-01 -1.6228115558624268e-01</leafValues></_>
        <_>
          <internalNodes>
            0 -1 138 -3.3573601394891739e-03</internalNodes>
          <leafValues>
            -8.3482825756072998e-01 4.9553763121366501e-02</leafValues></_>
        <_>
          <internalNodes>
            0 -1 629 -3.8158833049237728e-03</internalNodes>
          <leafValues>
            3.3132594823837280e-01 -1.1760163307189941e-01</leafValues></_>
        <_>
          <internalNodes>
            0 -1 710 3.2758917659521103e-03</internalNodes>
          <leafValues>
            5.0485186278820038e-02 -6.7507815361022949e-01</leafValues></_>
        <_>
          <internalNodes>
            0 -1 519 2.9464918188750744e-03</internalNodes>
          <leafValues>
            -1.1519544571638107e-01 3.0451503396034241e-01</leafValues></_>
        <_>
          <internalNodes>
            0 -1 527 -1.9975542090833187e-03</internalNodes>
          <leafValues>
            -4.7033894062042236e-01 8.3366036415100098e-02</leafValues></_>
        <_>
          <internalNodes>
            0 -1 180 1.0894747450947762e-02</internalNodes>
          <leafValues>
            -1.0279604047536850e-01 3.5869625210762024e-01</leafValues></_>
        <_>
          <internalNodes>
            0 -1 596 1.0765213519334793e-02</internalNodes>
          <leafValues>
            1.2759122252464294e-01 -3.1682050228118896e-01</leafValues></_>
        <_>
          <internalNodes>
            0 -1 152 1.5931888483464718e-03</internalNodes>
          <leafValues>
            6.6047422587871552e-02 -4.6970048546791077e-01</leafValues></_>
        <_>
          <internalNodes>
            0 -1 727 6.3526327721774578e-04</internalNodes>
          <leafValues>
            4.9580145627260208e-02 -6.0769206285476685e-01</leafValues></_>
        <_>
          <internalNodes>
            0 -1 460 -6.2491506338119507e-02</internalNodes>
          <leafValues>
            5.1796145737171173e-02 -6.4214253425598145e-01</leafValues></_>
        <_>
          <internalNodes>
            0 -1 28 -1.4557613059878349e-02</internalNodes>
          <leafValues>
            -1.8728721141815186e-01 1.6717574000358582e-01</leafValues></_>
        <_>
          <internalNodes>
            0 -1 447 -6.8894185824319720e-04</internalNodes>
          <leafValues>
            3.5040223598480225e-01 -9.6716970205307007e-02</leafValues></_>
        <_>
          <internalNodes>
            0 -1 215 2.0576980896294117e-03</internalNodes>
          <leafValues>
            -1.0096387565135956e-01 3.1844359636306763e-01</leafValues></_>
        <_>
          <internalNodes>
            0 -1 401 1.3571104966104031e-02</internalNodes>
          <leafValues>
            3.9667174220085144e-02 -8.5995340347290039e-01</leafValues></_>
        <_>
          <internalNodes>
            0 -1 347 1.3209898024797440e-03</internalNodes>
          <leafValues>
            -1.1446132510900497e-01 3.0815091729164124e-01</leafValues></_>
        <_>
          <internalNodes>
            0 -1 525 -5.5800713598728180e-02</internalNodes>
          <leafValues>
            -7.2926908731460571e-01 4.6570137143135071e-02</leafValues></_>
        <_>
          <internalNodes>
            0 -1 196 3.8614939898252487e-02</internalNodes>
          <leafValues>
            -7.1689605712890625e-02 4.8221999406814575e-01</leafValues></_>
        <_>
          <internalNodes>
            0 -1 435 -1.6446784138679504e-02</internalNodes>
          <leafValues>
            4.2474317550659180e-01 -6.9288797676563263e-02</leafValues></_>
        <_>
          <internalNodes>
            0 -1 86 -3.2593007199466228e-03</internalNodes>
          <leafValues>
            -6.0958623886108398e-01 5.8417785912752151e-02</leafValues></_>
        <_>
          <internalNodes>
            0 -1 285 -2.4581430479884148e-03</internalNodes>
          <leafValues>
            2.2283066809177399e-01 -1.4726194739341736e-01</leafValues></_>
        <_>
          <internalNodes>
            0 -1 118 -3.6249734461307526e-02</internalNodes>
          <leafValues>
            -6.5640383958816528e-01 4.8998385667800903e-02</leafValues></_>
        <_>
          <internalNodes>
            0 -1 504 2.8832172974944115e-03</internalNodes>
          <leafValues>
            3.6663495004177094e-02 -6.8333947658538818e-01</leafValues></_>
        <_>
          <internalNodes>
            0 -1 356 -3.4895818680524826e-04</internalNodes>
          <leafValues>
            2.2982630133628845e-01 -1.3586749136447906e-01</leafValues></_>
        <_>
          <internalNodes>
            0 -1 342 -4.6488875523209572e-03</internalNodes>
          <leafValues>
            -4.6343892812728882e-01 6.8122133612632751e-02</leafValues></_>
        <_>
          <internalNodes>
            0 -1 31 -4.2112935334444046e-03</internalNodes>
          <leafValues>
            -3.7975737452507019e-01 7.1030408143997192e-02</leafValues></_>
        <_>
          <internalNodes>
            0 -1 626 3.8363188505172729e-03</internalNodes>
          <leafValues>
            -1.3565224409103394e-01 2.3966240882873535e-01</leafValues></_>
        <_>
          <internalNodes>
            0 -1 594 -4.9035986885428429e-03</internalNodes>
          <leafValues>
            -7.3989903926849365e-01 4.4717457145452499e-02</leafValues></_>
        <_>
          <internalNodes>
            0 -1 258 -8.1663504242897034e-03</internalNodes>
          <leafValues>
            2.9912629723548889e-01 -1.1674278229475021e-01</leafValues></_>
        <_>
          <internalNodes>
            0 -1 386 6.8294247612357140e-03</internalNodes>
          <leafValues>
            -1.8691179156303406e-01 2.2591969370841980e-01</leafValues></_>
        <_>
          <internalNodes>
            0 -1 312 3.5097971558570862e-03</internalNodes>
          <leafValues>
            -7.7006459236145020e-02 4.2782559990882874e-01</leafValues></_>
        <_>
          <internalNodes>
            0 -1 522 5.0256203394383192e-05</internalNodes>
          <leafValues>
            1.4388900995254517e-01 -2.3018744587898254e-01</leafValues></_>
        <_>
          <internalNodes>
            0 -1 106 8.1411756575107574e-02</internalNodes>
          <leafValues>
            -4.8183482140302658e-02 6.8585050106048584e-01</leafValues></_></weakClassifiers></_>
    <!-- stage 10 -->
    <_>
      <maxWeakCount>69</maxWeakCount>
      <stageThreshold>-1.2237102985382080e+00</stageThreshold>
      <weakClassifiers>
        <_>
          <internalNodes>
            0 -1 193 -1.3172113336622715e-02</internalNodes>
          <leafValues>
            3.9209997653961182e-01 -3.8880282640457153e-01</leafValues></_>
        <_>
          <internalNodes>
            0 -1 17 8.7334923446178436e-03</internalNodes>
          <leafValues>
            -4.3405669927597046e-01 2.9996275901794434e-01</leafValues></_>
        <_>
          <internalNodes>
            0 -1 126 -9.8794683814048767e-02</internalNodes>
          <leafValues>
            5.5535948276519775e-01 -1.7653666436672211e-01</leafValues></_>
        <_>
          <internalNodes>
            0 -1 615 -1.1998611502349377e-02</internalNodes>
          <leafValues>
            2.5648951530456543e-01 -2.7374300360679626e-01</leafValues></_>
        <_>
          <internalNodes>
            0 -1 672 1.1313352733850479e-02</internalNodes>
          <leafValues>
            -1.6260938346385956e-01 4.4826662540435791e-01</leafValues></_>
        <_>
          <internalNodes>
            0 -1 316 9.7329204436391592e-04</internalNodes>
          <leafValues>
            -3.6033934354782104e-01 2.0324772596359253e-01</leafValues></_>
        <_>
          <internalNodes>
            0 -1 290 2.2157398052513599e-03</internalNodes>
          <leafValues>
            -3.5159504413604736e-01 1.0929905623197556e-01</leafValues></_>
        <_>
          <internalNodes>
            0 -1 283 9.4668418169021606e-03</internalNodes>
          <leafValues>
            1.1850219219923019e-01 -4.4310304522514343e-01</leafValues></_>
        <_>
          <internalNodes>
            0 -1 468 5.3748628124594688e-03</internalNodes>
          <leafValues>
            7.2763688862323761e-02 -5.7279497385025024e-01</leafValues></_>
        <_>
          <internalNodes>
            0 -1 526 -3.7206083536148071e-02</internalNodes>
          <leafValues>
            9.6555039286613464e-02 -3.8782587647438049e-01</leafValues></_>
        <_>
          <internalNodes>
            0 -1 631 2.3100243415683508e-03</internalNodes>
          <leafValues>
            -1.0993108153343201e-01 3.9333990216255188e-01</leafValues></_>
        <_>
          <internalNodes>
            0 -1 595 3.7255035713315010e-03</internalNodes>
          <leafValues>
            -7.2996489703655243e-02 4.6762144565582275e-01</leafValues></_>
        <_>
          <internalNodes>
            0 -1 392 1.2470205128192902e-01</internalNodes>
          <leafValues>
            -1.2162916362285614e-01 3.5372427105903625e-01</leafValues></_>
        <_>
          <internalNodes>
            0 -1 552 4.3614460155367851e-03</internalNodes>
          <leafValues>
            1.5033303201198578e-01 -2.5543928146362305e-01</leafValues></_>
        <_>
          <internalNodes>
            0 -1 689 1.3995403423905373e-03</internalNodes>
          <leafValues>
            4.8755690455436707e-02 -5.6835812330245972e-01</leafValues></_>
        <_>
          <internalNodes>
            0 -1 657 -5.1939080003648996e-04</internalNodes>
          <leafValues>
            -2.7982598543167114e-01 1.1348704248666763e-01</leafValues></_>
        <_>
          <internalNodes>
            0 -1 587 -1.1617180425673723e-03</internalNodes>
          <leafValues>
            1.2825724482536316e-01 -2.5718045234680176e-01</leafValues></_>
        <_>
          <internalNodes>
            0 -1 463 -2.9734724666923285e-03</internalNodes>
          <leafValues>
            3.0036267638206482e-01 -1.1285874247550964e-01</leafValues></_>
        <_>
          <internalNodes>
            0 -1 339 -1.2649087235331535e-02</internalNodes>
          <leafValues>
            3.0709272623062134e-01 -1.2278585880994797e-01</leafValues></_>
        <_>
          <internalNodes>
            0 -1 458 3.2399175688624382e-03</internalNodes>
          <leafValues>
            -1.4107514917850494e-01 2.6506769657135010e-01</leafValues></_>
        <_>
          <internalNodes>
            0 -1 593 -6.4750071614980698e-03</internalNodes>
          <leafValues>
            4.5669230818748474e-01 -8.0627471208572388e-02</leafValues></_>
        <_>
          <internalNodes>
            0 -1 19 4.2698901146650314e-02</internalNodes>
          <leafValues>
            -2.0864599943161011e-01 1.7068475484848022e-01</leafValues></_>
        <_>
          <internalNodes>
            0 -1 129 -8.9608214329928160e-04</internalNodes>
          <leafValues>
            2.7517256140708923e-01 -1.1100924015045166e-01</leafValues></_>
        <_>
          <internalNodes>
            0 -1 637 7.4475724250078201e-04</internalNodes>
          <leafValues>
            -1.1134015023708344e-01 2.8066176176071167e-01</leafValues></_>
        <_>
          <internalNodes>
            0 -1 619 2.8529562987387180e-03</internalNodes>
          <leafValues>
            -4.7043364495038986e-02 6.0494685173034668e-01</leafValues></_>
        <_>
          <internalNodes>
            0 -1 537 -3.0966238118708134e-03</internalNodes>
          <leafValues>
            -5.7872468233108521e-01 6.2367487698793411e-02</leafValues></_>
        <_>
          <internalNodes>
            0 -1 624 1.8017867114394903e-03</internalNodes>
          <leafValues>
            2.9997030273079872e-02 -7.7881222963333130e-01</leafValues></_>
        <_>
          <internalNodes>
            0 -1 692 -2.9141334816813469e-03</internalNodes>
          <leafValues>
            -6.5922582149505615e-01 3.6009568721055984e-02</leafValues></_>
        <_>
          <internalNodes>
            0 -1 700 6.0287266969680786e-03</internalNodes>
          <leafValues>
            -7.6644703745841980e-02 4.2897087335586548e-01</leafValues></_>
        <_>
          <internalNodes>
            0 -1 673 1.3030030531808734e-03</internalNodes>
          <leafValues>
            -1.2031453847885132e-01 2.7562493085861206e-01</leafValues></_>
        <_>
          <internalNodes>
            0 -1 683 -1.1130658822366968e-04</internalNodes>
          <leafValues>
            1.6588088870048523e-01 -1.8944716453552246e-01</leafValues></_>
        <_>
          <internalNodes>
            0 -1 296 -1.2246739119291306e-02</internalNodes>
          <leafValues>
            -6.0874640941619873e-01 5.7404074817895889e-02</leafValues></_>
        <_>
          <internalNodes>
            0 -1 91 3.9744726382195950e-03</internalNodes>
          <leafValues>
            -1.1567407101392746e-01 2.9112815856933594e-01</leafValues></_>
        <_>
          <internalNodes>
            0 -1 486 -1.9211799371987581e-04</internalNodes>
          <leafValues>
            1.6398572921752930e-01 -1.8443323671817780e-01</leafValues></_>
        <_>
          <internalNodes>
            0 -1 506 -4.9226470291614532e-03</internalNodes>
          <leafValues>
            -1.8994791805744171e-01 1.7485497891902924e-01</leafValues></_>
        <_>
          <internalNodes>
            0 -1 453 -1.1957217939198017e-03</internalNodes>
          <leafValues>
            3.0968499183654785e-01 -9.9405080080032349e-02</leafValues></_>
        <_>
          <internalNodes>
            0 -1 149 -3.5718341823667288e-03</internalNodes>
          <leafValues>
            3.8190463185310364e-01 -7.7209375798702240e-02</leafValues></_>
        <_>
          <internalNodes>
            0 -1 495 -4.2288848198950291e-03</internalNodes>
          <leafValues>
            -7.2047650814056396e-01 4.6045277267694473e-02</leafValues></_>
        <_>
          <internalNodes>
            0 -1 295 -1.5530938981100917e-03</internalNodes>
          <leafValues>
            3.2599806785583496e-01 -9.1162361204624176e-02</leafValues></_>
        <_>
          <internalNodes>
            0 -1 730 1.8935444531962276e-03</internalNodes>
          <leafValues>
            5.1016584038734436e-02 -5.9427726268768311e-01</leafValues></_>
        <_>
          <internalNodes>
            0 -1 513 7.5317742303013802e-03</internalNodes>
          <leafValues>
            -9.1850973665714264e-02 3.3027571439743042e-01</leafValues></_>
        <_>
          <internalNodes>
            0 -1 561 -1.9559456268325448e-04</internalNodes>
          <leafValues>
            2.0461381971836090e-01 -1.5553286671638489e-01</leafValues></_>
        <_>
          <internalNodes>
            0 -1 425 -2.1811043843626976e-03</internalNodes>
          <leafValues>
            -8.5320013761520386e-01 3.0949471518397331e-02</leafValues></_>
        <_>
          <internalNodes>
            0 -1 204 9.6832513809204102e-03</internalNodes>
          <leafValues>
            4.5589365065097809e-02 -5.0213420391082764e-01</leafValues></_>
        <_>
          <internalNodes>
            0 -1 102 6.6921790130436420e-03</internalNodes>
          <leafValues>
            -9.4103902578353882e-02 3.0087554454803467e-01</leafValues></_>
        <_>
          <internalNodes>
            0 -1 107 7.3327645659446716e-02</internalNodes>
          <leafValues>
            -6.1416294425725937e-02 4.3588256835937500e-01</leafValues></_>
        <_>
          <internalNodes>
            0 -1 73 1.3498536311089993e-02</internalNodes>
          <leafValues>
            -1.9023258984088898e-01 1.6271111369132996e-01</leafValues></_>
        <_>
          <internalNodes>
            0 -1 467 1.8335070926696062e-03</internalNodes>
          <leafValues>
            5.4633606225252151e-02 -4.9933397769927979e-01</leafValues></_>
        <_>
          <internalNodes>
            0 -1 81 -4.1004302329383790e-04</internalNodes>
          <leafValues>
            2.6009121537208557e-01 -1.1696451157331467e-01</leafValues></_>
        <_>
          <internalNodes>
            0 -1 63 6.1170742847025394e-03</internalNodes>
          <leafValues>
            -2.9166948795318604e-01 1.0271140187978745e-01</leafValues></_>
        <_>
          <internalNodes>
            0 -1 145 -3.9366493001580238e-03</internalNodes>
          <leafValues>
            2.6401066780090332e-01 -1.1704976856708527e-01</leafValues></_>
        <_>
          <internalNodes>
            0 -1 663 -7.8988578170537949e-03</internalNodes>
          <leafValues>
            4.4600385427474976e-01 -5.8951433748006821e-02</leafValues></_>
        <_>
          <internalNodes>
            0 -1 667 2.0679663866758347e-03</internalNodes>
          <leafValues>
            -1.1625884473323822e-01 2.3379455506801605e-01</leafValues></_>
        <_>
          <internalNodes>
            0 -1 50 1.2890401482582092e-01</internalNodes>
          <leafValues>
            3.6088973283767700e-02 -8.0934119224548340e-01</leafValues></_>
        <_>
          <internalNodes>
            0 -1 116 -1.2360952678136528e-04</internalNodes>
          <leafValues>
            2.2517429292201996e-01 -1.2054736167192459e-01</leafValues></_>
        <_>
          <internalNodes>
            0 -1 639 6.5622985130175948e-04</internalNodes>
          <leafValues>
            8.8831923902034760e-02 -3.0686044692993164e-01</leafValues></_>
        <_>
          <internalNodes>
            0 -1 157 -1.4416044577956200e-03</internalNodes>
          <leafValues>
            2.3772372305393219e-01 -1.1464530229568481e-01</leafValues></_>
        <_>
          <internalNodes>
            0 -1 139 -1.8189534312114120e-03</internalNodes>
          <leafValues>
            -4.6924579143524170e-01 5.2573602646589279e-02</leafValues></_>
        <_>
          <internalNodes>
            0 -1 417 -1.9826074130833149e-03</internalNodes>
          <leafValues>
            2.6089621707797050e-02 -8.3277410268783569e-01</leafValues></_>
        <_>
          <internalNodes>
            0 -1 321 -9.0898061171174049e-04</internalNodes>
          <leafValues>
            3.1388178467750549e-01 -8.5415489971637726e-02</leafValues></_>
        <_>
          <internalNodes>
            0 -1 349 1.6417774558067322e-01</internalNodes>
          <leafValues>
            -3.5710845142602921e-02 7.2368669509887695e-01</leafValues></_>
        <_>
          <internalNodes>
            0 -1 539 -6.6277163568884134e-05</internalNodes>
          <leafValues>
            1.4406451582908630e-01 -1.9013801217079163e-01</leafValues></_>
        <_>
          <internalNodes>
            0 -1 434 -3.1307771801948547e-02</internalNodes>
          <leafValues>
            -6.4578318595886230e-01 3.9872866123914719e-02</leafValues></_>
        <_>
          <internalNodes>
            0 -1 731 -1.5612669521942735e-03</internalNodes>
          <leafValues>
            -6.8386685848236084e-01 3.3827286213636398e-02</leafValues></_>
        <_>
          <internalNodes>
            0 -1 247 -6.9607850164175034e-03</internalNodes>
          <leafValues>
            -4.4423040747642517e-01 5.3817570209503174e-02</leafValues></_>
        <_>
          <internalNodes>
            0 -1 576 9.1927703469991684e-03</internalNodes>
          <leafValues>
            7.2505235671997070e-02 -3.3880171179771423e-01</leafValues></_>
        <_>
          <internalNodes>
            0 -1 361 -1.6104929149150848e-02</internalNodes>
          <leafValues>
            2.5695115327835083e-01 -1.0425180196762085e-01</leafValues></_>
        <_>
          <internalNodes>
            0 -1 253 1.8685944378376007e-03</internalNodes>
          <leafValues>
            -1.5821686387062073e-01 2.1840089559555054e-01</leafValues></_>
        <_>
          <internalNodes>
            0 -1 427 2.7350706979632378e-02</internalNodes>
          <leafValues>
            4.3539814651012421e-02 -7.5222444534301758e-01</leafValues></_></weakClassifiers></_>
    <!-- stage 11 -->
    <_>
      <maxWeakCount>69</maxWeakCount>
      <stageThreshold>-1.1971713304519653e+00</stageThreshold>
      <weakClassifiers>
        <_>
          <internalNodes>
            0 -1 398 -2.3352732881903648e-02</internalNodes>
          <leafValues>
            4.8598656058311462e-01 -3.1921944022178650e-01</leafValues></_>
        <_>
          <internalNodes>
            0 -1 534 -5.9577468782663345e-03</internalNodes>
          <leafValues>
            2.8290125727653503e-01 -3.4621986746788025e-01</leafValues></_>
        <_>
          <internalNodes>
            0 -1 687 5.4880687966942787e-03</internalNodes>
          <leafValues>
            -1.5438757836818695e-01 5.1393890380859375e-01</leafValues></_>
        <_>
          <internalNodes>
            0 -1 648 1.2363166548311710e-02</internalNodes>
          <leafValues>
            -2.7695500850677490e-01 1.7908716201782227e-01</leafValues></_>
        <_>
          <internalNodes>
            0 -1 562 -1.3765848707407713e-03</internalNodes>
          <leafValues>
            3.4972113370895386e-01 -1.1871533095836639e-01</leafValues></_>
        <_>
          <internalNodes>
            0 -1 228 7.7400808222591877e-03</internalNodes>
          <leafValues>
            9.1122694313526154e-02 -4.6468794345855713e-01</leafValues></_>
        <_>
          <internalNodes>
            0 -1 221 -1.0370366275310516e-02</internalNodes>
          <leafValues>
            -6.4059126377105713e-01 6.4353488385677338e-02</leafValues></_>
        <_>
          <internalNodes>
            0 -1 583 3.7335623055696487e-03</internalNodes>
          <leafValues>
            -6.0657404363155365e-02 6.0358446836471558e-01</leafValues></_>
        <_>
          <internalNodes>
            0 -1 610 1.6642268747091293e-03</internalNodes>
          <leafValues>
            -9.5384284853935242e-02 4.1763487458229065e-01</leafValues></_>
        <_>
          <internalNodes>
            0 -1 613 -2.6716932188719511e-03</internalNodes>
          <leafValues>
            4.0063723921775818e-01 -9.1523878276348114e-02</leafValues></_>
        <_>
          <internalNodes>
            0 -1 531 -1.9719691481441259e-03</internalNodes>
          <leafValues>
            -4.5766672492027283e-01 1.0495489090681076e-01</leafValues></_>
        <_>
          <internalNodes>
            0 -1 147 -1.1336976895108819e-03</internalNodes>
          <leafValues>
            1.4089095592498779e-01 -2.6569199562072754e-01</leafValues></_>
        <_>
          <internalNodes>
            0 -1 491 4.0851999074220657e-04</internalNodes>
          <leafValues>
            -1.8862982094287872e-01 2.0087617635726929e-01</leafValues></_>
        <_>
          <internalNodes>
            0 -1 124 8.5486054420471191e-02</internalNodes>
          <leafValues>
            4.1367739439010620e-02 -8.3328753709793091e-01</leafValues></_>
        <_>
          <internalNodes>
            0 -1 314 -3.3928367774933577e-03</internalNodes>
          <leafValues>
            2.7097868919372559e-01 -1.3470049202442169e-01</leafValues></_>
        <_>
          <internalNodes>
            0 -1 49 4.3878391385078430e-02</internalNodes>
          <leafValues>
            -2.3647856712341309e-01 1.6673177480697632e-01</leafValues></_>
        <_>
          <internalNodes>
            0 -1 306 1.0229288600385189e-02</internalNodes>
          <leafValues>
            6.7130655050277710e-02 -5.8428806066513062e-01</leafValues></_>
        <_>
          <internalNodes>
            0 -1 366 1.4742640778422356e-03</internalNodes>
          <leafValues>
            -1.4894179999828339e-01 2.4360485374927521e-01</leafValues></_>
        <_>
          <internalNodes>
            0 -1 475 -4.7226641327142715e-03</internalNodes>
          <leafValues>
            -6.3971942663192749e-01 5.5891390889883041e-02</leafValues></_>
        <_>
          <internalNodes>
            0 -1 578 -2.5344206020236015e-02</internalNodes>
          <leafValues>
            -5.4836750030517578e-01 5.5091705173254013e-02</leafValues></_>
        <_>
          <internalNodes>
            0 -1 44 -2.1054204553365707e-02</internalNodes>
          <leafValues>
            4.4619181752204895e-01 -7.6646558940410614e-02</leafValues></_>
        <_>
          <internalNodes>
            0 -1 261 -1.0737158590927720e-03</internalNodes>
          <leafValues>
            3.6911281943321228e-01 -8.4721758961677551e-02</leafValues></_>
        <_>
          <internalNodes>
            0 -1 479 -1.9883925560861826e-03</internalNodes>
          <leafValues>
            5.2549183368682861e-01 -5.8628186583518982e-02</leafValues></_>
        <_>
          <internalNodes>
            0 -1 535 4.3966203520540148e-05</internalNodes>
          <leafValues>
            1.1905296146869659e-01 -2.7131813764572144e-01</leafValues></_>
        <_>
          <internalNodes>
            0 -1 131 -1.2534701265394688e-02</internalNodes>
          <leafValues>
            5.9173560142517090e-01 -5.8130327612161636e-02</leafValues></_>
        <_>
          <internalNodes>
            0 -1 712 1.7167797777801752e-03</internalNodes>
          <leafValues>
            4.3682232499122620e-02 -7.6885271072387695e-01</leafValues></_>
        <_>
          <internalNodes>
            0 -1 272 -6.9663440808653831e-04</internalNodes>
          <leafValues>
            2.3869740962982178e-01 -1.3676984608173370e-01</leafValues></_>
        <_>
          <internalNodes>
            0 -1 645 -9.2732626944780350e-03</internalNodes>
          <leafValues>
            2.6460388302803040e-01 -1.1608833074569702e-01</leafValues></_>
        <_>
          <internalNodes>
            0 -1 725 2.9960609972476959e-03</internalNodes>
          <leafValues>
            3.9136163890361786e-02 -7.8919571638107300e-01</leafValues></_>
        <_>
          <internalNodes>
            0 -1 148 3.7783430889248848e-03</internalNodes>
          <leafValues>
            -6.9361746311187744e-02 4.8039180040359497e-01</leafValues></_>
        <_>
          <internalNodes>
            0 -1 688 8.4846798563376069e-04</internalNodes>
          <leafValues>
            6.5920278429985046e-02 -5.1222825050354004e-01</leafValues></_>
        <_>
          <internalNodes>
            0 -1 240 2.6840656064450741e-03</internalNodes>
          <leafValues>
            -8.3884671330451965e-02 3.7344574928283691e-01</leafValues></_>
        <_>
          <internalNodes>
            0 -1 90 9.0110227465629578e-03</internalNodes>
          <leafValues>
            3.6354988813400269e-02 -8.9891463518142700e-01</leafValues></_>
        <_>
          <internalNodes>
            0 -1 251 3.7908898666501045e-03</internalNodes>
          <leafValues>
            -1.1755819618701935e-01 2.5372329354286194e-01</leafValues></_>
        <_>
          <internalNodes>
            0 -1 471 -5.5366847664117813e-03</internalNodes>
          <leafValues>
            1.4048279821872711e-01 -2.0334415137767792e-01</leafValues></_>
        <_>
          <internalNodes>
            0 -1 77 -9.3606933951377869e-03</internalNodes>
          <leafValues>
            -3.9542725682258606e-01 7.1416519582271576e-02</leafValues></_>
        <_>
          <internalNodes>
            0 -1 115 -9.4013195484876633e-03</internalNodes>
          <leafValues>
            -6.8914091587066650e-01 4.2572658509016037e-02</leafValues></_>
        <_>
          <internalNodes>
            0 -1 309 1.7066225409507751e-03</internalNodes>
          <leafValues>
            4.0905907750129700e-02 -6.1890900135040283e-01</leafValues></_>
        <_>
          <internalNodes>
            0 -1 379 -1.0075502097606659e-02</internalNodes>
          <leafValues>
            -9.2686587572097778e-01 2.6768289506435394e-02</leafValues></_>
        <_>
          <internalNodes>
            0 -1 565 5.2098622545599937e-03</internalNodes>
          <leafValues>
            -8.1121109426021576e-02 3.9896467328071594e-01</leafValues></_>
        <_>
          <internalNodes>
            0 -1 299 1.3433706946671009e-02</internalNodes>
          <leafValues>
            -1.2710170447826385e-01 2.1803499758243561e-01</leafValues></_>
        <_>
          <internalNodes>
            0 -1 132 -1.5978841111063957e-02</internalNodes>
          <leafValues>
            1.8692156672477722e-01 -1.4932133257389069e-01</leafValues></_>
        <_>
          <internalNodes>
            0 -1 599 1.5092762187123299e-03</internalNodes>
          <leafValues>
            -8.5137285292148590e-02 3.6135992407798767e-01</leafValues></_>
        <_>
          <internalNodes>
            0 -1 584 6.9062588736414909e-03</internalNodes>
          <leafValues>
            7.3645181953907013e-02 -3.9352041482925415e-01</leafValues></_>
        <_>
          <internalNodes>
            0 -1 636 9.8264706321060658e-04</internalNodes>
          <leafValues>
            -1.1717519164085388e-01 2.6198452711105347e-01</leafValues></_>
        <_>
          <internalNodes>
            0 -1 492 2.3196917027235031e-03</internalNodes>
          <leafValues>
            4.9937710165977478e-02 -6.0674399137496948e-01</leafValues></_>
        <_>
          <internalNodes>
            0 -1 96 1.1078160256147385e-01</internalNodes>
          <leafValues>
            -5.0685837864875793e-02 6.3504618406295776e-01</leafValues></_>
        <_>
          <internalNodes>
            0 -1 325 1.8817825242877007e-02</internalNodes>
          <leafValues>
            -7.2160616517066956e-02 3.5631904006004333e-01</leafValues></_>
        <_>
          <internalNodes>
            0 -1 155 3.9234599098563194e-03</internalNodes>
          <leafValues>
            -1.2585689127445221e-01 2.3266397416591644e-01</leafValues></_>
        <_>
          <internalNodes>
            0 -1 564 -3.0336154159158468e-03</internalNodes>
          <leafValues>
            -5.4807192087173462e-01 5.0158157944679260e-02</leafValues></_>
        <_>
          <internalNodes>
            0 -1 14 7.9042173456400633e-04</internalNodes>
          <leafValues>
            5.8134064078330994e-02 -4.3128132820129395e-01</leafValues></_>
        <_>
          <internalNodes>
            0 -1 536 2.4356420617550611e-03</internalNodes>
          <leafValues>
            -1.1819173395633698e-01 2.2486226260662079e-01</leafValues></_>
        <_>
          <internalNodes>
            0 -1 560 -1.0976090561598539e-03</internalNodes>
          <leafValues>
            2.8823176026344299e-01 -1.0501453280448914e-01</leafValues></_>
        <_>
          <internalNodes>
            0 -1 545 5.8949819504050538e-05</internalNodes>
          <leafValues>
            9.7749724984169006e-02 -2.9981687664985657e-01</leafValues></_>
        <_>
          <internalNodes>
            0 -1 500 -1.3006572844460607e-03</internalNodes>
          <leafValues>
            -4.5851927995681763e-01 5.5320575833320618e-02</leafValues></_>
        <_>
          <internalNodes>
            0 -1 206 -7.7870525419712067e-03</internalNodes>
          <leafValues>
            -5.6673890352249146e-01 4.5102130621671677e-02</leafValues></_>
        <_>
          <internalNodes>
            0 -1 234 -6.2210159376263618e-04</internalNodes>
          <leafValues>
            2.8415611386299133e-01 -1.0059782862663269e-01</leafValues></_>
        <_>
          <internalNodes>
            0 -1 704 1.3044512830674648e-02</internalNodes>
          <leafValues>
            3.7240866571664810e-02 -7.3763227462768555e-01</leafValues></_>
        <_>
          <internalNodes>
            0 -1 573 1.8763586413115263e-03</internalNodes>
          <leafValues>
            8.4620051085948944e-02 -2.9518142342567444e-01</leafValues></_>
        <_>
          <internalNodes>
            0 -1 638 4.2588985525071621e-04</internalNodes>
          <leafValues>
            -1.2522971630096436e-01 2.0255175232887268e-01</leafValues></_>
        <_>
          <internalNodes>
            0 -1 171 2.8998318593949080e-03</internalNodes>
          <leafValues>
            5.2454452961683273e-02 -4.8616769909858704e-01</leafValues></_>
        <_>
          <internalNodes>
            0 -1 245 -1.5981306787580252e-03</internalNodes>
          <leafValues>
            2.8062063455581665e-01 -9.1359600424766541e-02</leafValues></_>
        <_>
          <internalNodes>
            0 -1 407 1.9712834618985653e-03</internalNodes>
          <leafValues>
            4.2211215943098068e-02 -6.3766247034072876e-01</leafValues></_>
        <_>
          <internalNodes>
            0 -1 358 -6.7226011306047440e-03</internalNodes>
          <leafValues>
            -3.6193278431892395e-01 6.7391410470008850e-02</leafValues></_>
        <_>
          <internalNodes>
            0 -1 326 -9.6603166311979294e-03</internalNodes>
          <leafValues>
            2.1893072128295898e-01 -1.2207142263650894e-01</leafValues></_>
        <_>
          <internalNodes>
            0 -1 201 2.7107244357466698e-02</internalNodes>
          <leafValues>
            -5.8905936777591705e-02 4.8946291208267212e-01</leafValues></_>
        <_>
          <internalNodes>
            0 -1 588 -1.1723896022886038e-03</internalNodes>
          <leafValues>
            1.2329663336277008e-01 -2.2932150959968567e-01</leafValues></_>
        <_>
          <internalNodes>
            0 -1 622 9.3721493612974882e-04</internalNodes>
          <leafValues>
            -1.1395784467458725e-01 2.9222714900970459e-01</leafValues></_>
        <_>
          <internalNodes>
            0 -1 698 5.3131680033402517e-05</internalNodes>
          <leafValues>
            -1.4323116838932037e-01 1.9972753524780273e-01</leafValues></_></weakClassifiers></_>
    <!-- stage 12 -->
    <_>
      <maxWeakCount>71</maxWeakCount>
      <stageThreshold>-1.0784844160079956e+00</stageThreshold>
      <weakClassifiers>
        <_>
          <internalNodes>
            0 -1 341 2.1227668970823288e-02</internalNodes>
          <leafValues>
            -3.7280416488647461e-01 3.9166095852851868e-01</leafValues></_>
        <_>
          <internalNodes>
            0 -1 26 1.9896456971764565e-02</internalNodes>
          <leafValues>
            -2.2906646132469177e-01 4.3588206171989441e-01</leafValues></_>
        <_>
          <internalNodes>
            0 -1 707 -1.5837281942367554e-02</internalNodes>
          <leafValues>
            3.5696154832839966e-01 -2.0587497949600220e-01</leafValues></_>
        <_>
          <internalNodes>
            0 -1 489 -6.0626082122325897e-03</internalNodes>
          <leafValues>
