<?xml version="1.0"?>
<opencv_storage>
<cascade>
  <stageType>BOOST</stageType>
  <featureType>HAAR</featureType>
  <height>30</height>
  <width>50</width>
  <stageParams>
    <boostType>GAB</boostType>
    <minHitRate>9.9500000476837158e-01</minHitRate>
    <maxFalseAlarm>3.0000001192092896e-01</maxFalseAlarm>
    <weightTrimRate>9.4999999999999996e-01</weightTrimRate>
    <maxDepth>1</maxDepth>
    <maxWeakCount>100</maxWeakCount></stageParams>
  <featureParams>
    <maxCatCount>0</maxCatCount>
    <featSize>1</featSize>
    <mode>BASIC</mode></featureParams>
  <stageNum>10</stageNum>
  <stages>
    <!-- stage 0 -->
    <_>
      <maxWeakCount>13</maxWeakCount>
      <stageThreshold>-1.6279392242431641e+00</stageThreshold>
      <weakClassifiers>
        <_>
          <internalNodes>
            0 -1 23 2.9509812593460083e-03</internalNodes>
          <leafValues>
            -5.2241027355194092e-01 7.7532434463500977e-01</leafValues></_>
        <_>
          <internalNodes>
            0 -1 134 -1.7982376739382744e-02</internalNodes>
          <leafValues>
            7.9009419679641724e-01 -3.2435163855552673e-01</leafValues></_>
        <_>
          <internalNodes>
            0 -1 97 4.3229736387729645e-02</internalNodes>
          <leafValues>
            -2.8433513641357422e-01 7.4311399459838867e-01</leafValues></_>
        <_>
          <internalNodes>
            0 -1 182 -2.3717988282442093e-02</internalNodes>
          <leafValues>
            -8.2013273239135742e-01 2.6943615078926086e-01</leafValues></_>
        <_>
          <internalNodes>
            0 -1 327 -8.1320535391569138e-03</internalNodes>
          <leafValues>
            7.4349194765090942e-01 -2.7212977409362793e-01</leafValues></_>
        <_>
          <internalNodes>
            0 -1 236 3.6243465729057789e-03</internalNodes>
          <leafValues>
            -1.9870655238628387e-01 7.5920569896697998e-01</leafValues></_>
        <_>
          <internalNodes>
            0 -1 27 8.8679818436503410e-03</internalNodes>
          <leafValues>
            2.6395970582962036e-01 -6.7523622512817383e-01</leafValues></_>
        <_>
          <internalNodes>
            0 -1 191 6.1921454034745693e-03</internalNodes>
          <leafValues>
            -2.7816942334175110e-01 6.3403171300888062e-01</leafValues></_>
        <_>
          <internalNodes>
            0 -1 14 -3.1684741377830505e-02</internalNodes>
          <leafValues>
            -6.6710573434829712e-01 2.2112964093685150e-01</leafValues></_>
        <_>
          <internalNodes>
            0 -1 113 3.1915863510221243e-03</internalNodes>
          <leafValues>
            -2.1008951961994171e-01 5.9778892993927002e-01</leafValues></_>
        <_>
          <internalNodes>
            0 -1 230 -8.8328984566032887e-04</internalNodes>
          <leafValues>
            6.4327949285507202e-01 -1.5067614614963531e-01</leafValues></_>
        <_>
          <internalNodes>
            0 -1 228 -9.6200425177812576e-03</internalNodes>
          <leafValues>
            5.2551645040512085e-01 -1.7029002308845520e-01</leafValues></_>
        <_>
          <internalNodes>
            0 -1 156 -1.8902085721492767e-03</internalNodes>
          <leafValues>
            6.4041614532470703e-01 -1.4655615389347076e-01</leafValues></_></weakClassifiers></_>
    <!-- stage 1 -->
    <_>
      <maxWeakCount>16</maxWeakCount>
      <stageThreshold>-1.4249986410140991e+00</stageThreshold>
      <weakClassifiers>
        <_>
          <internalNodes>
            0 -1 8 3.5694956779479980e-02</internalNodes>
          <leafValues>
            -5.5127686262130737e-01 6.6896212100982666e-01</leafValues></_>
        <_>
          <internalNodes>
            0 -1 272 -3.0256615951657295e-02</internalNodes>
          <leafValues>
            5.7352834939956665e-01 -4.3943557143211365e-01</leafValues></_>
        <_>
          <internalNodes>
            0 -1 42 1.5125842764973640e-02</internalNodes>
          <leafValues>
            -4.6812039613723755e-01 4.9673110246658325e-01</leafValues></_>
        <_>
          <internalNodes>
            0 -1 146 1.7314705997705460e-02</internalNodes>
          <leafValues>
            -2.4995695054531097e-01 7.0525139570236206e-01</leafValues></_>
        <_>
          <internalNodes>
            0 -1 108 -2.1852092444896698e-01</internalNodes>
          <leafValues>
            -5.1484084129333496e-01 2.7058413624763489e-01</leafValues></_>
        <_>
          <internalNodes>
            0 -1 123 1.3445500284433365e-02</internalNodes>
          <leafValues>
            -1.7998114228248596e-01 7.0591413974761963e-01</leafValues></_>
        <_>
          <internalNodes>
            0 -1 239 -4.4869505800306797e-03</internalNodes>
          <leafValues>
            3.8090205192565918e-01 -3.5857775807380676e-01</leafValues></_>
        <_>
          <internalNodes>
            0 -1 20 4.1592091321945190e-02</internalNodes>
          <leafValues>
            -1.8496939539909363e-01 6.2399977445602417e-01</leafValues></_>
        <_>
          <internalNodes>
            0 -1 188 -1.4644525945186615e-02</internalNodes>
          <leafValues>
            -5.8946418762207031e-01 2.1568825840950012e-01</leafValues></_>
        <_>
          <internalNodes>
            0 -1 220 5.6108492426574230e-03</internalNodes>
          <leafValues>
            -1.5058028697967529e-01 7.7237075567245483e-01</leafValues></_>
        <_>
          <internalNodes>
            0 -1 329 -8.2681346684694290e-03</internalNodes>
          <leafValues>
            6.4001435041427612e-01 -1.5208962559700012e-01</leafValues></_>
        <_>
          <internalNodes>
            0 -1 288 2.5371782481670380e-02</internalNodes>
          <leafValues>
            -2.8472009301185608e-01 3.4816116094589233e-01</leafValues></_>
        <_>
          <internalNodes>
            0 -1 41 1.2913722312077880e-03</internalNodes>
          <leafValues>
            2.2238411009311676e-01 -4.4831752777099609e-01</leafValues></_>
        <_>
          <internalNodes>
            0 -1 195 7.7111972495913506e-04</internalNodes>
          <leafValues>
            2.1896995604038239e-01 -4.3884715437889099e-01</leafValues></_>
        <_>
          <internalNodes>
            0 -1 196 -7.9104946926236153e-03</internalNodes>
          <leafValues>
            6.6766655445098877e-01 -1.3253517448902130e-01</leafValues></_>
        <_>
          <internalNodes>
            0 -1 208 9.9308164790272713e-03</internalNodes>
          <leafValues>
            -1.2741294503211975e-01 6.4245045185089111e-01</leafValues></_></weakClassifiers></_>
    <!-- stage 2 -->
    <_>
      <maxWeakCount>17</maxWeakCount>
      <stageThreshold>-1.2938127517700195e+00</stageThreshold>
      <weakClassifiers>
        <_>
          <internalNodes>
            0 -1 149 -4.0060818195343018e-02</internalNodes>
          <leafValues>
            8.0388587713241577e-01 -4.6407291293144226e-01</leafValues></_>
        <_>
          <internalNodes>
            0 -1 64 1.2041479349136353e-02</internalNodes>
          <leafValues>
            -4.6074628829956055e-01 5.1314425468444824e-01</leafValues></_>
        <_>
          <internalNodes>
            0 -1 226 -4.3766960501670837e-02</internalNodes>
          <leafValues>
            -9.8122501373291016e-01 2.0594340562820435e-01</leafValues></_>
        <_>
          <internalNodes>
            0 -1 216 1.1476552113890648e-02</internalNodes>
          <leafValues>
            -4.7389358282089233e-01 3.4863016009330750e-01</leafValues></_>
        <_>
          <internalNodes>
            0 -1 115 -3.2126851379871368e-02</internalNodes>
          <leafValues>
            7.1426951885223389e-01 -2.0134472846984863e-01</leafValues></_>
        <_>
          <internalNodes>
            0 -1 16 5.3292244672775269e-02</internalNodes>
          <leafValues>
            -3.0038660764694214e-01 3.8029673695564270e-01</leafValues></_>
        <_>
          <internalNodes>
            0 -1 274 -1.0773258982226253e-03</internalNodes>
          <leafValues>
            2.7434763312339783e-01 -3.5510286688804626e-01</leafValues></_>
        <_>
          <internalNodes>
            0 -1 212 6.3537335954606533e-03</internalNodes>
          <leafValues>
            -2.2621351480484009e-01 4.6749702095985413e-01</leafValues></_>
        <_>
          <internalNodes>
            0 -1 65 1.3146447017788887e-02</internalNodes>
          <leafValues>
            -1.1945643275976181e-01 6.0560673475265503e-01</leafValues></_>
        <_>
          <internalNodes>
            0 -1 205 7.2470121085643768e-03</internalNodes>
          <leafValues>
            -1.8399469554424286e-01 5.0024586915969849e-01</leafValues></_>
        <_>
          <internalNodes>
            0 -1 184 1.1654220521450043e-01</internalNodes>
          <leafValues>
            -2.0073767006397247e-01 4.4682791829109192e-01</leafValues></_>
        <_>
          <internalNodes>
            0 -1 229 -1.1247752809140366e-05</internalNodes>
          <leafValues>
            2.8361931443214417e-01 -3.3351966738700867e-01</leafValues></_>
        <_>
          <internalNodes>
            0 -1 251 -1.2818304821848869e-02</internalNodes>
          <leafValues>
            -9.5043027400970459e-01 8.8680528104305267e-02</leafValues></_>
        <_>
          <internalNodes>
            0 -1 209 -3.6677138414233923e-03</internalNodes>
          <leafValues>
            3.4843108057975769e-01 -2.3880480229854584e-01</leafValues></_>
        <_>
          <internalNodes>
            0 -1 136 -7.1531599387526512e-03</internalNodes>
          <leafValues>
            5.3405040502548218e-01 -1.5485745668411255e-01</leafValues></_>
        <_>
          <internalNodes>
            0 -1 164 -1.2667369097471237e-02</internalNodes>
          <leafValues>
            6.2808090448379517e-01 -1.1548976600170135e-01</leafValues></_>
        <_>
          <internalNodes>
            0 -1 179 5.8624055236577988e-03</internalNodes>
          <leafValues>
            -2.6223593950271606e-01 2.9479646682739258e-01</leafValues></_></weakClassifiers></_>
    <!-- stage 3 -->
    <_>
      <maxWeakCount>24</maxWeakCount>
      <stageThreshold>-1.4200071096420288e+00</stageThreshold>
      <weakClassifiers>
        <_>
          <internalNodes>
            0 -1 89 -6.0321245342493057e-02</internalNodes>
          <leafValues>
            8.3666664361953735e-01 -4.1833332180976868e-01</leafValues></_>
        <_>
          <internalNodes>
            0 -1 12 3.3955574035644531e-02</internalNodes>
          <leafValues>
            -2.8086152672767639e-01 6.7241650819778442e-01</leafValues></_>
        <_>
          <internalNodes>
            0 -1 94 -4.0253259241580963e-02</internalNodes>
          <leafValues>
            7.4790376424789429e-01 -1.8548764288425446e-01</leafValues></_>
        <_>
          <internalNodes>
            0 -1 46 9.8694086074829102e-02</internalNodes>
          <leafValues>
            -3.2816305756568909e-01 4.7343063354492188e-01</leafValues></_>
        <_>
          <internalNodes>
            0 -1 117 -6.4188435673713684e-02</internalNodes>
          <leafValues>
            -4.2844241857528687e-01 2.4715869128704071e-01</leafValues></_>
        <_>
          <internalNodes>
            0 -1 72 3.0425386503338814e-02</internalNodes>
          <leafValues>
            -1.7147384583950043e-01 6.8107432126998901e-01</leafValues></_>
        <_>
          <internalNodes>
            0 -1 202 -8.0702118575572968e-03</internalNodes>
          <leafValues>
            -6.0728770494461060e-01 1.6954042017459869e-01</leafValues></_>
        <_>
          <internalNodes>
            0 -1 69 6.1242161318659782e-03</internalNodes>
          <leafValues>
            -1.5969842672348022e-01 5.7736051082611084e-01</leafValues></_>
        <_>
          <internalNodes>
            0 -1 325 -2.5819245725870132e-02</internalNodes>
          <leafValues>
            6.3413655757904053e-01 -1.1099255830049515e-01</leafValues></_>
        <_>
          <internalNodes>
            0 -1 148 6.2126265838742256e-03</internalNodes>
          <leafValues>
            -1.1700481176376343e-01 6.7182528972625732e-01</leafValues></_>
        <_>
          <internalNodes>
            0 -1 144 1.3933109119534492e-02</internalNodes>
          <leafValues>
            -9.5444679260253906e-02 7.3500829935073853e-01</leafValues></_>
        <_>
          <internalNodes>
            0 -1 201 1.1787249706685543e-02</internalNodes>
          <leafValues>
            1.2452108412981033e-01 -6.7056256532669067e-01</leafValues></_>
        <_>
          <internalNodes>
            0 -1 270 -4.5530218631029129e-03</internalNodes>
          <leafValues>
            5.6432807445526123e-01 -1.3719555735588074e-01</leafValues></_>
        <_>
          <internalNodes>
            0 -1 151 9.2091541737318039e-03</internalNodes>
          <leafValues>
            1.1939653754234314e-01 -6.7059940099716187e-01</leafValues></_>
        <_>
          <internalNodes>
            0 -1 326 5.2038151770830154e-03</internalNodes>
          <leafValues>
            -1.4156150817871094e-01 5.3977102041244507e-01</leafValues></_>
        <_>
          <internalNodes>
            0 -1 39 1.4959217980504036e-02</internalNodes>
          <leafValues>
            -3.1789270043373108e-01 2.1565003693103790e-01</leafValues></_>
        <_>
          <internalNodes>
            0 -1 162 5.3732739761471748e-03</internalNodes>
          <leafValues>
            1.4685483276844025e-01 -5.7858586311340332e-01</leafValues></_>
        <_>
          <internalNodes>
            0 -1 294 -8.4707103669643402e-03</internalNodes>
          <leafValues>
            6.4885288476943970e-01 -1.1673314124345779e-01</leafValues></_>
        <_>
          <internalNodes>
            0 -1 98 -6.0801794752478600e-03</internalNodes>
          <leafValues>
            7.9795473814010620e-01 -6.8813413381576538e-02</leafValues></_>
        <_>
          <internalNodes>
            0 -1 248 -1.1507828021422029e-03</internalNodes>
          <leafValues>
            -6.3707154989242554e-01 1.1544719338417053e-01</leafValues></_>
        <_>
          <internalNodes>
            0 -1 172 3.6666756495833397e-03</internalNodes>
          <leafValues>
            -1.0944669693708420e-01 6.5447145700454712e-01</leafValues></_>
        <_>
          <internalNodes>
            0 -1 124 1.5687266364693642e-02</internalNodes>
          <leafValues>
            -7.1580648422241211e-02 7.0261371135711670e-01</leafValues></_>
        <_>
          <internalNodes>
            0 -1 310 -9.1276085004210472e-04</internalNodes>
          <leafValues>
            3.1235691905021667e-01 -2.0234490931034088e-01</leafValues></_>
        <_>
          <internalNodes>
            0 -1 88 1.7810838297009468e-02</internalNodes>
          <leafValues>
            -1.4894331991672516e-01 4.4043257832527161e-01</leafValues></_></weakClassifiers></_>
    <!-- stage 4 -->
    <_>
      <maxWeakCount>29</maxWeakCount>
      <stageThreshold>-1.3952388763427734e+00</stageThreshold>
      <weakClassifiers>
        <_>
          <internalNodes>
            0 -1 104 2.4563424289226532e-02</internalNodes>
          <leafValues>
            -4.8260694742202759e-01 6.0380190610885620e-01</leafValues></_>
        <_>
          <internalNodes>
            0 -1 79 -7.8341290354728699e-02</internalNodes>
          <leafValues>
            7.4247658252716064e-01 -2.5057810544967651e-01</leafValues></_>
        <_>
          <internalNodes>
            0 -1 13 3.4271344542503357e-02</internalNodes>
          <leafValues>
            -2.9624688625335693e-01 4.8873439431190491e-01</leafValues></_>
        <_>
          <internalNodes>
            0 -1 105 -3.7526078522205353e-02</internalNodes>
          <leafValues>
            4.8931798338890076e-01 -2.4867969751358032e-01</leafValues></_>
        <_>
          <internalNodes>
            0 -1 331 -1.0487441718578339e-01</internalNodes>
          <leafValues>
            -3.6806201934814453e-01 3.3146551251411438e-01</leafValues></_>
        <_>
          <internalNodes>
            0 -1 83 2.3298837244510651e-02</internalNodes>
          <leafValues>
            -1.4397536218166351e-01 5.4181826114654541e-01</leafValues></_>
        <_>
          <internalNodes>
            0 -1 322 -2.5727307423949242e-02</internalNodes>
          <leafValues>
            6.1224877834320068e-01 -1.2299302965402603e-01</leafValues></_>
        <_>
          <internalNodes>
            0 -1 238 2.6725486386567354e-03</internalNodes>
          <leafValues>
            1.5692684054374695e-01 -5.4329109191894531e-01</leafValues></_>
        <_>
          <internalNodes>
            0 -1 109 3.7953387945890427e-03</internalNodes>
          <leafValues>
            8.9161902666091919e-02 -6.6043162345886230e-01</leafValues></_>
        <_>
          <internalNodes>
            0 -1 34 3.5482514649629593e-03</internalNodes>
          <leafValues>
            1.1205706745386124e-01 -6.2668883800506592e-01</leafValues></_>
        <_>
          <internalNodes>
            0 -1 252 5.1384759135544300e-03</internalNodes>
          <leafValues>
            -1.8475481867790222e-01 4.0220504999160767e-01</leafValues></_>
        <_>
          <internalNodes>
            0 -1 11 2.4067854508757591e-02</internalNodes>
          <leafValues>
            -9.5921464264392853e-02 6.5250772237777710e-01</leafValues></_>
        <_>
          <internalNodes>
            0 -1 28 -4.4259130954742432e-03</internalNodes>
          <leafValues>
            -6.0132461786270142e-01 1.2006356567144394e-01</leafValues></_>
        <_>
          <internalNodes>
            0 -1 328 1.2451615184545517e-02</internalNodes>
          <leafValues>
            1.0024254024028778e-01 -5.7408130168914795e-01</leafValues></_>
        <_>
          <internalNodes>
            0 -1 141 8.4168128669261932e-03</internalNodes>
          <leafValues>
            -1.0616608709096909e-01 6.3388508558273315e-01</leafValues></_>
        <_>
          <internalNodes>
            0 -1 159 -1.2505905702710152e-02</internalNodes>
          <leafValues>
            5.4599279165267944e-01 -1.1234776675701141e-01</leafValues></_>
        <_>
          <internalNodes>
            0 -1 206 -1.4279723167419434e-02</internalNodes>
          <leafValues>
            7.6663607358932495e-01 -8.5708871483802795e-02</leafValues></_>
        <_>
          <internalNodes>
            0 -1 161 1.0172721929848194e-02</internalNodes>
          <leafValues>
            -1.7746220529079437e-01 3.2294332981109619e-01</leafValues></_>
        <_>
          <internalNodes>
            0 -1 214 -5.5551603436470032e-02</internalNodes>
          <leafValues>
            -9.3251681327819824e-01 6.5789237618446350e-02</leafValues></_>
        <_>
          <internalNodes>
            0 -1 48 3.7841804325580597e-02</internalNodes>
          <leafValues>
            -2.1099483966827393e-01 3.1193664669990540e-01</leafValues></_>
        <_>
          <internalNodes>
            0 -1 154 1.1228662915527821e-03</internalNodes>
          <leafValues>
            -1.2560607492923737e-01 4.6791332960128784e-01</leafValues></_>
        <_>
          <internalNodes>
            0 -1 258 -5.5052246898412704e-03</internalNodes>
          <leafValues>
            -8.5755473375320435e-01 7.0825211703777313e-02</leafValues></_>
        <_>
          <internalNodes>
            0 -1 51 -3.5084215924143791e-03</internalNodes>
          <leafValues>
            4.6427771449089050e-01 -1.3489693403244019e-01</leafValues></_>
        <_>
          <internalNodes>
            0 -1 21 -3.3268602564930916e-03</internalNodes>
          <leafValues>
            -5.8628624677658081e-01 9.2889800667762756e-02</leafValues></_>
        <_>
          <internalNodes>
            0 -1 7 1.0076551698148251e-02</internalNodes>
          <leafValues>
            -1.1122292280197144e-01 4.8441007733345032e-01</leafValues></_>
        <_>
          <internalNodes>
            0 -1 152 1.9790470600128174e-02</internalNodes>
          <leafValues>
            -2.8281247615814209e-01 1.8568773567676544e-01</leafValues></_>
        <_>
          <internalNodes>
            0 -1 233 5.5210981518030167e-03</internalNodes>
          <leafValues>
            7.6722800731658936e-02 -6.7295110225677490e-01</leafValues></_>
        <_>
          <internalNodes>
            0 -1 56 -1.5236470103263855e-01</internalNodes>
          <leafValues>
            -6.5584450960159302e-01 7.2335660457611084e-02</leafValues></_>
        <_>
          <internalNodes>
            0 -1 168 1.2003912124782801e-03</internalNodes>
          <leafValues>
            8.3802819252014160e-02 -5.5969434976577759e-01</leafValues></_></weakClassifiers></_>
    <!-- stage 5 -->
    <_>
      <maxWeakCount>34</maxWeakCount>
      <stageThreshold>-1.2713818550109863e+00</stageThreshold>
      <weakClassifiers>
        <_>
          <internalNodes>
            0 -1 9 1.6332078725099564e-02</internalNodes>
          <leafValues>
            -4.4489139318466187e-01 5.4915589094161987e-01</leafValues></_>
        <_>
          <internalNodes>
            0 -1 316 -2.8658522292971611e-02</internalNodes>
          <leafValues>
            6.0131567716598511e-01 -2.9743164777755737e-01</leafValues></_>
        <_>
          <internalNodes>
            0 -1 178 -1.8404440954327583e-02</internalNodes>
          <leafValues>
            5.6091982126235962e-01 -2.3416014015674591e-01</leafValues></_>
        <_>
          <internalNodes>
            0 -1 303 2.3248859215527773e-03</internalNodes>
          <leafValues>
            -4.2817619442939758e-01 2.3872557282447815e-01</leafValues></_>
        <_>
          <internalNodes>
            0 -1 266 -1.6019001603126526e-02</internalNodes>
          <leafValues>
            4.8979601263999939e-01 -1.6695451736450195e-01</leafValues></_>
        <_>
          <internalNodes>
            0 -1 319 4.7889128327369690e-03</internalNodes>
          <leafValues>
            -1.7476609349250793e-01 5.0308305025100708e-01</leafValues></_>
        <_>
          <internalNodes>
            0 -1 183 -8.5770891746506095e-04</internalNodes>
          <leafValues>
            -5.8750915527343750e-01 1.7250011861324310e-01</leafValues></_>
        <_>
          <internalNodes>
            0 -1 106 -2.4443180300295353e-03</internalNodes>
          <leafValues>
            3.5477888584136963e-01 -2.0314475893974304e-01</leafValues></_>
        <_>
          <internalNodes>
            0 -1 36 1.9881948828697205e-02</internalNodes>
          <leafValues>
            -2.8102830052375793e-01 2.4258209764957428e-01</leafValues></_>
        <_>
          <internalNodes>
            0 -1 77 -3.5018395632505417e-02</internalNodes>
          <leafValues>
            5.9931856393814087e-01 -1.3207601010799408e-01</leafValues></_>
        <_>
          <internalNodes>
            0 -1 66 3.0058071017265320e-02</internalNodes>
          <leafValues>
            -1.1218546330928802e-01 5.1189231872558594e-01</leafValues></_>
        <_>
          <internalNodes>
            0 -1 153 4.1124643757939339e-03</internalNodes>
          <leafValues>
            -1.4339254796504974e-01 4.4559237360954285e-01</leafValues></_>
        <_>
          <internalNodes>
            0 -1 132 1.3389291241765022e-02</internalNodes>
          <leafValues>
            -9.0220585465431213e-02 5.9612917900085449e-01</leafValues></_>
        <_>
          <internalNodes>
            0 -1 250 -6.3285799114964902e-05</internalNodes>
          <leafValues>
            2.1552973985671997e-01 -3.0935096740722656e-01</leafValues></_>
        <_>
          <internalNodes>
            0 -1 43 2.0689996890723705e-03</internalNodes>
          <leafValues>
            7.5765199959278107e-02 -6.7302143573760986e-01</leafValues></_>
        <_>
          <internalNodes>
            0 -1 234 4.2671514675021172e-03</internalNodes>
          <leafValues>
            -1.6512900590896606e-01 3.6506292223930359e-01</leafValues></_>
        <_>
          <internalNodes>
            0 -1 24 1.7997168470174074e-03</internalNodes>
          <leafValues>
            8.8634014129638672e-02 -6.4757382869720459e-01</leafValues></_>
        <_>
          <internalNodes>
            0 -1 221 -2.3401148617267609e-02</internalNodes>
          <leafValues>
            -6.6314923763275146e-01 7.2511926293373108e-02</leafValues></_>
        <_>
          <internalNodes>
            0 -1 25 -2.2884651552885771e-03</internalNodes>
          <leafValues>
            -7.1767735481262207e-01 6.4190223813056946e-02</leafValues></_>
        <_>
          <internalNodes>
            0 -1 99 2.1959068253636360e-03</internalNodes>
          <leafValues>
            -1.2674079835414886e-01 4.4118434190750122e-01</leafValues></_>
        <_>
          <internalNodes>
            0 -1 101 -1.1451952159404755e-03</internalNodes>
          <leafValues>
            4.1887387633323669e-01 -1.3034990429878235e-01</leafValues></_>
        <_>
          <internalNodes>
            0 -1 181 -2.1892718970775604e-02</internalNodes>
          <leafValues>
            5.1869750022888184e-01 -9.8681643605232239e-02</leafValues></_>
        <_>
          <internalNodes>
            0 -1 44 -6.9676444400101900e-04</internalNodes>
          <leafValues>
            -5.1598006486892700e-01 9.8048761487007141e-02</leafValues></_>
        <_>
          <internalNodes>
            0 -1 81 -3.8269222714006901e-03</internalNodes>
          <leafValues>
            -6.6494059562683105e-01 7.5587227940559387e-02</leafValues></_>
        <_>
          <internalNodes>
            0 -1 280 -2.6625811588019133e-03</internalNodes>
          <leafValues>
            4.0942475199699402e-01 -1.2120792269706726e-01</leafValues></_>
        <_>
          <internalNodes>
            0 -1 282 -3.1331907957792282e-03</internalNodes>
          <leafValues>
            -6.6058117151260376e-01 7.5516365468502045e-02</leafValues></_>
        <_>
          <internalNodes>
            0 -1 213 -1.7998346593230963e-03</internalNodes>
          <leafValues>
            -6.7594480514526367e-01 5.8777421712875366e-02</leafValues></_>
        <_>
          <internalNodes>
            0 -1 218 -1.1244638590142131e-03</internalNodes>
          <leafValues>
            4.3443746864795685e-02 -8.9203137159347534e-01</leafValues></_>
        <_>
          <internalNodes>
            0 -1 298 2.6589038316160440e-03</internalNodes>
          <leafValues>
            -1.3076947629451752e-01 3.8793802261352539e-01</leafValues></_>
        <_>
          <internalNodes>
            0 -1 255 -2.0642378367483616e-03</internalNodes>
          <leafValues>
            4.1047805547714233e-01 -1.1031134426593781e-01</leafValues></_>
        <_>
          <internalNodes>
            0 -1 53 -2.5802077725529671e-03</internalNodes>
          <leafValues>
            -6.9406849145889282e-01 7.3993027210235596e-02</leafValues></_>
        <_>
          <internalNodes>
            0 -1 145 1.3353711925446987e-02</internalNodes>
          <leafValues>
            -8.2643799483776093e-02 6.2178903818130493e-01</leafValues></_>
        <_>
          <internalNodes>
            0 -1 84 -5.3660705685615540e-02</internalNodes>
          <leafValues>
            6.4826118946075439e-01 -6.8242661654949188e-02</leafValues></_>
        <_>
          <internalNodes>
            0 -1 62 -2.2850077599287033e-02</internalNodes>
          <leafValues>
            -1.8013492226600647e-01 2.8811699151992798e-01</leafValues></_></weakClassifiers></_>
    <!-- stage 6 -->
    <_>
      <maxWeakCount>41</maxWeakCount>
      <stageThreshold>-1.3125605583190918e+00</stageThreshold>
      <weakClassifiers>
        <_>
          <internalNodes>
            0 -1 96 -5.4689090698957443e-02</internalNodes>
          <leafValues>
            5.9273368120193481e-01 -3.6209055781364441e-01</leafValues></_>
        <_>
          <internalNodes>
            0 -1 215 5.0170421600341797e-03</internalNodes>
          <leafValues>
            -5.5409884452819824e-01 2.9225629568099976e-01</leafValues></_>
        <_>
          <internalNodes>
            0 -1 29 2.0943947136402130e-02</internalNodes>
          <leafValues>
            -2.6196399331092834e-01 4.8500823974609375e-01</leafValues></_>
        <_>
          <internalNodes>
            0 -1 138 -2.1146420389413834e-02</internalNodes>
          <leafValues>
            3.5238167643547058e-01 -3.4462046623229980e-01</leafValues></_>
        <_>
          <internalNodes>
            0 -1 311 4.1770022362470627e-03</internalNodes>
          <leafValues>
            -1.8471558392047882e-01 4.8930600285530090e-01</leafValues></_>
        <_>
          <internalNodes>
            0 -1 292 -3.2615580130368471e-04</internalNodes>
          <leafValues>
            2.4281224608421326e-01 -3.3344748616218567e-01</leafValues></_>
        <_>
          <internalNodes>
            0 -1 306 3.4960890188813210e-03</internalNodes>
          <leafValues>
            -4.1642397642135620e-01 1.1137205362319946e-01</leafValues></_>
        <_>
          <internalNodes>
            0 -1 131 -4.3238475918769836e-03</internalNodes>
          <leafValues>
            3.4825238585472107e-01 -1.8013975024223328e-01</leafValues></_>
        <_>
          <internalNodes>
            0 -1 219 -3.9682518690824509e-03</internalNodes>
          <leafValues>
            5.8838164806365967e-01 -9.5655061304569244e-02</leafValues></_>
        <_>
          <internalNodes>
            0 -1 103 -1.8316309899091721e-02</internalNodes>
          <leafValues>
            5.8261573314666748e-01 -7.8386411070823669e-02</leafValues></_>
        <_>
          <internalNodes>
            0 -1 68 -5.5705659091472626e-02</internalNodes>
          <leafValues>
            -7.1939051151275635e-01 9.0565010905265808e-02</leafValues></_>
        <_>
          <internalNodes>
            0 -1 19 3.0767709016799927e-02</internalNodes>
          <leafValues>
            -3.1459659337997437e-01 1.8052060902118683e-01</leafValues></_>
        <_>
          <internalNodes>
            0 -1 243 -4.4442515354603529e-04</internalNodes>
          <leafValues>
            3.0776101350784302e-01 -1.7561867833137512e-01</leafValues></_>
        <_>
          <internalNodes>
            0 -1 118 -8.0810002982616425e-03</internalNodes>
          <leafValues>
            6.5085822343826294e-01 -8.9491493999958038e-02</leafValues></_>
        <_>
          <internalNodes>
            0 -1 122 -4.3510021641850471e-03</internalNodes>
          <leafValues>
            4.6243259310722351e-01 -1.0306508094072342e-01</leafValues></_>
        <_>
          <internalNodes>
            0 -1 143 -1.5639595221728086e-03</internalNodes>
          <leafValues>
            4.7635224461555481e-01 -1.1199717223644257e-01</leafValues></_>
        <_>
          <internalNodes>
            0 -1 253 3.5290648229420185e-03</internalNodes>
          <leafValues>
            1.1301928758621216e-01 -4.6898719668388367e-01</leafValues></_>
        <_>
          <internalNodes>
            0 -1 332 -3.8378895260393620e-03</internalNodes>
          <leafValues>
            -7.2114020586013794e-01 5.4862581193447113e-02</leafValues></_>
        <_>
          <internalNodes>
            0 -1 120 6.9242296740412712e-03</internalNodes>
          <leafValues>
            -1.1934361606836319e-01 4.2618402838706970e-01</leafValues></_>
        <_>
          <internalNodes>
            0 -1 158 -7.2597026824951172e-02</internalNodes>
          <leafValues>
            7.5221925973892212e-02 -6.2311476469039917e-01</leafValues></_>
        <_>
          <internalNodes>
            0 -1 133 -1.3124951720237732e-01</internalNodes>
          <leafValues>
            -4.1634544730186462e-01 1.3265746831893921e-01</leafValues></_>
        <_>
          <internalNodes>
            0 -1 169 -9.4582047313451767e-04</internalNodes>
          <leafValues>
            3.0851182341575623e-01 -1.6240219771862030e-01</leafValues></_>
        <_>
          <internalNodes>
            0 -1 277 -9.7295977175235748e-03</internalNodes>
          <leafValues>
            2.3129609227180481e-01 -2.1349078416824341e-01</leafValues></_>
        <_>
          <internalNodes>
            0 -1 323 4.8096654936671257e-03</internalNodes>
          <leafValues>
            -1.1368201673030853e-01 4.2022055387496948e-01</leafValues></_>
        <_>
          <internalNodes>
            0 -1 315 2.8973245061933994e-03</internalNodes>
          <leafValues>
            7.7373974025249481e-02 -6.9629323482513428e-01</leafValues></_>
        <_>
          <internalNodes>
            0 -1 211 1.0881568305194378e-02</internalNodes>
          <leafValues>
            4.7740444540977478e-02 -7.3357474803924561e-01</leafValues></_>
        <_>
          <internalNodes>
            0 -1 127 2.3544603027403355e-03</internalNodes>
          <leafValues>
            -1.2468148767948151e-01 4.0199342370033264e-01</leafValues></_>
        <_>
          <internalNodes>
            0 -1 150 3.1077922321856022e-03</internalNodes>
          <leafValues>
            -9.5588698983192444e-02 4.5687371492385864e-01</leafValues></_>
        <_>
          <internalNodes>
            0 -1 241 -7.5416133040562272e-04</internalNodes>
          <leafValues>
            -5.2749830484390259e-01 9.2117100954055786e-02</leafValues></_>
        <_>
          <internalNodes>
            0 -1 313 1.5477071283385158e-03</internalNodes>
          <leafValues>
            -1.5090440213680267e-01 2.8789681196212769e-01</leafValues></_>
        <_>
          <internalNodes>
            0 -1 58 -5.2036732435226440e-02</internalNodes>
          <leafValues>
            -8.7875038385391235e-01 5.2991557866334915e-02</leafValues></_>
        <_>
          <internalNodes>
            0 -1 90 -1.8562651239335537e-03</internalNodes>
          <leafValues>
            -6.9632881879806519e-01 4.7101054340600967e-02</leafValues></_>
        <_>
          <internalNodes>
            0 -1 290 4.2903749272227287e-03</internalNodes>
          <leafValues>
            -9.1629765927791595e-02 4.8597463965415955e-01</leafValues></_>
        <_>
          <internalNodes>
            0 -1 82 3.6566487979143858e-03</internalNodes>
          <leafValues>
            6.8483583629131317e-02 -6.3264042139053345e-01</leafValues></_>
        <_>
          <internalNodes>
            0 -1 6 3.6433801054954529e-02</internalNodes>
          <leafValues>
            -2.8379705548286438e-01 1.5656641125679016e-01</leafValues></_>
        <_>
          <internalNodes>
            0 -1 155 -9.0316298883408308e-04</internalNodes>
          <leafValues>
            4.0099009871482849e-01 -1.2280508130788803e-01</leafValues></_>
        <_>
          <internalNodes>
            0 -1 57 -3.8725608028471470e-03</internalNodes>
          <leafValues>
            3.7939357757568359e-01 -1.1440239846706390e-01</leafValues></_>
        <_>
          <internalNodes>
            0 -1 333 -4.6125953085720539e-03</internalNodes>
          <leafValues>
            -7.0622164011001587e-01 6.2475509941577911e-02</leafValues></_>
        <_>
          <internalNodes>
            0 -1 263 -2.7801485266536474e-03</internalNodes>
          <leafValues>
            4.8488286137580872e-01 -9.4697646796703339e-02</leafValues></_>
        <_>
          <internalNodes>
            0 -1 265 -4.3167095631361008e-02</internalNodes>
          <leafValues>
            -6.8476033210754395e-01 6.9201357662677765e-02</leafValues></_>
        <_>
          <internalNodes>
            0 -1 244 -2.0730022806674242e-03</internalNodes>
          <leafValues>
            3.0273437500000000e-01 -1.4444018900394440e-01</leafValues></_></weakClassifiers></_>
    <!-- stage 7 -->
    <_>
      <maxWeakCount>48</maxWeakCount>
      <stageThreshold>-1.2939538955688477e+00</stageThreshold>
      <weakClassifiers>
        <_>
          <internalNodes>
            0 -1 321 -3.5515278577804565e-02</internalNodes>
          <leafValues>
            5.8330637216567993e-01 -3.0512776970863342e-01</leafValues></_>
        <_>
          <internalNodes>
            0 -1 63 1.3421291485428810e-02</internalNodes>
          <leafValues>
            -3.3562532067298889e-01 4.1685765981674194e-01</leafValues></_>
        <_>
          <internalNodes>
            0 -1 126 8.7056271731853485e-03</internalNodes>
          <leafValues>
            -2.0605605840682983e-01 5.5557554960250854e-01</leafValues></_>
        <_>
          <internalNodes>
            0 -1 40 1.4270980842411518e-02</internalNodes>
          <leafValues>
            -2.6269516348838806e-01 3.5619446635246277e-01</leafValues></_>
        <_>
          <internalNodes>
            0 -1 260 -3.4555373713374138e-03</internalNodes>
          <leafValues>
            2.1756885945796967e-01 -3.3031624555587769e-01</leafValues></_>
        <_>
          <internalNodes>
            0 -1 142 2.3561578243970871e-02</internalNodes>
          <leafValues>
            -7.2454750537872314e-02 6.7909330129623413e-01</leafValues></_>
        <_>
          <internalNodes>
            0 -1 302 -1.0791225358843803e-02</internalNodes>
          <leafValues>
            4.6591171622276306e-01 -9.8309740424156189e-02</leafValues></_>
        <_>
          <internalNodes>
            0 -1 17 -2.9443078674376011e-03</internalNodes>
          <leafValues>
            -6.2462633848190308e-01 7.9562574625015259e-02</leafValues></_>
        <_>
          <internalNodes>
            0 -1 295 5.0765424966812134e-03</internalNodes>
          <leafValues>
            -1.1625330150127411e-01 5.1965516805648804e-01</leafValues></_>
        <_>
          <internalNodes>
            0 -1 309 -4.5877553522586823e-02</internalNodes>
          <leafValues>
            -5.9192782640457153e-01 8.8373646140098572e-02</leafValues></_>
        <_>
          <internalNodes>
            0 -1 193 8.4618007531389594e-04</internalNodes>
          <leafValues>
            1.1520449817180634e-01 -4.1176554560661316e-01</leafValues></_>
        <_>
          <internalNodes>
            0 -1 111 3.9644995704293251e-03</internalNodes>
          <leafValues>
            -7.7518954873085022e-02 6.3576149940490723e-01</leafValues></_>
        <_>
          <internalNodes>
            0 -1 165 8.2377903163433075e-03</internalNodes>
          <leafValues>
            7.2195567190647125e-02 -7.5650864839553833e-01</leafValues></_>
        <_>
          <internalNodes>
            0 -1 278 1.0340230539441109e-02</internalNodes>
          <leafValues>
            5.9201866388320923e-02 -6.5771800279617310e-01</leafValues></_>
        <_>
          <internalNodes>
            0 -1 305 3.7911215331405401e-03</internalNodes>
          <leafValues>
            -1.2139505892992020e-01 4.3112671375274658e-01</leafValues></_>
        <_>
          <internalNodes>
            0 -1 300 -4.2120832949876785e-03</internalNodes>
          <leafValues>
            3.5200670361518860e-01 -1.2929655611515045e-01</leafValues></_>
        <_>
          <internalNodes>
            0 -1 186 -1.0638177394866943e-02</internalNodes>
          <leafValues>
            -4.4363158941268921e-01 1.1423975974321365e-01</leafValues></_>
        <_>
          <internalNodes>
            0 -1 271 1.4735362492501736e-02</internalNodes>
          <leafValues>
            4.4474359601736069e-02 -8.6222833395004272e-01</leafValues></_>
        <_>
          <internalNodes>
            0 -1 119 -5.1245829090476036e-03</internalNodes>
          <leafValues>
            -7.7620178461074829e-01 4.3703578412532806e-02</leafValues></_>
        <_>
          <internalNodes>
            0 -1 137 -1.6825434286147356e-03</internalNodes>
          <leafValues>
            3.9542764425277710e-01 -1.1271888017654419e-01</leafValues></_>
        <_>
          <internalNodes>
            0 -1 86 -4.5381076633930206e-03</internalNodes>
          <leafValues>
            1.9336590170860291e-01 -2.3898239433765411e-01</leafValues></_>
        <_>
          <internalNodes>
            0 -1 78 9.1781849041581154e-03</internalNodes>
          <leafValues>
            -1.2897741794586182e-01 3.4667876362800598e-01</leafValues></_>
        <_>
          <internalNodes>
            0 -1 157 9.6813566051423550e-04</internalNodes>
          <leafValues>
            -1.6172273457050323e-01 3.0651518702507019e-01</leafValues></_>
        <_>
          <internalNodes>
            0 -1 210 7.9217776656150818e-03</internalNodes>
          <leafValues>
            8.3581052720546722e-02 -5.5134427547454834e-01</leafValues></_>
        <_>
          <internalNodes>
            0 -1 174 7.5586820021271706e-03</internalNodes>
          <leafValues>
            -1.3202598690986633e-01 3.5416620969772339e-01</leafValues></_>
        <_>
          <internalNodes>
            0 -1 166 3.1716064549982548e-03</internalNodes>
          <leafValues>
            -7.6067745685577393e-02 5.5337321758270264e-01</leafValues></_>
        <_>
          <internalNodes>
            0 -1 240 -3.5195102100260556e-04</internalNodes>
          <leafValues>
            2.2415061295032501e-01 -1.8830302357673645e-01</leafValues></_>
        <_>
          <internalNodes>
            0 -1 37 3.5209249705076218e-02</internalNodes>
          <leafValues>
            -2.3082219064235687e-01 1.9524733722209930e-01</leafValues></_>
        <_>
          <internalNodes>
            0 -1 71 -1.3571727322414517e-03</internalNodes>
          <leafValues>
            3.0462563037872314e-01 -1.5231345593929291e-01</leafValues></_>
        <_>
          <internalNodes>
            0 -1 26 8.0391950905323029e-03</internalNodes>
          <leafValues>
            -1.8267092108726501e-01 2.2802294790744781e-01</leafValues></_>
        <_>
          <internalNodes>
            0 -1 3 9.5592290163040161e-03</internalNodes>
          <leafValues>
            1.0035797953605652e-01 -4.6397158503532410e-01</leafValues></_>
        <_>
          <internalNodes>
            0 -1 130 -1.9251070916652679e-03</internalNodes>
          <leafValues>
            5.3447610139846802e-01 -8.4610164165496826e-02</leafValues></_>
        <_>
          <internalNodes>
            0 -1 249 1.4046528667677194e-04</internalNodes>
          <leafValues>
            9.1945245862007141e-02 -4.9432533979415894e-01</leafValues></_>
        <_>
          <internalNodes>
            0 -1 189 -8.2111312076449394e-04</internalNodes>
          <leafValues>
            3.5373952984809875e-01 -1.2802907824516296e-01</leafValues></_>
        <_>
          <internalNodes>
            0 -1 5 -1.4866851270198822e-02</internalNodes>
          <leafValues>
            -4.0319195389747620e-01 1.0553386062383652e-01</leafValues></_>
        <_>
          <internalNodes>
            0 -1 237 5.3167324513196945e-03</internalNodes>
          <leafValues>
            -1.1124511808156967e-01 3.7850594520568848e-01</leafValues></_>
        <_>
          <internalNodes>
            0 -1 87 -7.1964284870773554e-04</internalNodes>
          <leafValues>
            2.6399832963943481e-01 -1.5357165038585663e-01</leafValues></_>
        <_>
          <internalNodes>
            0 -1 121 -9.0789897367358208e-03</internalNodes>
          <leafValues>
            -7.6695597171783447e-01 5.2674129605293274e-02</leafValues></_>
        <_>
          <internalNodes>
            0 -1 38 -4.8512551002204418e-03</internalNodes>
          <leafValues>
            -5.4498684406280518e-01 5.9230767190456390e-02</leafValues></_>
        <_>
          <internalNodes>
            0 -1 32 7.1559532079845667e-04</internalNodes>
          <leafValues>
            7.4844650924205780e-02 -5.2253735065460205e-01</leafValues></_>
        <_>
          <internalNodes>
            0 -1 75 -1.3859696686267853e-02</internalNodes>
          <leafValues>
            -9.3538802862167358e-01 3.4571476280689240e-02</leafValues></_>
        <_>
          <internalNodes>
            0 -1 112 9.5135369338095188e-04</internalNodes>
          <leafValues>
            -1.2979176640510559e-01 3.5706543922424316e-01</leafValues></_>
        <_>
          <internalNodes>
            0 -1 200 8.6753638461232185e-03</internalNodes>
          <leafValues>
            -1.1221949011087418e-01 3.1157076358795166e-01</leafValues></_>
        <_>
          <internalNodes>
            0 -1 283 2.0968932658433914e-02</internalNodes>
          <leafValues>
            5.4891865700483322e-02 -6.7373555898666382e-01</leafValues></_>
        <_>
          <internalNodes>
            0 -1 61 2.7835887158289552e-04</internalNodes>
          <leafValues>
            1.0143239051103592e-01 -3.3060187101364136e-01</leafValues></_>
        <_>
          <internalNodes>
            0 -1 185 1.1377993971109390e-02</internalNodes>
          <leafValues>
            4.4905442744493484e-02 -7.4615377187728882e-01</leafValues></_>
        <_>
          <internalNodes>
            0 -1 125 -1.5303033869713545e-03</internalNodes>
          <leafValues>
            5.2646511793136597e-01 -8.0579742789268494e-02</leafValues></_>
        <_>
          <internalNodes>
            0 -1 337 2.2851345129311085e-03</internalNodes>
          <leafValues>
            8.2738712430000305e-02 -4.9299260973930359e-01</leafValues></_></weakClassifiers></_>
    <!-- stage 8 -->
    <_>
      <maxWeakCount>56</maxWeakCount>
      <stageThreshold>-1.2390986680984497e+00</stageThreshold>
      <weakClassifiers>
        <_>
          <internalNodes>
            0 -1 324 -1.1962164193391800e-02</internalNodes>
          <leafValues>
            5.7713907957077026e-01 -2.9248285293579102e-01</leafValues></_>
        <_>
          <internalNodes>
            0 -1 187 1.6823805868625641e-02</internalNodes>
          <leafValues>
            -2.3396676778793335e-01 5.3855967521667480e-01</leafValues></_>
        <_>
          <internalNodes>
            0 -1 22 8.5478555411100388e-03</internalNodes>
          <leafValues>
            -2.3156291246414185e-01 4.6362060308456421e-01</leafValues></_>
        <_>
          <internalNodes>
            0 -1 264 1.6417808365076780e-03</internalNodes>
          <leafValues>
            -4.8447704315185547e-01 1.5529437363147736e-01</leafValues></_>
        <_>
          <internalNodes>
            0 -1 227 -1.3808418996632099e-02</internalNodes>
          <leafValues>
            2.5500985980033875e-01 -2.5410163402557373e-01</leafValues></_>
        <_>
          <internalNodes>
            0 -1 308 -3.2323892228305340e-03</internalNodes>
          <leafValues>
            4.4159343838691711e-01 -1.3511745631694794e-01</leafValues></_>
        <_>
          <internalNodes>
            0 -1 207 -1.8964283168315887e-02</internalNodes>
          <leafValues>
            -8.4507858753204346e-01 5.8882143348455429e-02</leafValues></_>
        <_>
          <internalNodes>
            0 -1 116 -1.2341207265853882e-01</internalNodes>
          <leafValues>
            1.0688231885433197e-01 -6.0505485534667969e-01</leafValues></_>
        <_>
          <internalNodes>
            0 -1 281 -4.1883047670125961e-03</internalNodes>
          <leafValues>
            4.5508879423141479e-01 -1.1645075678825378e-01</leafValues></_>
        <_>
          <internalNodes>
            0 -1 177 -2.1698225289583206e-02</internalNodes>
          <leafValues>
            5.5801200866699219e-01 -1.0015156120061874e-01</leafValues></_>
        <_>
          <internalNodes>
            0 -1 49 -3.8912408053874969e-02</internalNodes>
          <leafValues>
            -5.1658058166503906e-01 1.2441918998956680e-01</leafValues></_>
        <_>
          <internalNodes>
            0 -1 304 3.4437193535268307e-03</internalNodes>
          <leafValues>
            -1.4545020461082458e-01 3.8953596353530884e-01</leafValues></_>
        <_>
          <internalNodes>
            0 -1 235 -6.5704400185495615e-04</internalNodes>
          <leafValues>
            -5.7039511203765869e-01 1.0504057258367538e-01</leafValues></_>
        <_>
          <internalNodes>
            0 -1 334 9.8005272448062897e-03</internalNodes>
          <leafValues>
            4.4422224164009094e-02 -6.2227016687393188e-01</leafValues></_>
        <_>
          <internalNodes>
            0 -1 257 -2.6235731784254313e-03</internalNodes>
          <leafValues>
            -8.5820943117141724e-01 4.2580727487802505e-02</leafValues></_>
        <_>
          <internalNodes>
            0 -1 192 -4.1329581290483475e-03</internalNodes>
          <leafValues>
            4.8878103494644165e-01 -9.1304048895835876e-02</leafValues></_>
        <_>
          <internalNodes>
            0 -1 287 2.2192651405930519e-02</internalNodes>
          <leafValues>
            6.6826313734054565e-02 -7.2747886180877686e-01</leafValues></_>
        <_>
          <internalNodes>
            0 -1 293 -2.9529300518333912e-03</internalNodes>
          <leafValues>
            5.1995211839675903e-01 -9.7197547554969788e-02</leafValues></_>
        <_>
          <internalNodes>
            0 -1 31 1.1186785995960236e-02</internalNodes>
          <leafValues>
            -2.2548572719097137e-01 1.7750890552997589e-01</leafValues></_>
        <_>
          <internalNodes>
            0 -1 59 -9.1231223195791245e-03</internalNodes>
          <leafValues>
            4.0758395195007324e-01 -1.1640571802854538e-01</leafValues></_>
        <_>
          <internalNodes>
            0 -1 54 -5.0087673589587212e-03</internalNodes>
          <leafValues>
            -5.2936387062072754e-01 7.3989950120449066e-02</leafValues></_>
        <_>
          <internalNodes>
            0 -1 0 6.1083759646862745e-04</internalNodes>
          <leafValues>
            9.9834881722927094e-02 -3.7315902113914490e-01</leafValues></_>
        <_>
          <internalNodes>
            0 -1 245 2.0954695064574480e-03</internalNodes>
          <leafValues>
            -1.5487915277481079e-01 2.4411016702651978e-01</leafValues></_>
        <_>
          <internalNodes>
            0 -1 276 -7.3109585791826248e-03</internalNodes>
          <leafValues>
            -6.0378867387771606e-01 6.0993395745754242e-02</leafValues></_>
        <_>
          <internalNodes>
            0 -1 222 1.2024855241179466e-02</internalNodes>
          <leafValues>
            -1.6279138624668121e-01 2.3491726815700531e-01</leafValues></_>
        <_>
          <internalNodes>
            0 -1 35 2.0942959934473038e-02</internalNodes>
          <leafValues>
            5.1077708601951599e-02 -7.1802985668182373e-01</leafValues></_>
        <_>
          <internalNodes>
            0 -1 254 1.5524266054853797e-03</internalNodes>
          <leafValues>
            -1.4464595913887024e-01 2.6162368059158325e-01</leafValues></_>
        <_>
          <internalNodes>
            0 -1 176 -1.1021116748452187e-02</internalNodes>
          <leafValues>
            -7.2532188892364502e-01 5.3634520620107651e-02</leafValues></_>
        <_>
          <internalNodes>
            0 -1 10 1.9163589924573898e-02</internalNodes>
          <leafValues>
            -8.5318319499492645e-02 4.1078546643257141e-01</leafValues></_>
        <_>
          <internalNodes>
            0 -1 76 3.1227800995111465e-02</internalNodes>
          <leafValues>
            -6.1948712915182114e-02 5.5278348922729492e-01</leafValues></_>
        <_>
          <internalNodes>
            0 -1 1 -4.1153188794851303e-03</internalNodes>
          <leafValues>
            -4.9447080492973328e-01 7.3502726852893829e-02</leafValues></_>
        <_>
          <internalNodes>
            0 -1 129 -1.7646502237766981e-03</internalNodes>
          <leafValues>
            2.9247823357582092e-01 -1.3576826453208923e-01</leafValues></_>
        <_>
          <internalNodes>
            0 -1 91 3.8084357976913452e-02</internalNodes>
          <leafValues>
            -1.6329391300678253e-01 2.2062654793262482e-01</leafValues></_>
        <_>
          <internalNodes>
            0 -1 47 5.4459657985717058e-04</internalNodes>
          <leafValues>
            1.2536542117595673e-01 -3.2445666193962097e-01</leafValues></_>
        <_>
          <internalNodes>
            0 -1 4 8.6126416921615601e-02</internalNodes>
          <leafValues>
            -6.2742657959461212e-02 5.7989287376403809e-01</leafValues></_>
        <_>
          <internalNodes>
            0 -1 336 2.2306749597191811e-03</internalNodes>
          <leafValues>
            5.5476035922765732e-02 -7.2362309694290161e-01</leafValues></_>
        <_>
          <internalNodes>
            0 -1 286 -8.2456035306677222e-04</internalNodes>
          <leafValues>
            3.0502673983573914e-01 -1.2109586596488953e-01</leafValues></_>
        <_>
          <internalNodes>
            0 -1 232 -2.9652868397533894e-03</internalNodes>
          <leafValues>
            -4.4844111800193787e-01 7.6253920793533325e-02</leafValues></_>
        <_>
          <internalNodes>
            0 -1 173 8.6440047016367316e-04</internalNodes>
          <leafValues>
            -1.0203392803668976e-01 3.4945684671401978e-01</leafValues></_>
        <_>
          <internalNodes>
            0 -1 139 -7.3415860533714294e-03</internalNodes>
          <leafValues>
            -6.7912769317626953e-01 5.2625481039285660e-02</leafValues></_>
        <_>
          <internalNodes>
            0 -1 204 7.2684756014496088e-04</internalNodes>
          <leafValues>
            -1.2444311380386353e-01 2.9122868180274963e-01</leafValues></_>
        <_>
          <internalNodes>
            0 -1 140 2.0483884960412979e-02</internalNodes>
          <leafValues>
            -6.4376495778560638e-02 5.1007777452468872e-01</leafValues></_>
        <_>
          <internalNodes>
            0 -1 267 -3.4504919312894344e-03</internalNodes>
          <leafValues>
            4.4278836250305176e-01 -7.0961788296699524e-02</leafValues></_>
        <_>
          <internalNodes>
            0 -1 318 -4.7720246948301792e-03</internalNodes>
          <leafValues>
            2.2594781219959259e-01 -1.5441313385963440e-01</leafValues></_>
        <_>
          <internalNodes>
            0 -1 312 3.9916895329952240e-03</internalNodes>
          <leafValues>
            -1.2833656370639801e-01 2.8750076889991760e-01</leafValues></_>
        <_>
          <internalNodes>
            0 -1 317 -5.9377681463956833e-03</internalNodes>
          <leafValues>
            4.1379156708717346e-01 -8.3068624138832092e-02</leafValues></_>
        <_>
          <internalNodes>
            0 -1 279 1.3859992846846581e-02</internalNodes>
          <leafValues>
            5.1323033869266510e-02 -7.9244893789291382e-01</leafValues></_>
        <_>
          <internalNodes>
            0 -1 269 3.9777923375368118e-03</internalNodes>
          <leafValues>
            3.1594514846801758e-02 -7.7827900648117065e-01</leafValues></_>
        <_>
          <internalNodes>
            0 -1 102 -1.3066315092146397e-02</internalNodes>
          <leafValues>
            2.2778217494487762e-01 -1.4988276362419128e-01</leafValues></_>
        <_>
          <internalNodes>
            0 -1 199 -1.6775771509855986e-03</internalNodes>
          <leafValues>
            3.0791383981704712e-01 -1.1057290434837341e-01</leafValues></_>
        <_>
          <internalNodes>
            0 -1 171 3.5929712466895580e-03</internalNodes>
          <leafValues>
            -2.8884348273277283e-01 1.2436603754758835e-01</leafValues></_>
        <_>
          <internalNodes>
            0 -1 93 -8.9326677843928337e-03</internalNodes>
          <leafValues>
            -7.9694765806198120e-01 4.0019374340772629e-02</leafValues></_>
        <_>
          <internalNodes>
            0 -1 33 2.0750118419528008e-03</internalNodes>
          <leafValues>
            3.5093966871500015e-02 -7.3143416643142700e-01</leafValues></_>
        <_>
          <internalNodes>
            0 -1 163 -5.2873082458972931e-03</internalNodes>
          <leafValues>
            4.2233961820602417e-01 -8.1312336027622223e-02</leafValues></_>
        <_>
          <internalNodes>
            0 -1 314 -2.1715327166020870e-03</internalNodes>
          <leafValues>
            -6.7278099060058594e-01 5.5495589971542358e-02</leafValues></_>
        <_>
          <internalNodes>
            0 -1 307 -3.6107827909290791e-03</internalNodes>
          <leafValues>
            2.8053894639015198e-01 -1.2597775459289551e-01</leafValues></_></weakClassifiers></_>
    <!-- stage 9 -->
    <_>
      <maxWeakCount>60</maxWeakCount>
      <stageThreshold>-1.2047373056411743e+00</stageThreshold>
      <weakClassifiers>
        <_>
          <internalNodes>
            0 -1 73 -7.1852304041385651e-02</internalNodes>
          <leafValues>
            4.9214267730712891e-01 -3.9531156420707703e-01</leafValues></_>
        <_>
          <internalNodes>
            0 -1 247 9.3746744096279144e-03</internalNodes>
          <leafValues>
            -2.8555789589881897e-01 3.9832288026809692e-01</leafValues></_>
        <_>
          <internalNodes>
            0 -1 85 -5.5896524339914322e-02</internalNodes>
          <leafValues>
            6.3621741533279419e-01 -1.4437019824981689e-01</leafValues></_>
        <_>
          <internalNodes>
            0 -1 223 -7.4364151805639267e-03</internalNodes>
          <leafValues>
            3.4149026870727539e-01 -2.2379940748214722e-01</leafValues></_>
        <_>
          <internalNodes>
            0 -1 128 1.4323599636554718e-02</internalNodes>
          <leafValues>
            -1.7535558342933655e-01 3.6949956417083740e-01</leafValues></_>
        <_>
          <internalNodes>
            0 -1 273 -3.7008239887654781e-03</internalNodes>
          <leafValues>
            2.0305670797824860e-01 -3.5350492596626282e-01</leafValues></_>
        <_>
          <internalNodes>
            0 -1 203 2.9121898114681244e-03</internalNodes>
          <leafValues>
            -2.8053492307662964e-01 1.7017959058284760e-01</leafValues></_>
        <_>
          <internalNodes>
            0 -1 2 3.2700739800930023e-02</internalNodes>
          <leafValues>
            -2.3219794034957886e-01 1.9867958128452301e-01</leafValues></_>
        <_>
          <internalNodes>
            0 -1 275 -1.0886779054999352e-02</internalNodes>
          <leafValues>
            -4.9730935692787170e-01 9.6990413963794708e-02</leafValues></_>
        <_>
          <internalNodes>
            0 -1 289 -8.2878498360514641e-03</internalNodes>
          <leafValues>
            4.3180543184280396e-01 -1.3159498572349548e-01</leafValues></_>
        <_>
          <internalNodes>
            0 -1 291 3.4485999494791031e-03</internalNodes>
          <leafValues>
            -1.1939255893230438e-01 4.2048141360282898e-01</leafValues></_>
        <_>
          <internalNodes>
            0 -1 70 1.4403884299099445e-02</internalNodes>
          <leafValues>
            -1.4214600622653961e-01 3.4919726848602295e-01</leafValues></_>
        <_>
          <internalNodes>
            0 -1 268 1.1454962659627199e-03</internalNodes>
          <leafValues>
            6.1415359377861023e-02 -6.2080478668212891e-01</leafValues></_>
        <_>
          <internalNodes>
            0 -1 55 8.0362323205918074e-04</internalNodes>
          <leafValues>
            8.6770102381706238e-02 -4.4594910740852356e-01</leafValues></_>
        <_>
          <internalNodes>
            0 -1 50 1.2223753146827221e-03</internalNodes>
          <leafValues>
            9.5524504780769348e-02 -4.1974309086799622e-01</leafValues></_>
        <_>
          <internalNodes>
            0 -1 110 -1.2252919841557741e-03</internalNodes>
          <leafValues>
            2.6192909479141235e-01 -1.4783635735511780e-01</leafValues></_>
        <_>
          <internalNodes>
            0 -1 45 1.0455225128680468e-03</internalNodes>
          <leafValues>
            -3.4305939078330994e-01 1.4561493694782257e-01</leafValues></_>
        <_>
          <internalNodes>
            0 -1 100 -1.6142757376655936e-03</internalNodes>
          <leafValues>
            3.9924639463424683e-01 -1.1005160212516785e-01</leafValues></_>
        <_>
          <internalNodes>
            0 -1 224 5.8862417936325073e-03</internalNodes>
          <leafValues>
            -7.7329583466053009e-02 5.1712453365325928e-01</leafValues></_>
        <_>
          <internalNodes>
            0 -1 30 5.8003589510917664e-03</internalNodes>
          <leafValues>
            -1.8836206197738647e-01 2.6335769891738892e-01</leafValues></_>
        <_>
          <internalNodes>
            0 -1 197 -1.0839815251529217e-02</internalNodes>
          <leafValues>
            4.8340439796447754e-01 -1.0057875514030457e-01</leafValues></_>
        <_>
          <internalNodes>
            0 -1 320 7.5812255963683128e-03</internalNodes>
          <leafValues>
            8.4978014230728149e-02 -5.1273524761199951e-01</leafValues></_>
        <_>
          <internalNodes>
            0 -1 92 -2.9559689573943615e-03</internalNodes>
          <leafValues>
            4.8013430833816528e-01 -8.6295299232006073e-02</leafValues></_>
        <_>
          <internalNodes>
            0 -1 297 2.7336325496435165e-02</internalNodes>
          <leafValues>
            -1.4798207581043243e-01 2.6019608974456787e-01</leafValues></_>
        <_>
          <internalNodes>
            0 -1 180 2.1934555843472481e-03</internalNodes>
          <leafValues>
            9.9090166389942169e-02 -3.8993591070175171e-01</leafValues></_>
        <_>
          <internalNodes>
            0 -1 301 2.2368303034454584e-03</internalNodes>
          <leafValues>
            -1.0962899029254913e-01 3.2808035612106323e-01</leafValues></_>
        <_>
          <internalNodes>
            0 -1 194 6.8095745518803596e-03</internalNodes>
          <leafValues>
            7.9271227121353149e-02 -4.8991701006889343e-01</leafValues></_>
        <_>
          <internalNodes>
            0 -1 242 -9.7292446298524737e-05</internalNodes>
          <leafValues>
            2.1490824222564697e-01 -1.6228115558624268e-01</leafValues></_>
        <_>
          <internalNodes>
            0 -1 74 -3.3573601394891739e-03</internalNodes>
          <leafValues>
            -8.3482825756072998e-01 4.9553763121366501e-02</leafValues></_>
        <_>
          <internalNodes>
            0 -1 299 -3.8158833049237728e-03</internalNodes>
          <leafValues>
            3.3132594823837280e-01 -1.1760163307189941e-01</leafValues></_>
        <_>
          <internalNodes>
            0 -1 330 3.2758917659521103e-03</internalNodes>
          <leafValues>
            5.0485186278820038e-02 -6.7507815361022949e-01</leafValues></_>
        <_>
          <internalNodes>
            0 -1 256 2.9464918188750744e-03</internalNodes>
          <leafValues>
            -1.1519544571638107e-01 3.0451503396034241e-01</leafValues></_>
        <_>
          <internalNodes>
            0 -1 262 -1.9975542090833187e-03</internalNodes>
          <leafValues>
            -4.7033894062042236e-01 8.3366036415100098e-02</leafValues></_>
        <_>
          <internalNodes>
            0 -1 95 1.0894747450947762e-02</internalNodes>
          <leafValues>
            -1.0279604047536850e-01 3.5869625210762024e-01</leafValues></_>
        <_>
          <internalNodes>
            0 -1 285 1.0765213519334793e-02</internalNodes>
          <leafValues>
            1.2759122252464294e-01 -3.1682050228118896e-01</leafValues></_>
        <_>
          <internalNodes>
            0 -1 80 1.5931888483464718e-03</internalNodes>
          <leafValues>
            6.6047422587871552e-02 -4.6970048546791077e-01</leafValues></_>
        <_>
          <internalNodes>
            0 -1 335 6.3526327721774578e-04</internalNodes>
          <leafValues>
            4.9580145627260208e-02 -6.0769206285476685e-01</leafValues></_>
        <_>
          <internalNodes>
            0 -1 231 -6.2491506338119507e-02</internalNodes>
          <leafValues>
            5.1796145737171173e-02 -6.4214253425598145e-01</leafValues></_>
        <_>
          <internalNodes>
            0 -1 15 -1.4557613059878349e-02</internalNodes>
          <leafValues>
            -1.8728721141815186e-01 1.6717574000358582e-01</leafValues></_>
        <_>
          <internalNodes>
            0 -1 225 -6.8894185824319720e-04</internalNodes>
          <leafValues>
            3.5040223598480225e-01 -9.6716970205307007e-02</leafValues></_>
        <_>
          <internalNodes>
            0 -1 114 2.0576980896294117e-03</internalNodes>
          <leafValues>
            -1.0096387565135956e-01 3.1844359636306763e-01</leafValues></_>
        <_>
          <internalNodes>
            0 -1 198 1.3571104966104031e-02</internalNodes>
          <leafValues>
            3.9667174220085144e-02 -8.5995340347290039e-01</leafValues></_>
        <_>
          <internalNodes>
            0 -1 170 1.3209898024797440e-03</internalNodes>
          <leafValues>
            -1.1446132510900497e-01 3.0815091729164124e-01</leafValues></_>
        <_>
          <internalNodes>
            0 -1 261 -5.5800713598728180e-02</internalNodes>
          <leafValues>
            -7.2926908731460571e-01 4.6570137143135071e-02</leafValues></_>
        <_>
          <internalNodes>
            0 -1 107 3.8614939898252487e-02</internalNodes>
          <leafValues>
            -7.1689605712890625e-02 4.8221999406814575e-01</leafValues></_>
        <_>
          <internalNodes>
            0 -1 217 -1.6446784138679504e-02</internalNodes>
          <leafValues>
            4.2474317550659180e-01 -6.9288797676563263e-02</leafValues></_>
        <_>
          <internalNodes>
            0 -1 52 -3.2593007199466228e-03</internalNodes>
          <leafValues>
            -6.0958623886108398e-01 5.8417785912752151e-02</leafValues></_>
        <_>
          <internalNodes>
            0 -1 147 -2.4581430479884148e-03</internalNodes>
          <leafValues>
            2.2283066809177399e-01 -1.4726194739341736e-01</leafValues></_>
        <_>
          <internalNodes>
            0 -1 67 -3.6249734461307526e-02</internalNodes>
          <leafValues>
            -6.5640383958816528e-01 4.8998385667800903e-02</leafValues></_>
        <_>
          <internalNodes>
            0 -1 246 2.8832172974944115e-03</internalNodes>
          <leafValues>
            3.6663495004177094e-02 -6.8333947658538818e-01</leafValues></_>
        <_>
          <internalNodes>
            0 -1 175 -3.4895818680524826e-04</internalNodes>
          <leafValues>
            2.2982630133628845e-01 -1.3586749136447906e-01</leafValues></_>
        <_>
          <internalNodes>
            0 -1 167 -4.6488875523209572e-03</internalNodes>
          <leafValues>
            -4.6343892812728882e-01 6.8122133612632751e-02</leafValues></_>
        <_>
          <internalNodes>
            0 -1 18 -4.2112935334444046e-03</internalNodes>
          <leafValues>
            -3.7975737452507019e-01 7.1030408143997192e-02</leafValues></_>
        <_>
          <internalNodes>
            0 -1 296 3.8363188505172729e-03</internalNodes>
          <leafValues>
            -1.3565224409103394e-01 2.3966240882873535e-01</leafValues></_>
        <_>
          <internalNodes>
            0 -1 284 -4.9035986885428429e-03</internalNodes>
          <leafValues>
            -7.3989903926849365e-01 4.4717457145452499e-02</leafValues></_>
        <_>
          <internalNodes>
            0 -1 135 -8.1663504242897034e-03</internalNodes>
          <leafValues>
            2.9912629723548889e-01 -1.1674278229475021e-01</leafValues></_>
        <_>
          <internalNodes>
            0 -1 190 6.8294247612357140e-03</internalNodes>
          <leafValues>
            -1.8691179156303406e-01 2.2591969370841980e-01</leafValues></_>
        <_>
          <internalNodes>
            0 -1 160 3.5097971558570862e-03</internalNodes>
          <leafValues>
            -7.7006459236145020e-02 4.2782559990882874e-01</leafValues></_>
        <_>
          <internalNodes>
            0 -1 259 5.0256203394383192e-05</internalNodes>
          <leafValues>
            1.4388900995254517e-01 -2.3018744587898254e-01</leafValues></_>
        <_>
          <internalNodes>
            0 -1 60 8.1411756575107574e-02</internalNodes>
          <leafValues>
            -4.8183482140302658e-02 6.8585050106048584e-01</leafValues></_></weakClassifiers></_></stages>
  <features>
    <_>
      <rects>
        <_>
          0 0 6 1 -1.</_>
        <_>
          3 0 3 1 2.</_></rects>
      <tilted>0</tilted></_>
    <_>
      <rects>
        <_>
          0 0 4 8 -1.</_>
        <_>
          0 4 4 4 2.</_></rects>
      <tilted>0</tilted></_>
    <_>
      <rects>
        <_>
          0 0 10 30 -1.</_>
        <_>
          5 0 5 30 2.</_></rects>
      <tilted>0</tilted></_>
    <_>
      <rects>
        <_>
          0 0 22 2 -1.</_>
        <_>
          11 0 11 2 2.</_></rects>
      <tilted>0</tilted></_>
    <_>
      <rects>
        <_>
          0 0 24 20 -1.</_>
        <_>
          0 0 12 10 2.</_>
        <_>
          12 10 12 10 2.</_></rects>
      <tilted>0</tilted></_>
    <_>
      <rects>
        <_>
          0 0 32 15 -1.</_>
        <_>
          16 0 16 15 2.</_></rects>
      <tilted>0</tilted></_>
    <_>
      <rects>
        <_>
          0 0 32 28 -1.</_>
        <_>
          16 0 16 28 2.</_></rects>
      <tilted>0</tilted></_>
    <_>
      <rects>
        <_>
          0 0 44 2 -1.</_>
        <_>
          0 1 44 1 2.</_></rects>
      <tilted>0</tilted></_>
    <_>
      <rects>
        <_>
          0 0 48 6 -1.</_>
        <_>
          0 3 48 3 2.</_></rects>
      <tilted>0</tilted></_>
    <_>
      <rects>
        <_>
          0 1 8 13 -1.</_>
        <_>
          4 1 4 13 2.</_></rects>
      <tilted>0</tilted></_>
    <_>
      <rects>
        <_>
          0 2 4 18 -1.</_>
        <_>
          2 2 2 18 2.</_></rects>
      <tilted>0</tilted></_>
    <_>
      <rects>
        <_>
          0 2 4 28 -1.</_>
        <_>
          2 2 2 28 2.</_></rects>
      <tilted>0</tilted></_>
    <_>
      <rects>
        <_>
          0 2 8 22 -1.</_>
        <_>
          4 2 4 22 2.</_></rects>
      <tilted>0</tilted></_>
    <_>
      <rects>
        <_>
          0 3 10 27 -1.</_>
        <_>
          5 3 5 27 2.</_></rects>
      <tilted>0</tilted></_>
    <_>
      <rects>
        <_>
          0 5 44 9 -1.</_>
        <_>
          22 5 22 9 2.</_></rects>
      <tilted>0</tilted></_>
    <_>
      <rects>
        <_>
          0 7 1 18 -1.</_>
        <_>
          0 13 1 6 2.</_></rects>
      <tilted>0</tilted></_>
    <_>
      <rects>
        <_>
          0 7 22 21 -1.</_>
        <_>
          11 7 11 21 2.</_></rects>
      <tilted>0</tilted></_>
    <_>
      <rects>
        <_>
          0 8 2 8 -1.</_>
        <_>
          0 12 2 4 2.</_></rects>
      <tilted>0</tilted></_>
    <_>
      <rects>
        <_>
          0 8 4 8 -1.</_>
        <_>
          0 12 4 4 2.</_></rects>
      <tilted>0</tilted></_>
    <_>
      <rects>
        <_>
          0 8 42 11 -1.</_>
        <_>
          21 8 21 11 2.</_></rects>
      <tilted>0</tilted></_>
    <_>
      <rects>
        <_>
          0 9 10 17 -1.</_>
        <_>
          5 9 5 17 2.</_></rects>
      <tilted>0</tilted></_>
    <_>
      <rects>
        <_>
          0 10 2 8 -1.</_>
        <_>
          0 14 2 4 2.</_></rects>
      <tilted>0</tilted></_>
    <_>
      <rects>
        <_>
          0 10 8 3 -1.</_>
        <_>
          4 10 4 3 2.</_></rects>
      <tilted>0</tilted></_>
    <_>
      <rects>
        <_>
          0 11 8 2 -1.</_>
        <_>
          4 11 4 2 2.</_></rects>
      <tilted>0</tilted></_>
    <_>
      <rects>
        <_>
          0 12 1 8 -1.</_>
        <_>
          0 16 1 4 2.</_></rects>
      <tilted>0</tilted></_>
    <_>
      <rects>
        <_>
          0 13 3 4 -1.</_>
        <_>
          0 15 3 2 2.</_></rects>
      <tilted>0</tilted></_>
    <_>
      <rects>
        <_>
          0 13 12 4 -1.</_>
        <_>
          6 13 6 4 2.</_></rects>
      <tilted>0</tilted></_>
    <_>
      <rects>
        <_>
          0 14 4 16 -1.</_>
        <_>
          0 22 4 8 2.</_></rects>
      <tilted>0</tilted></_>
    <_>
      <rects>
        <_>
          0 15 4 8 -1.</_>
        <_>
          0 19 4 4 2.</_></rects>
      <tilted>0</tilted></_>
    <_>
      <rects>
        <_>
          0 15 8 10 -1.</_>
        <_>
          4 15 4 10 2.</_></rects>
      <tilted>0</tilted></_>
    <_>
      <rects>
        <_>
          0 15 26 6 -1.</_>
        <_>
          0 15 13 3 2.</_>
        <_>
          13 18 13 3 2.</_></rects>
      <tilted>0</tilted></_>
    <_>
      <rects>
        <_>
          0 17 14 10 -1.</_>
        <_>
          7 17 7 10 2.</_></rects>
      <tilted>0</tilted></_>
    <_>
      <rects>
        <_>
          0 18 1 6 -1.</_>
        <_>
          0 21 1 3 2.</_></rects>
      <tilted>0</tilted></_>
    <_>
      <rects>
        <_>
          0 18 3 4 -1.</_>
        <_>
          0 20 3 2 2.</_></rects>
      <tilted>0</tilted></_>
    <_>
      <rects>
        <_>
          0 18 4 8 -1.</_>
        <_>
          0 22 4 4 2.</_></rects>
      <tilted>0</tilted></_>
    <_>
      <rects>
        <_>
          0 18 10 12 -1.</_>
        <_>
          0 24 10 6 2.</_></rects>
      <tilted>0</tilted></_>
    <_>
      <rects>
        <_>
          0 18 22 10 -1.</_>
        <_>
          11 18 11 10 2.</_></rects>
      <tilted>0</tilted></_>
    <_>
      <rects>
        <_>
          0 18 38 8 -1.</_>
        <_>
          19 18 19 8 2.</_></rects>
      <tilted>0</tilted></_>
    <_>
      <rects>
        <_>
          0 19 4 6 -1.</_>
        <_>
          0 22 4 3 2.</_></rects>
      <tilted>0</tilted></_>
    <_>
      <rects>
        <_>
          0 19 40 7 -1.</_>
        <_>
          20 19 20 7 2.</_></rects>
      <tilted>0</tilted></_>
    <_>
      <rects>
        <_>
          0 20 10 7 -1.</_>
        <_>
          5 20 5 7 2.</_></rects>
      <tilted>0</tilted></_>
    <_>
      <rects>
        <_>
          0 22 7 8 -1.</_>
        <_>
          0 26 7 4 2.</_></rects>
      <tilted>0</tilted></_>
    <_>
      <rects>
        <_>
          0 22 22 6 -1.</_>
        <_>
          11 22 11 6 2.</_></rects>
      <tilted>0</tilted></_>
    <_>
      <rects>
        <_>
          0 24 2 6 -1.</_>
        <_>
          0 27 2 3 2.</_></rects>
      <tilted>0</tilted></_>
    <_>
      <rects>
        <_>
          0 25 5 2 -1.</_>
        <_>
          0 26 5 1 2.</_></rects>
      <tilted>0</tilted></_>
    <_>
      <rects>
        <_>
          1 0 14 14 -1.</_>
        <_>
          1 7 14 7 2.</_></rects>
      <tilted>0</tilted></_>
    <_>
      <rects>
        <_>
          1 0 47 12 -1.</_>
        <_>
          1 6 47 6 2.</_></rects>
      <tilted>0</tilted></_>
    <_>
      <rects>
        <_>
          1 1 1 6 -1.</_>
        <_>
          1 4 1 3 2.</_></rects>
      <tilted>0</tilted></_>
    <_>
      <rects>
        <_>
          1 3 16 17 -1.</_>
        <_>
          9 3 8 17 2.</_></rects>
      <tilted>0</tilted></_>
    <_>
      <rects>
        <_>
          1 4 28 26 -1.</_>
        <_>
          1 4 14 13 2.</_>
        <_>
          15 17 14 13 2.</_></rects>
      <tilted>0</tilted></_>
    <_>
      <rects>
        <_>
          1 9 4 4 -1.</_>
        <_>
          1 11 4 2 2.</_></rects>
      <tilted>0</tilted></_>
    <_>
      <rects>
        <_>
          1 11 8 6 -1.</_>
        <_>
          5 11 4 6 2.</_></rects>
      <tilted>0</tilted></_>
    <_>
      <rects>
        <_>
          1 14 5 4 -1.</_>
        <_>
          1 16 5 2 2.</_></rects>
      <tilted>0</tilted></_>
    <_>
      <rects>
        <_>
          1 15 4 4 -1.</_>
        <_>
          1 17 4 2 2.</_></rects>
      <tilted>0</tilted></_>
    <_>
      <rects>
        <_>
          1 15 6 6 -1.</_>
        <_>
          1 18 6 3 2.</_></rects>
      <tilted>0</tilted></_>
    <_>
      <rects>
        <_>
          2 0 6 1 -1.</_>
        <_>
          5 0 3 1 2.</_></rects>
      <tilted>0</tilted></_>
    <_>
      <rects>
        <_>
          2 4 48 26 -1.</_>
        <_>
          2 4 24 13 2.</_>
        <_>
          26 17 24 13 2.</_></rects>
      <tilted>0</tilted></_>
    <_>
      <rects>
        <_>
          2 7 6 19 -1.</_>
        <_>
          5 7 3 19 2.</_></rects>
      <tilted>0</tilted></_>
    <_>
      <rects>
        <_>
          2 7 26 12 -1.</_>
        <_>
          2 7 13 6 2.</_>
        <_>
          15 13 13 6 2.</_></rects>
      <tilted>0</tilted></_>
    <_>
      <rects>
        <_>
          2 12 8 16 -1.</_>
        <_>
          6 12 4 16 2.</_></rects>
      <tilted>0</tilted></_>
    <_>
      <rects>
        <_>
          2 12 30 6 -1.</_>
        <_>
          17 12 15 6 2.</_></rects>
      <tilted>0</tilted></_>
    <_>
      <rects>
        <_>
          2 29 4 1 -1.</_>
        <_>
          4 29 2 1 2.</_></rects>
      <tilted>0</tilted></_>
    <_>
      <rects>
        <_>
          3 0 33 1 -1.</_>
        <_>
          14 0 11 1 2.</_></rects>
      <tilted>0</tilted></_>
    <_>
      <rects>
        <_>
          3 0 13 6 -1.</_>
        <_>
          3 3 13 3 2.</_></rects>
      <tilted>0</tilted></_>
    <_>
      <rects>
        <_>
          3 0 13 12 -1.</_>
        <_>
          3 6 13 6 2.</_></rects>
      <tilted>0</tilted></_>
    <_>
      <rects>
        <_>
          3 0 18 4 -1.</_>
        <_>
          3 2 18 2 2.</_></rects>
      <tilted>0</tilted></_>
    <_>
      <rects>
        <_>
          3 0 26 4 -1.</_>
        <_>
          3 2 26 2 2.</_></rects>
      <tilted>0</tilted></_>
    <_>
      <rects>
        <_>
          3 6 18 18 -1.</_>
        <_>
          3 6 9 9 2.</_>
        <_>
          12 15 9 9 2.</_></rects>
      <tilted>0</tilted></_>
    <_>
      <rects>
        <_>
          3 8 30 22 -1.</_>
        <_>
          3 8 15 11 2.</_>
        <_>
          18 19 15 11 2.</_></rects>
      <tilted>0</tilted></_>
    <_>
      <rects>
        <_>
          3 8 39 2 -1.</_>
        <_>
          3 9 39 1 2.</_></rects>
      <tilted>0</tilted></_>
    <_>
      <rects>
        <_>
          3 8 44 4 -1.</_>
        <_>
          3 10 44 2 2.</_></rects>
      <tilted>0</tilted></_>
    <_>
      <rects>
        <_>
          3 10 6 13 -1.</_>
        <_>
          6 10 3 13 2.</_></rects>
      <tilted>0</tilted></_>
    <_>
      <rects>
        <_>
          4 0 32 4 -1.</_>
        <_>
          4 2 32 2 2.</_></rects>
      <tilted>0</tilted></_>
    <_>
      <rects>
        <_>
          4 22 42 8 -1.</_>
        <_>
          4 26 42 4 2.</_></rects>
      <tilted>0</tilted></_>
    <_>
      <rects>
        <_>
          5 0 4 5 -1.</_>
        <_>
          7 0 2 5 2.</_></rects>
      <tilted>0</tilted></_>
    <_>
      <rects>
        <_>
          5 4 10 5 -1.</_>
        <_>
          10 4 5 5 2.</_></rects>
      <tilted>0</tilted></_>
    <_>
      <rects>
        <_>
          5 10 6 16 -1.</_>
        <_>
          8 10 3 16 2.</_></rects>
      <tilted>0</tilted></_>
    <_>
      <rects>
        <_>
          5 13 22 6 -1.</_>
        <_>
          5 16 22 3 2.</_></rects>
      <tilted>0</tilted></_>
    <_>
      <rects>
        <_>
          5 23 45 4 -1.</_>
        <_>
          5 25 45 2 2.</_></rects>
      <tilted>0</tilted></_>
    <_>
      <rects>
        <_>
          5 24 45 6 -1.</_>
        <_>
          5 27 45 3 2.</_></rects>
      <tilted>0</tilted></_>
    <_>
      <rects>
        <_>
          5 26 5 4 -1.</_>
        <_>
          5 28 5 2 2.</_></rects>
      <tilted>0</tilted></_>
    <_>
      <rects>
        <_>
          5 29 18 1 -1.</_>
        <_>
          14 29 9 1 2.</_></rects>
      <tilted>0</tilted></_>
    <_>
      <rects>
        <_>
          6 0 6 3 -1.</_>
        <_>
          9 0 3 3 2.</_></rects>
      <tilted>0</tilted></_>
    <_>
      <rects>
        <_>
          6 5 35 4 -1.</_>
        <_>
          6 7 35 2 2.</_></rects>
      <tilted>0</tilted></_>
    <_>
      <rects>
        <_>
          6 11 23 6 -1.</_>
        <_>
          6 14 23 3 2.</_></rects>
      <tilted>0</tilted></_>
    <_>
      <rects>
        <_>
          6 12 25 6 -1.</_>
        <_>
          6 15 25 3 2.</_></rects>
      <tilted>0</tilted></_>
    <_>
      <rects>
        <_>
          6 14 12 16 -1.</_>
        <_>
          6 22 12 8 2.</_></rects>
      <tilted>0</tilted></_>
    <_>
      <rects>
        <_>
          6 15 10 6 -1.</_>
        <_>
          11 15 5 6 2.</_></rects>
      <tilted>0</tilted></_>
    <_>
      <rects>
        <_>
          6 23 39 6 -1.</_>
        <_>
          6 26 39 3 2.</_></rects>
      <tilted>0</tilted></_>
    <_>
      <rects>
        <_>
          6 24 40 6 -1.</_>
        <_>
          6 27 40 3 2.</_></rects>
      <tilted>0</tilted></_>
    <_>
      <rects>
        <_>
          7 0 6 2 -1.</_>
        <_>
          10 0 3 2 2.</_></rects>
      <tilted>0</tilted></_>
    <_>
      <rects>
        <_>
          7 0 42 6 -1.</_>
        <_>
          7 3 42 3 2.</_></rects>
      <tilted>0</tilted></_>
    <_>
      <rects>
        <_>
          7 5 10 2 -1.</_>
        <_>
          7 6 10 1 2.</_></rects>
      <tilted>0</tilted></_>
    <_>
      <rects>
        <_>
          7 7 10 4 -1.</_>
        <_>
          12 7 5 4 2.</_></rects>
      <tilted>0</tilted></_>
    <_>
      <rects>
        <_>
          7 11 35 6 -1.</_>
        <_>
          7 14 35 3 2.</_></rects>
      <tilted>0</tilted></_>
    <_>
      <rects>
        <_>
          7 22 30 4 -1.</_>
        <_>
          7 22 15 2 2.</_>
        <_>
          22 24 15 2 2.</_></rects>
      <tilted>0</tilted></_>
    <_>
      <rects>
        <_>
          7 24 33 6 -1.</_>
        <_>
          7 27 33 3 2.</_></rects>
      <tilted>0</tilted></_>
    <_>
      <rects>
        <_>
          8 0 41 6 -1.</_>
        <_>
          8 3 41 3 2.</_></rects>
      <tilted>0</tilted></_>
    <_>
      <rects>
        <_>
          8 3 23 2 -1.</_>
        <_>
          8 4 23 1 2.</_></rects>
      <tilted>0</tilted></_>
    <_>
      <rects>
        <_>
          8 5 2 17 -1.</_>
        <_>
          9 5 1 17 2.</_></rects>
      <tilted>0</tilted></_>
    <_>
      <rects>
        <_>
          8 6 11 2 -1.</_>
        <_>
          8 7 11 1 2.</_></rects>
      <tilted>0</tilted></_>
    <_>
      <rects>
        <_>
          8 12 2 14 -1.</_>
        <_>
          9 12 1 14 2.</_></rects>
      <tilted>0</tilted></_>
    <_>
      <rects>
        <_>
          8 15 34 6 -1.</_>
        <_>
          8 15 17 3 2.</_>
        <_>
          25 18 17 3 2.</_></rects>
      <tilted>0</tilted></_>
    <_>
      <rects>
        <_>
          8 17 28 4 -1.</_>
        <_>
          8 19 28 2 2.</_></rects>
      <tilted>0</tilted></_>
    <_>
      <rects>
        <_>
          9 0 23 6 -1.</_>
        <_>
          9 3 23 3 2.</_></rects>
      <tilted>0</tilted></_>
    <_>
      <rects>
        <_>
          9 7 18 12 -1.</_>
        <_>
          9 13 18 6 2.</_></rects>
      <tilted>0</tilted></_>
    <_>
      <rects>
        <_>
          9 8 40 2 -1.</_>
        <_>
          9 8 20 1 2.</_>
        <_>
          29 9 20 1 2.</_></rects>
      <tilted>0</tilted></_>
    <_>
      <rects>
        <_>
          9 9 40 6 -1.</_>
        <_>
          9 9 20 3 2.</_>
        <_>
          29 12 20 3 2.</_></rects>
      <tilted>0</tilted></_>
    <_>
      <rects>
        <_>
          9 13 21 7 -1.</_>
        <_>
          16 13 7 7 2.</_></rects>
      <tilted>0</tilted></_>
    <_>
      <rects>
        <_>
          10 1 8 4 -1.</_>
        <_>
          14 1 4 4 2.</_></rects>
      <tilted>0</tilted></_>
    <_>
      <rects>
        <_>
          10 2 17 4 -1.</_>
        <_>
          10 4 17 2 2.</_></rects>
      <tilted>0</tilted></_>
    <_>
      <rects>
        <_>
          10 3 20 2 -1.</_>
        <_>
          10 3 10 1 2.</_>
        <_>
          20 4 10 1 2.</_></rects>
      <tilted>0</tilted></_>
    <_>
      <rects>
        <_>
          10 4 2 14 -1.</_>
        <_>
          10 4 1 7 2.</_>
        <_>
          11 11 1 7 2.</_></rects>
      <tilted>0</tilted></_>
    <_>
      <rects>
        <_>
          10 6 40 2 -1.</_>
        <_>
          10 6 20 1 2.</_>
        <_>
          30 7 20 1 2.</_></rects>
      <tilted>0</tilted></_>
    <_>
      <rects>
        <_>
          10 8 30 2 -1.</_>
        <_>
          10 8 15 1 2.</_>
        <_>
          25 9 15 1 2.</_></rects>
      <tilted>0</tilted></_>
    <_>
      <rects>
        <_>
          10 11 16 6 -1.</_>
        <_>
          10 14 16 3 2.</_></rects>
      <tilted>0</tilted></_>
    <_>
      <rects>
        <_>
          10 12 36 5 -1.</_>
        <_>
          22 12 12 5 2.</_></rects>
      <tilted>0</tilted></_>
    <_>
      <rects>
        <_>
          10 13 6 8 -1.</_>
        <_>
          12 13 2 8 2.</_></rects>
      <tilted>0</tilted></_>
    <_>
      <rects>
        <_>
          10 23 30 2 -1.</_>
        <_>
          10 24 30 1 2.</_></rects>
      <tilted>0</tilted></_>
    <_>
      <rects>
        <_>
          11 0 6 6 -1.</_>
        <_>
          14 0 3 6 2.</_></rects>
      <tilted>0</tilted></_>
    <_>
      <rects>
        <_>
          11 1 17 2 -1.</_>
        <_>
          11 2 17 1 2.</_></rects>
      <tilted>0</tilted></_>
    <_>
      <rects>
        <_>
          11 2 6 14 -1.</_>
        <_>
          11 2 3 7 2.</_>
        <_>
          14 9 3 7 2.</_></rects>
      <tilted>0</tilted></_>
    <_>
      <rects>
        <_>
          11 7 38 2 -1.</_>
        <_>
          11 7 19 1 2.</_>
        <_>
          30 8 19 1 2.</_></rects>
      <tilted>0</tilted></_>
    <_>
      <rects>
        <_>
          11 8 24 4 -1.</_>
        <_>
          11 10 24 2 2.</_></rects>
      <tilted>0</tilted></_>
    <_>
      <rects>
        <_>
          11 13 19 4 -1.</_>
        <_>
          11 15 19 2 2.</_></rects>
      <tilted>0</tilted></_>
    <_>
      <rects>
        <_>
          11 14 2 8 -1.</_>
        <_>
          11 14 1 4 2.</_>
        <_>
          12 18 1 4 2.</_></rects>
      <tilted>0</tilted></_>
    <_>
      <rects>
        <_>
          11 15 6 6 -1.</_>
        <_>
          11 18 6 3 2.</_></rects>
      <tilted>0</tilted></_>
    <_>
      <rects>
        <_>
          11 20 24 2 -1.</_>
        <_>
          11 20 12 1 2.</_>
        <_>
          23 21 12 1 2.</_></rects>
      <tilted>0</tilted></_>
    <_>
      <rects>
        <_>
          11 21 34 6 -1.</_>
        <_>
          11 24 34 3 2.</_></rects>
      <tilted>0</tilted></_>
    <_>
      <rects>
        <_>
          12 2 28 4 -1.</_>
        <_>
          12 4 28 2 2.</_></rects>
      <tilted>0</tilted></_>
    <_>
      <rects>
        <_>
          12 6 2 10 -1.</_>
        <_>
          12 6 1 5 2.</_>
        <_>
          13 11 1 5 2.</_></rects>
      <tilted>0</tilted></_>
    <_>
      <rects>
        <_>
          12 8 32 4 -1.</_>
        <_>
          12 8 16 2 2.</_>
        <_>
          28 10 16 2 2.</_></rects>
      <tilted>0</tilted></_>
    <_>
      <rects>
        <_>
          12 9 16 4 -1.</_>
        <_>
          12 11 16 2 2.</_></rects>
      <tilted>0</tilted></_>
    <_>
      <rects>
        <_>
          12 14 18 5 -1.</_>
        <_>
          18 14 6 5 2.</_></rects>
      <tilted>0</tilted></_>
    <_>
      <rects>
        <_>
          12 15 36 6 -1.</_>
        <_>
          12 15 18 3 2.</_>
        <_>
          30 18 18 3 2.</_></rects>
      <tilted>0</tilted></_>
    <_>
      <rects>
        <_>
          12 17 24 4 -1.</_>
        <_>
          12 19 24 2 2.</_></rects>
      <tilted>0</tilted></_>
    <_>
      <rects>
        <_>
          12 19 18 4 -1.</_>
        <_>
          12 21 18 2 2.</_></rects>
      <tilted>0</tilted></_>
    <_>
      <rects>
        <_>
          13 5 2 19 -1.</_>
        <_>
          14 5 1 19 2.</_></rects>
      <tilted>0</tilted></_>
    <_>
      <rects>
        <_>
          13 6 25 14 -1.</_>
        <_>
          13 13 25 7 2.</_></rects>
      <tilted>0</tilted></_>
    <_>
      <rects>
        <_>
          13 10 6 12 -1.</_>
        <_>
          13 10 3 6 2.</_>
        <_>
          16 16 3 6 2.</_></rects>
      <tilted>0</tilted></_>
    <_>
      <rects>
        <_>
          13 14 28 6 -1.</_>
        <_>
          13 14 14 3 2.</_>
        <_>
          27 17 14 3 2.</_></rects>
      <tilted>0</tilted></_>
    <_>
      <rects>
        <_>
          13 19 33 2 -1.</_>
        <_>
          13 20 33 1 2.</_></rects>
      <tilted>0</tilted></_>
    <_>
      <rects>
        <_>
          14 4 17 4 -1.</_>
        <_>
          14 6 17 2 2.</_></rects>
      <tilted>0</tilted></_>
    <_>
      <rects>
        <_>
          14 7 10 2 -1.</_>
        <_>
          14 8 10 1 2.</_></rects>
      <tilted>0</tilted></_>
    <_>
      <rects>
        <_>
          14 10 22 4 -1.</_>
        <_>
          14 12 22 2 2.</_></rects>
      <tilted>0</tilted></_>
    <_>
      <rects>
        <_>
          14 11 15 4 -1.</_>
        <_>
          14 13 15 2 2.</_></rects>
      <tilted>0</tilted></_>
    <_>
      <rects>
        <_>
          14 15 13 6 -1.</_>
        <_>
          14 18 13 3 2.</_></rects>
      <tilted>0</tilted></_>
    <_>
      <rects>
        <_>
          14 19 14 4 -1.</_>
        <_>
          14 21 14 2 2.</_></rects>
      <tilted>0</tilted></_>
    <_>
      <rects>
        <_>
          14 21 20 2 -1.</_>
        <_>
          14 22 20 1 2.</_></rects>
      <tilted>0</tilted></_>
    <_>
      <rects>
        <_>
          14 24 34 6 -1.</_>
        <_>
          14 27 34 3 2.</_></rects>
      <tilted>0</tilted></_>
    <_>
      <rects>
        <_>
          14 25 22 2 -1.</_>
        <_>
          14 25 11 1 2.</_>
        <_>
          25 26 11 1 2.</_></rects>
      <tilted>0</tilted></_>
    <_>
      <rects>
        <_>
          15 0 12 4 -1.</_>
        <_>
          21 0 6 4 2.</_></rects>
      <tilted>0</tilted></_>
    <_>
      <rects>
        <_>
          15 3 26 23 -1.</_>
        <_>
          28 3 13 23 2.</_></rects>
      <tilted>0</tilted></_>
    <_>
      <rects>
        <_>
          15 12 5 6 -1.</_>
        <_>
          15 15 5 3 2.</_></rects>
      <tilted>0</tilted></_>
    <_>
      <rects>
        <_>
          15 13 2 9 -1.</_>
        <_>
          16 13 1 9 2.</_></rects>
      <tilted>0</tilted></_>
    <_>
      <rects>
        <_>
          15 14 2 13 -1.</_>
        <_>
          16 14 1 13 2.</_></rects>
      <tilted>0</tilted></_>
    <_>
      <rects>
        <_>
          15 15 20 2 -1.</_>
        <_>
          15 15 10 1 2.</_>
        <_>
          25 16 10 1 2.</_></rects>
      <tilted>0</tilted></_>
    <_>
      <rects>
        <_>
          15 18 2 6 -1.</_>
        <_>
          15 21 2 3 2.</_></rects>
      <tilted>0</tilted></_>
    <_>
      <rects>
        <_>
          15 18 30 4 -1.</_>
        <_>
          25 18 10 4 2.</_></rects>
      <tilted>0</tilted></_>
    <_>
      <rects>
        <_>
          15 19 20 4 -1.</_>
        <_>
          15 21 20 2 2.</_></rects>
      <tilted>0</tilted></_>
    <_>
      <rects>
        <_>
          15 25 16 2 -1.</_>
        <_>
          15 25 8 1 2.</_>
        <_>
          23 26 8 1 2.</_></rects>
      <tilted>0</tilted></_>
    <_>
      <rects>
        <_>
          16 15 24 6 -1.</_>
        <_>
          16 18 24 3 2.</_></rects>
      <tilted>0</tilted></_>
    <_>
      <rects>
        <_>
          16 19 8 8 -1.</_>
        <_>
          20 19 4 8 2.</_></rects>
      <tilted>0</tilted></_>
    <_>
      <rects>
        <_>
          16 23 28 2 -1.</_>
        <_>
          16 23 14 1 2.</_>
        <_>
          30 24 14 1 2.</_></rects>
      <tilted>0</tilted></_>
    <_>
      <rects>
        <_>
          16 23 17 4 -1.</_>
        <_>
          16 25 17 2 2.</_></rects>
      <tilted>0</tilted></_>
    <_>
      <rects>
        <_>
          17 2 8 12 -1.</_>
        <_>
          17 2 4 6 2.</_>
        <_>
          21 8 4 6 2.</_></rects>
      <tilted>0</tilted></_>
    <_>
      <rects>
        <_>
          17 9 6 2 -1.</_>
        <_>
          17 10 6 1 2.</_></rects>
      <tilted>0</tilted></_>
    <_>
      <rects>
        <_>
          17 17 6 7 -1.</_>
        <_>
          20 17 3 7 2.</_></rects>
      <tilted>0</tilted></_>
    <_>
      <rects>
        <_>
          18 0 6 2 -1.</_>
        <_>
          21 0 3 2 2.</_></rects>
      <tilted>0</tilted></_>
    <_>
      <rects>
        <_>
          18 3 2 22 -1.</_>
        <_>
          19 3 1 22 2.</_></rects>
      <tilted>0</tilted></_>
    <_>
      <rects>
        <_>
          18 4 2 18 -1.</_>
        <_>
          18 4 1 9 2.</_>
        <_>
          19 13 1 9 2.</_></rects>
      <tilted>0</tilted></_>
    <_>
      <rects>
        <_>
          18 7 24 15 -1.</_>
        <_>
          30 7 12 15 2.</_></rects>
      <tilted>0</tilted></_>
    <_>
      <rects>
        <_>
          18 9 8 2 -1.</_>
        <_>
          18 10 8 1 2.</_></rects>
      <tilted>0</tilted></_>
    <_>
      <rects>
        <_>
          18 11 2 8 -1.</_>
        <_>
          18 11 1 4 2.</_>
        <_>
          19 15 1 4 2.</_></rects>
      <tilted>0</tilted></_>
    <_>
      <rects>
        <_>
          18 12 11 6 -1.</_>
        <_>
          18 15 11 3 2.</_></rects>
      <tilted>0</tilted></_>
    <_>
      <rects>
        <_>
          18 14 2 6 -1.</_>
        <_>
          19 14 1 6 2.</_></rects>
      <tilted>0</tilted></_>
    <_>
      <rects>
        <_>
          18 15 6 11 -1.</_>
        <_>
          21 15 3 11 2.</_></rects>
      <tilted>0</tilted></_>
    <_>
      <rects>
        <_>
          18 15 13 6 -1.</_>
        <_>
          18 18 13 3 2.</_></rects>
      <tilted>0</tilted></_>
    <_>
      <rects>
        <_>
          18 15 28 6 -1.</_>
        <_>
          18 15 14 3 2.</_>
        <_>
          32 18 14 3 2.</_></rects>
      <tilted>0</tilted></_>
    <_>
      <rects>
        <_>
          18 18 14 8 -1.</_>
        <_>
          18 22 14 4 2.</_></rects>
      <tilted>0</tilted></_>
    <_>
      <rects>
        <_>
          18 20 4 10 -1.</_>
        <_>
          20 20 2 10 2.</_></rects>
      <tilted>0</tilted></_>
    <_>
      <rects>
        <_>
          18 21 15 6 -1.</_>
        <_>
          18 24 15 3 2.</_></rects>
      <tilted>0</tilted></_>
    <_>
      <rects>
        <_>
          18 29 9 1 -1.</_>
        <_>
          21 29 3 1 2.</_></rects>
      <tilted>0</tilted></_>
    <_>
      <rects>
        <_>
          19 0 4 3 -1.</_>
        <_>
          21 0 2 3 2.</_></rects>
      <tilted>0</tilted></_>
    <_>
      <rects>
        <_>
          19 0 31 16 -1.</_>
        <_>
          19 8 31 8 2.</_></rects>
      <tilted>0</tilted></_>
    <_>
      <rects>
        <_>
          19 5 8 14 -1.</_>
        <_>
          19 5 4 7 2.</_>
        <_>
          23 12 4 7 2.</_></rects>
      <tilted>0</tilted></_>
    <_>
      <rects>
        <_>
          19 8 24 16 -1.</_>
        <_>
          31 8 12 16 2.</_></rects>
      <tilted>0</tilted></_>
    <_>
      <rects>
        <_>
          19 11 24 6 -1.</_>
        <_>
          19 11 12 3 2.</_>
        <_>
          31 14 12 3 2.</_></rects>
      <tilted>0</tilted></_>
    <_>
      <rects>
        <_>
          19 11 24 18 -1.</_>
        <_>
          31 11 12 18 2.</_></rects>
      <tilted>0</tilted></_>
    <_>
      <rects>
        <_>
          19 14 2 8 -1.</_>
        <_>
          20 14 1 8 2.</_></rects>
      <tilted>0</tilted></_>
    <_>
      <rects>
        <_>
          19 16 13 8 -1.</_>
        <_>
          19 20 13 4 2.</_></rects>
      <tilted>0</tilted></_>
    <_>
      <rects>
        <_>
          19 18 11 4 -1.</_>
        <_>
          19 20 11 2 2.</_></rects>
      <tilted>0</tilted></_>
    <_>
